52 128
C2 -0.26568618 0.21809664 -0.21749866 0.3731362 0.0076202643 0.23842709 -0.1341988 0.30523297 -0.27451575 0.15519142 -0.45756108 -0.29739562 0.08809853 -0.11854899 0.5310986 -0.2322634 0.33782178 -0.093614265 -0.029832024 -0.008387673 -0.2051339 -0.2295113 0.054885868 0.15957537 0.3226565 -0.3327154 0.06918306 0.073907785 -0.1051646 -0.015946783 -0.24429217 -0.016721154 -0.42000756 -0.18612538 -0.042974316 0.3924348 0.1661217 -0.3029764 0.1570811 -0.10581427 -0.08825426 -0.5175239 -0.20776147 0.23273246 -0.111068115 0.21266298 -0.016460165 0.11497814 -0.30640507 0.4515185 -0.6020927 0.24878153 0.039140448 0.09318131 0.07578282 -0.14515433 -0.19008952 -0.34031314 -0.15411836 -0.038519822 0.064900845 0.28094 0.10078096 -0.26550227 0.1388088 0.03311439 -0.40863577 0.20861323 0.030130973 0.004877921 -0.41284862 0.049562432 0.19815037 -0.1631438 0.19769935 -0.17087187 0.13067442 0.23881154 -0.12135525 -0.114350714 -0.35345405 0.36126167 0.03861049 0.02473774 0.06669712 0.49053282 0.66964835 -0.32471204 -0.099727094 0.29053855 -0.032804497 0.08627682 0.20841102 0.3202893 0.21930729 0.3115601 -0.036526505 0.35757846 0.059019726 0.16435139 -0.36887047 -0.41045985 -0.2990068 0.14421748 0.182372 -0.2375517 -0.15386294 0.085468955 0.06381673 0.19253755 -0.05345365 -0.2866155 0.40457553 0.20600875 0.1295387 0.3723454 0.45216098 -0.5311118 0.05160294 0.31567863 0.42862755 0.09310721 -0.16201589 -0.0035198499 -0.11399496 -0.064771265 -0.31661242 0.13570242
C3 0.0079739895 0.16178907 0.23347853 -0.15860209 -0.07391304 -0.2454183 -0.087026834 -0.03459566 -0.052196607 0.15702027 -0.22878717 0.04810871 0.029638274 -0.15173282 0.12715253 0.14266175 -0.23084985 0.13797492 -0.12799495 0.21432094 -0.19987902 -0.11482313 -0.012014128 0.16229513 0.17815885 -0.12206981 0.12248757 0.32656154 0.22942412 -0.24261126 -0.0308012 0.18411689 -0.13589305 0.12976664 0.09383212 -0.017766537 0.08848098 0.083955705 0.11553277 0.050573107 -0.17902993 -0.13843393 0.107778475 -0.08999482 0.00036958585 0.18236235 -0.18898614 -0.00011455312 0.31269985 0.08609959 -0.08854076 -0.045478016 -0.090555534 0.04592453 -0.12540819 0.1001024 -0.15436712 -0.17210025 -0.2596692 -0.048829347 0.0035176573 -0.078642085 0.03457838 -0.31204537 -0.058042187 -0.22301774 0.011935369 -0.12691721 0.14410315 0.14473036 -0.10323695 -0.043438222 0.03462413 0.06954898 0.12825839 0.22169182 -0.1294407 0.25009328 -0.09864878 -0.2783892 -0.016067069 0.1236296 0.13204917 -0.11144274 0.11793452 0.08941933 -0.124406196 -0.047859862 0.004062918 0.39981472 -0.28047428 0.09856243 -0.2963133 0.15407047 0.27519882 -0.0031157907 -0.17557779 0.16345888 -0.05834114 -0.034938913 -0.06257078 0.07484729 -0.14426422 0.014435155 0.31245154 0.13110682 0.15437086 0.07362257 -0.1288568 0.10956568 0.06699763 -0.053237505 0.56286734 0.16219878 0.013084386 -0.13960797 0.14784352 -0.24073866 0.08056756 -0.16202974 -0.0211656 0.29352275 -0.21532106 0.2945864 -0.20161222 0.14735553 -0.11605572 -0.33122715
C4 -0.15867719 -0.076255925 0.07834822 -0.092696615 0.003934038 0.07568292 -0.25447708 0.0137172295 -0.22172078 -0.05983302 -0.052061807 0.37877697 0.0069570416 0.11085299 0.053905446 0.0056165704 -0.016296465 0.17868613 -0.37965348 -0.017584218 0.091242954 0.13081364 0.02919996 -0.11970007 0.1575382 0.0069768606 -0.08137382 0.09038498 0.029474014 -0.051927984 0.15239768 0.24399222 -0.12554596 0.027378263 0.1594259 0.21869308 -0.16452602 -0.31766284 -0.13016863 0.12234424 -0.054734703 -0.18542546 0.18249848 0.056904774 0.14351326 0.11479742 -0.027572766 0.2836044 0.012259222 0.22612979 0.07856771 0.36329737 0.019632893 0.049532857 -0.1127382 0.22281219 0.038606565 0.02046845 -0.0153223025 0.18598285 -0.24284543 0.09492451 0.1397049 -0.10698357 0.07234551 0.17400166 0.048815586 0.041821398 0.064618796 -0.0866435 -0.17365505 -0.12656847 0.27764767 -0.086850114 -0.050777134 0.18434133 -0.07315125 0.40622392 -0.101164825 -0.027642116 -0.12325182 0.10386207 -0.034587495 -0.21740595 0.019447528 0.21932866 -0.31816122 -0.070839316 0.20705599 0.16242968 -0.124241576 0.10862112 0.17170766 -0.060305834 0.17345157 0.14236774 0.14889543 0.28888437 0.19741873 0.25131962 -0.22399262 0.18231928 -0.39339054 0.20371386 0.27864638 -0.271337 -0.072404936 -0.11604222 0.023288954 0.050104033 -0.1292281 -0.092310175 -0.07728784 -0.06652653 -0.16026111 0.27546415 0.13904864 0.1089551 -0.15498814 -0.10499997 0.16204002 0.23268807 0.15595897 -0.25940362 0.27717772 -0.080166385 -0.035219252 0.028406225
C5 0.014009324 0.14483823 0.20746613 -0.14185205 -0.18900777 0.085499726 0.0058275405 0.3237169 -0.03767547 0.11199137 -0.24477969 0.075784095 -0.25808698 -0.1353589 -0.47290412 -0.01221635 0.032629024 0.080109596 0.07538907 0.21958476 -0.056619737 -0.2248798 0.12630484 0.22781233 -0.009271497 -0.09643807 -0.08460528 0.08603711 0.089434154 -0.11369768 0.010069324 0.0034169497 0.15805687 -0.08924337 0.14944232 -0.038128357 0.16410975 0.046680335 -0.06351184 0.05461507 0.18675858 0.032003343 0.018121345 0.029642003 -0.11362002 0.014384293 -0.0066783 -0.20616981 0.01584961 -0.03489904 -0.30306572 0.26643375 0.21122916 0.09085793 0.13768665 -0.06791304 -0.16199777 0.07539011 -0.16138886 -0.27092996 0.25842938 0.117832504 0.21960166 0.20067951 -0.09725076 0.20275317 0.05159248 0.11696145 0.05915967 0.09370616 0.014789465 0.16735959 0.074921384 0.05939186 0.14965428 0.23079246 0.0177753 -0.036452655 -0.1784685 -0.24281758 -0.11701232 0.064114586 -0.10949603 0.061653573 0.11171687 0.11995471 -0.12211957 -0.21988991 0.33524504 -0.008142366 -0.08266583 -0.13413718 -0.04345883 0.2205423 0.16746959 0.04501729 -0.070331745 -0.22525792 0.266509 -0.064052016 -0.2126001 -0.26273185 -0.14053406 0.41979343 0.019326461 -0.19243106 0.013119246 -0.13842915 -0.27281883 0.30518392 -0.15642494 -0.074272305 -0.059877492 0.27813047 0.2972827 0.05296456 0.2892473 -0.30541012 0.025265252 0.15796955 0.4187779 0.14797236 -0.041540872 -0.3304094 0.17226541 0.0036378363 0.1120128 0.05660684
C6 -0.099202 0.1645323 -0.26928404 0.1131601 0.18095517 0.108371265 0.22482973 -0.19475017 -0.102676064 -0.22278999 -0.128957 -0.030551843 -0.2549031 0.10773091 0.3117383 0.24359334 -0.050361764 -0.14152323 -0.21921678 0.022157624 -0.1594566 -0.0036424196 -0.025808973 0.23138402 0.15003219 0.1648052 0.19327067 0.06258323 0.010005761 -0.004882785 0.25109744 0.18650606 0.2683871 -0.10308497 -0.08960877 -0.056503825 0.051955953 0.20154 -0.075480066 0.0808241 -0.19668022 -0.13440262 0.11680444 -0.23165081 -0.067763194 -0.0013346912 -0.11313728 -0.08777343 -0.16401684 0.08274653 -0.25564227 0.09034361 0.18759042 0.11337816 -0.16497055 0.25550014 -0.025767641 -0.05047846 -0.41913578 0.21612272 -0.14754564 0.09449707 0.23667504 -0.037559986 -0.020548409 0.06634782 0.29663727 0.12162052 -0.10724378 -0.1314267 -0.18895656 -0.06463972 -0.17704143 0.12883368 0.010351824 0.09662854 0.4147815 0.110926725 -0.16258512 0.12799314 0.17606956 0.021533731 -0.02382574 0.21132055 -0.07408269 0.15214035 0.1583638 -0.2631396 -0.083818376 -0.040145267 -0.089819595 -0.02093869 0.109847665 -0.04175176 -0.0057429564 0.013074207 0.043732595 0.27897757 0.08188424 0.02482725 0.07097965 -0.14021643 0.005075347 0.56919634 0.13142991 -0.38357523 0.09682761 0.07757832 -0.07335557 0.065326765 -0.103276365 0.10454892 0.1576438 0.07873272 -0.01880298 -0.20075409 0.13942316 -0.118847996 -0.08461316 0.05537253 0.11122639 0.083613805 -0.16189562 -0.029650182 -0.09499962 0.4620555 -0.34024787 0.105308875
C7 -0.015026852 0.03275854 0.029078206 0.16948657 0.07282016 0.27038097 -0.062326863 0.13202387 -0.011731979 0.40225673 0.01755333 0.09707742 0.040156357 0.12951134 0.12786141 0.07436293 0.13271368 -0.07954412 0.1584523 0.13214147 -0.2286018 0.07099569 0.22184822 0.028400404 0.10627586 0.13120633 0.096032 0.1675242 -0.16309212 0.25352293 -0.15521823 0.08581489 -0.39123803 -0.2757611 0.14831327 0.20395769 0.035608925 -0.16859424 0.2694247 -0.158074 0.25310895 -0.2009224 0.010402043 -0.21748146 0.0021189647 0.023395581 -0.17787246 0.12665968 0.015186679 0.017590614 0.12219188 0.23493688 0.36178038 0.22554886 0.02762258 -0.15771963 -0.054323 0.01895955 -0.25769654 0.11144167 0.08337249 -0.12197669 -0.13693078 -0.20151705 0.015534919 -0.22469023 0.12960136 0.096578285 0.038638618 0.07197498 0.09164496 -0.1000119 0.31935692 0.1571288 0.21556258 0.052681614 0.09179478 0.18410273 -0.014133722 0.046342183 0.12205231 0.198092 -0.14384368 0.23276702 -0.103065625 -0.1445872 -0.17136857 0.06754147 0.22590695 0.15483966 0.0041836603 -0.093167014 -0.00743173 -0.106627315 0.042445116 -0.016004223 -0.056956865 0.060452227 0.13502337 0.040617675 -0.14930017 -0.0912977 0.2789301 0.4005025 0.034635726 0.03775867 -0.2157761 0.1840201 0.015562589 0.27095526 -0.2869464 0.09086386 0.1655701 0.17769916 -0.212411 0.3825221 -0.4346346 -0.11992437 0.06869132 0.18572177 0.17262004 0.32744685 -0.01013805 0.13627668 -0.04878428 0.09431122 -0.008548453 -0.19685437
C8 -0.17377914 -0.009861378 0.13589177 -0.1625823 -0.02240473 0.06652702 -0.22910616 0.14633985 0.15343522 0.07385921 -0.24136533 0.17945533 0.0011222059 -0.15418717 0.1337956 0.32015285 0.006061686 -0.19275565 0.21839002 0.2765645 0.052308355 -0.33329853 -0.031110331 0.1326027 0.13747798 -0.09546523 0.03564926 -0.14718302 0.118665434 -0.19716452 -0.0026498318 -0.11377887 -0.06902949 -0.17518537 0.07563073 0.00070819864 -0.20097475 -0.14206536 -0.29683682 -0.21269947 -0.1341165 -0.2163295 -0.06475546 -0.004065726 0.15843208 0.018826952 0.017956426 -0.14481659 -0.18607333 0.26665923 0.013217312 0.3110352 0.19257206 -0.2462528 0.0405812 0.27388635 0.04124625 -0.018412404 -0.04335428 -0.042647596 0.26907498 0.19929813 0.04902352 -0.16053867 -0.28114232 0.1970486 0.15566476 0.061661113 0.24509272 0.20753244 -0.13189088 0.24542214 0.24661455 -0.12062799 0.33119687 0.059390843 0.0876973 0.33635974 0.038021497 -0.048473552 -0.1595426 0.24076757 -0.104889095 0.05328543 0.24705532 0.32205886 0.011612785 -0.22154602 -0.13496265 -0.067857765 0.1965971 0.13541818 0.34042463 0.0045929383 -0.05389498 0.26058036 0.15891887 -0.038363304 -0.10238995 -0.36030236 0.10476563 -0.037699483 0.15400909 0.09026075 0.32630503 0.15045355 -0.014251404 0.009962992 0.171816 -0.09576531 -0.13732816 0.08114219 0.12224152 -0.07996795 0.016738769 0.033034675 0.06590462 0.32018447 -0.0018638879 0.21130659 -0.03934734 0.07868844 -0.108797684 0.09737552 -0.21406111 0.04972161 -0.14784877 -0.119816065
C9 0.10268123 0.16368087 -0.007742961 -0.37339708 -0.16213652 -0.20730045 -0.056417774 0.12668705 -0.084365726 0.0737221 0.031998605 0.0016964994 -0.08373944 0.19319032 0.0011319662 -0.055559725 0.0061931047 -0.10260383 0.11176183 -0.08101141 0.0011747436 -0.17843258 0.0502383 0.5010842 0.21185827 0.23767753 0.04166565 -0.009190855 0.1244137 0.09364874 -0.19676363 0.31530923 -0.047813725 -0.2434048 0.110295594 -0.11793601 -0.04246264 0.06319137 -0.12860048 -0.16776533 0.043389246 -0.0039643096 -0.39165336 0.103573464 0.28875992 0.12105014 0.0018486754 -0.01705433 -0.1749551 -0.12942882 -0.093242995 0.074801534 0.2804979 0.09656836 0.051424023 -0.06902407 0.052894518 0.0696365 -0.05775658 0.16502413 -0.049192324 0.06522294 0.25491732 0.06805095 -0.06916667 -0.031836886 -0.17603531 0.018344069 -0.04802861 -0.21812281 -0.22715381 0.083869986 0.021688873 -0.23144868 0.10020442 -0.27147895 0.12569837 0.25292435 -0.1896409 -0.4231843 -0.19639628 0.16840537 0.1836535 0.088131376 -0.20674117 0.004658455 0.06520493 -0.076494396 0.015839508 0.2013902 -0.16795497 0.085728385 -0.06623984 0.11069202 -0.0012154279 0.11713807 -0.10850986 0.10211016 0.11136676 0.026110651 -0.40782368 -0.02819721 -0.038134705 0.15530781 -0.13105305 -0.18732055 -0.18850976 0.2509606 -0.17553182 -0.11444914 0.091391854 0.10191619 0.2696181 -0.37724724 -0.11464304 0.16942872 0.14355041 0.15574524 -0.11638503 -0.06900038 0.08768863 -0.024806473 0.18885922 0.45834136 0.12056479 -0.118776724 -0.27659407 0.14012921
C10 -0.15887399 0.2806602 0.011714053 -0.13465315 0.14779058 0.31323642 0.2190759 0.15906318 0.29408407 -0.264447 -0.13104267 0.25212982 0.13634753 0.14660054 -0.091777965 -0.0133055495 -0.1486759 -0.06836557 0.1255409 0.11573071 -0.32716256 -0.23175241 -0.04362134 -0.105246186 0.12615852 -0.097798325 0.1009463 0.1455979 -0.036552873 0.18765384 -0.05994443 0.022056635 0.1132294 0.25973615 0.06106518 0.24403891 0.15806282 -0.05364729 -0.07454738 -0.1248593 -0.10633926 -0.118092544 -0.0506971 0.020779323 0.27039826 0.08544676 0.3486216 0.084227666 0.11823436 0.020021627 0.04153067 0.026210515 -0.2133792 0.07731331 0.24478814 0.038574297 0.1916048 -0.008764942 0.19865644 -0.33233753 -0.1063176 -0.09990817 -0.10852007 -0.27609655 0.016385404 -0.024634397 -0.118920065 -0.21680862 0.18021446 0.056438986 -0.48185045 0.40687072 0.11397096 0.07168252 -0.106752306 0.027426826 0.39933047 0.12844153 -0.38413343 0.029119095 -0.16700397 0.040845547 0.025405116 0.0001479567 0.062684074 0.0869985 0.093357146 -0.07705064 0.07640221 0.05438699 -0.15961519 0.038952634 -0.046199057 0.079863094 0.122503914 0.013269964 -0.02803934 0.32648125 0.005213751 -0.063979566 0.11400109 0.040998437 0.18773894 0.2713407 0.15442862 -0.08825123 -0.26367489 0.08958888 -0.077769645 0.16017957 0.09109635 0.14412098 -0.044003077 0.2383444 0.061468333 0.27180573 0.0516596 -0.35393003 0.07876853 0.18851267 0.13661264 0.0865782 0.2512906 0.062204204 0.007361514 -0.046816856 -0.28524065 0.08230184
C11 -0.08797467 0.22912072 -0.12881179 -0.0927115 -0.2102372 0.01686432 0.00048608656 0.02796729 -0.0831655 0.3105493 -0.00041825953 -0.1050531 -0.23114653 0.12197578 -0.027486471 -0.06526339 -0.03328117 -0.1531928 -0.09929573 0.28258526 0.07616634 0.15514736 0.28646448 0.27038407 0.31787896 0.13163877 -0.08330836 0.13123566 -0.103379756 -0.15132572 -0.065292776 -0.23118985 0.0064060353 -0.05541411 0.08033715 0.18266243 0.0043355552 -0.17741787 0.003569342 -0.080645114 -0.23677221 0.20594825 -0.35726556 -0.13647395 0.025978543 0.21181907 -0.27376422 0.30057728 -0.099362046 -0.063037366 -0.06016914 0.124458835 -0.21355689 -0.050919972 -0.047475565 -0.3122338 -0.09555775 -0.27104628 0.13649139 0.061870508 0.045584932 0.051331963 0.0150754675 -0.06066646 0.06326388 -0.017921282 0.17269565 -0.03718106 -0.07342818 0.25121242 -0.46703902 0.10263604 0.12481259 0.10345822 -0.2236464 0.04439314 0.22050518 0.048911605 -0.17381644 0.03166906 -0.12013898 0.12976365 -0.23334771 -0.10989275 0.15913431 0.0019969125 -0.14757814 -0.010247932 -0.23850843 -0.12372538 0.23246546 0.17741099 0.10469425 -0.12928101 0.4425364 0.13421048 0.1682131 0.14195445 -0.093345046 0.096577905 -0.04215427 -0.13588546 0.0749977 0.24070263 0.08414988 -0.5655645 -0.072930954 -0.050650686 -0.2513071 -0.0761247 -0.13371494 -0.045548547 0.15081587 0.19069627 0.14352453 0.009189131 0.20393254 0.02358015 0.05600366 -0.06384354 -0.028351882 -0.12574449 -0.28971127 0.053325217 -0.10865599 -0.31172708 0.0575459 -0.21720174
C12 -0.03387188 0.09032814 0.061217103 -0.031550817 -0.3554606 -0.29123077 0.06872955 0.025447238 -0.018241497 0.1340833 -0.08695492 -0.16318002 -0.07583991 -0.08248322 0.1466848 0.01064909 -0.21002619 -0.19902442 -0.052919723 0.01877863 -0.21907637 -0.14063442 0.080727465 -0.19838408 0.12049298 0.082153946 -0.24545358 -0.28414977 0.1809592 -0.15416938 0.10829947 -0.0811972 -0.1985756 0.12065237 0.040049404 0.10974006 -0.12346915 -0.28248134 0.016334163 -0.042302966 -0.10503406 -0.06240463 0.068334736 -0.15522401 -0.015792051 0.19207293 0.0843692 -0.048761394 -0.22752348 0.2459998 -0.25192627 0.17345402 -0.08064254 -0.11078901 -0.049962662 0.02416112 0.17408118 -0.05057977 0.10964585 -0.1202287 -0.17345412 0.0805742 0.018166248 -0.28126037 0.16837575 0.0030692623 0.189956 -0.017884493 -0.065059334 -0.111931875 -0.012094575 -0.07967368 0.36119077 0.29490802 0.115090236 0.045881856 0.2327134 0.10234679 -0.24209851 -0.41364083 -0.14454405 0.030413426 -0.03060198 0.36991647 -0.015622015 0.004209942 0.37880403 -0.15647079 -0.072152376 0.09592416 0.07067123 -0.35233784 -0.1546105 -0.21835403 0.20679529 -0.4406196 -0.24715069 0.006280061 -0.15177462 -0.07589044 -0.108600795 -0.25407305 -0.020424018 -0.1221358 0.2486508 -0.30651677 0.00398356 -0.111817434 -0.11395106 0.17572297 -0.15577571 0.12789749 0.055247195 -0.2037739 0.078560814 0.39437547 -0.037635643 0.059543855 0.13493587 -0.0503011 0.16140203 0.033488963 0.052776378 0.030064814 0.13305122 0.23006237 -0.06805943 0.09442944
C13 -0.14861971 0.010801615 -0.11089631 0.071078755 0.06505981 0.5121205 0.0018624732 -0.15235575 -0.04323894 0.15654755 -0.060792428 -0.24811551 -0.2257419 -0.008107222 0.05267214 0.11867381 0.053195104 0.00814739 0.27859992 0.055583775 -0.31768268 -0.14134562 0.06647465 0.1016374 0.25958362 -0.13687994 0.1057395 -0.04196427 -0.076798186 0.012824963 0.24300766 -0.018183565 0.019595524 -0.23415495 -0.021412624 0.248205 -0.24495427 -0.08151216 -0.42027888 -0.11112461 -0.061826047 -0.18985644 -0.25209042 -0.27406546 0.23998529 -0.013888659 -0.23566502 0.23762271 0.11420816 0.088456556 -0.04426107 0.0036037522 -0.13256088 0.07680278 -0.20618622 -0.098750114 -0.07501591 -0.07113241 -0.03740537 -0.17034228 -0.14936669 0.06250584 -0.07688984 -0.17706685 -0.065735005 0.33066085 -0.007776345 -0.15599354 -0.08995338 -0.012997647 0.10103668 -0.0842772 0.02143197 -0.17928214 0.15652484 -0.019169563 -0.07945438 0.09225616 -0.18318215 -0.22788699 -0.25458524 0.19845913 -0.011358848 0.04213061 -0.02214852 -0.22315048 -0.06835408 0.037500758 0.3198221 -0.06946151 0.07210221 -0.37678888 -0.07066492 0.19840418 0.13424988 0.12117394 -0.13035162 0.19594395 0.11141843 -0.008885189 -0.14694858 -0.045348644 -0.25000605 0.03898324 0.0577802 -0.013809199 0.34192622 -0.19418336 -0.1362513 0.23009565 0.07125135 -0.27758515 0.19250056 0.07430075 -0.026129887 0.022383807 -0.11896791 0.110637404 0.20317236 0.21967715 0.05223653 -0.2093714 -0.085847445 0.102186725 0.042010352 -0.15635821 -0.3894978 -0.0053976513
C14 -0.03973828 0.21479179 -0.11389397 -0.14283067 -0.007871764 0.08413834 0.20096485 -0.08002919 -0.067351736 0.18495582 -0.15128003 -0.13579221 0.061985545 0.20494086 0.08817915 -0.040712688 -0.23225565 -0.018467057 -0.104069024 0.2651978 -0.045245685 -0.15366486 -0.195345 0.14220564 -0.10297283 0.16783465 0.16650043 0.14626615 -0.13821545 -0.24056152 0.11601382 0.04496708 0.07169002 0.07867475 -0.13588351 0.15308082 -0.07943438 -0.27871397 -0.29088283 0.0016561447 -0.3752986 -0.24188307 0.1091462 -0.25191942 -0.22437744 0.07597381 0.06385555 0.09793428 -0.07006461 0.16529557 -0.114920415 -0.23581323 0.0058083446 -0.1493575 -0.16641098 -0.07557383 -0.19986437 -0.09055758 0.116248235 0.14307754 0.053130653 -0.06807111 -0.113429055 -0.03310256 0.12468961 0.13790028 0.0003604628 0.027467435 -0.003610629 -0.1226206 -0.07884367 -0.038184114 0.14788416 0.020057404 0.15186429 0.0046711047 0.018623978 -0.13753161 -0.1708664 -0.18280412 -0.15765885 -0.30530956 -0.2683023 -0.14273946 0.015917378 0.15321459 -0.10579587 0.022733497 0.093414746 -0.0060602506 -0.1689342 0.3840444 0.265023 0.36113518 -0.16531865 0.16328198 -0.17651056 -0.19880873 0.1931815 -0.005436532 -0.4522611 -0.24477004 0.19192435 0.17154637 0.0147359045 0.04763 -0.09512709 0.27979207 0.18160158 0.110618584 -0.14528556 0.09390534 0.07076937 -0.09968153 0.0963499 0.45782426 -0.034571372 -0.13375552 -0.0703232 0.11695791 0.174267 -0.11905008 0.0070915497 0.110280894 0.020997053 -0.08222201 0.07368204 -0.14355536
D2 -0.13851012 0.2633634 -0.1422874 0.0066780974 -0.03776281 0.2636611 0.04751471 -0.06859476 -0.115975074 -0.10216926 -0.39994588 0.06677396 0.082798906 0.36092517 0.1243982 0.17564204 -0.10363268 0.018156255 -0.03470927 0.28657466 0.0587968 0.24888396 0.05370316 0.14766094 0.13839892 0.027148783 0.07385556 0.42348883 -0.2474327 -0.038896054 0.1529912 -0.14271815 0.094526365 -0.10539845 -0.08179167 -0.113593936 -0.08594444 -0.21444726 0.19195978 0.12632537 -0.023456443 -0.1713458 0.058509532 -0.032430887 -0.12543671 0.078824595 0.2076508 -0.0359303 -0.1972393 0.11130396 0.020010104 0.10870572 -0.06075357 -0.110625796 -0.018121118 -0.19420469 -0.1063038 -0.06767553 -0.052528653 0.077995904 -0.002471656 0.103131086 0.03944936 -0.13724712 -0.48795632 0.059332192 0.045853924 0.0041291364 0.04792236 0.10298711 -0.18865258 0.21834463 0.07341332 -0.11849525 0.21999153 -0.06258625 -0.15081131 0.0018002245 -0.299021 -0.38307983 0.020169845 0.08889913 0.077442996 0.33754912 0.11340008 0.11458872 0.26717892 -0.21610352 0.28330183 0.19228943 -0.2622069 -0.24632336 -0.010895204 -0.01081253 0.56430614 0.045162804 -0.11006871 0.15249571 -0.06261585 0.13527085 -0.032006208 -0.0061951773 0.049483143 0.21452907 0.20613204 0.006529267 0.111699186 0.22047465 -0.13218227 0.0060413037 -0.031566188 -0.040913746 -0.04844083 -0.19649966 0.09979887 0.21296601 0.16614306 0.27423885 -0.045134425 0.15547267 0.021870147 0.21738812 -0.23551011 0.0684627 0.25891906 -0.06242642 -0.008955313 0.022272594
D3 -0.12563303 0.1784945 -0.16174473 -0.22742169 -0.17696483 0.2207135 0.16324821 -0.05639145 -0.09311331 0.33199805 0.1643771 0.3159478 0.22728732 0.057404615 -0.30029187 0.016959572 -0.1647519 0.07525219 -0.076266795 -0.03829956 -0.25742817 -0.15020438 0.1110062 -0.06685252 -0.088056944 0.102232285 0.15524675 -0.036620732 -0.027876683 -0.059883732 0.05846813 0.008172088 0.06518886 -0.020546094 0.051338404 0.27112728 0.1268826 -0.2671125 -0.009537549 -0.13895494 0.23074275 -0.17229983 -0.17802101 -0.026724545 0.044045277 -0.073005825 -0.3734104 0.04933858 0.031531278 0.17488497 0.09308534 -0.1929647 0.01877536 -0.029309275 -0.05279418 0.088814855 0.018957984 -0.12341552 -0.414139 0.022690186 -0.07981597 0.099219285 0.16545023 -0.17748298 -0.17336798 0.06584969 0.19809392 0.014860771 0.122831576 -0.17716917 -0.3608139 -0.2678101 0.10643765 0.10140491 0.06605464 -0.12812996 0.14253512 -0.021003192 -0.04545338 0.15324157 -0.36185256 0.3534964 -0.24217533 -0.1958395 0.13199764 0.09228722 0.25669044 -0.17089806 -0.07621262 0.26493585 0.051819265 0.22535399 -0.036793847 0.21656309 0.15072432 0.04428838 -0.15402944 -0.0061314725 0.09748033 -0.19701292 0.16337593 -0.23507597 0.060935993 -0.036254864 0.13809825 -0.08228671 0.20840108 0.03266252 -0.1675569 0.03142026 -0.16131835 0.106302366 0.20857158 -0.23585889 0.008401791 0.19678682 0.17158352 -0.0068821795 -0.13794439 -0.0127410265 0.4572046 0.20682874 -0.19252719 -0.12180053 0.08712702 0.020335346 -0.2886005 0.18753259
D4 -0.034341563 0.028576104 0.29486367 0.043186598 -0.044603013 0.14653054 0.16906355 -0.044047683 0.14516334 0.112016566 -0.05486791 0.18340474 0.14006852 -0.09692919 0.2595454 0.24575569 0.15275197 -0.22215872 -0.22514562 -0.12703447 -0.11227392 -0.21010439 0.030607745 0.031197088 0.054389462 0.044359334 -0.043797888 0.17292933 0.22672878 -0.12378508 -0.21706837 0.17604119 -0.17304626 -0.082380414 0.1444538 0.2835649 -0.010441125 -0.12193749 -0.075962365 -0.030364707 -0.1929073 -0.21512365 -0.13124615 -0.12027424 0.13073407 0.05639543 0.08576068 0.07639945 0.07087651 0.081923306 -0.19562826 0.18468778 -0.017312216 -0.12422227 -0.011191774 -0.1893704 -0.051901206 0.06321793 -0.027462939 -0.10396435 -0.12703516 0.23747997 -0.064133406 -0.028229484 0.1351513 -0.06516597 0.06889454 -0.13319366 -0.27797464 0.12139133 0.10685001 0.184797 -0.015318361 0.056326494 0.20928852 -0.0013657187 0.09262523 0.067486666 -0.1569786 0.09893946 0.36798647 -0.03416611 -0.12659465 0.21397518 -0.09354338 0.37125936 -0.115799315 -0.35370764 -0.16549237 0.14609604 -0.06406954 0.24886833 -0.06366498 0.106153674 0.2561499 0.09785254 -0.3768877 -0.043462873 0.2971342 -0.033461813 -0.23513764 -0.13256024 0.056586374 0.21665359 0.3286603 -0.19155525 -0.02278688 -0.013249284 -0.09569162 0.31918138 -0.08233271 -0.13482219 0.31863415 0.23227873 0.18406077 -0.18678509 0.07836713 0.33217174 -0.010213457 -0.09889244 0.26592553 -0.20293799 0.15875651 0.14483142 0.27830607 -0.35846797 -0.113588765 0.12137705
D5 -0.15369573 -0.33646685 0.1308547 -0.05830684 0.07568495 -0.06610867 0.03537388 -0.22054791 0.09024965 0.16314413 0.029722001 -0.23815037 -0.3021606 -0.08783774 -0.06562691 0.13404922 -0.13712235 0.09242675 0.098885484 0.0426172 -0.0024677317 0.26704192 -0.04449351 0.11843013 -0.005394261 0.110527016 0.14951405 0.22406754 -0.081866555 0.09540955 -0.45787928 -0.10263305 -0.09568174 0.46588117 -0.108847834 0.20657147 -0.088386126 -0.01975165 -0.0001766548 -0.10037774 -0.19987927 -0.109498166 -0.059446886 0.019672219 0.030653616 0.28763485 0.16446191 -0.21449225 -0.10694392 0.31018314 -0.2857008 0.16987094 -0.038464025 0.13505106 -0.11081891 0.2628302 0.06897865 -0.09135783 -0.015412853 0.05651175 0.099910066 -0.12301276 0.3361121 -0.27810788 -0.0054759756 0.29702175 0.059683695 -0.29076257 -0.041656084 0.059571937 -0.10892917 -0.06357635 -0.025986936 -0.12610538 0.08067836 -0.0867042 0.22276956 0.08142232 -0.07876993 -0.043111086 -0.048888236 0.31037006 -0.045786344 -0.0905792 0.030110305 0.074359894 -0.041508317 -0.14887297 0.12266254 0.1883555 0.030171763 -0.09674338 -0.063292205 -0.09635068 0.18748629 0.35191333 -0.06622303 -0.11405908 0.19488026 -0.0442204 -0.27266622 -0.30147505 -0.17273742 0.3318453 0.06556926 -0.10446217 -0.12957539 -0.11690894 -0.097897105 0.039012298 -0.31322974 -0.048057105 0.05982814 0.09054507 -0.26868722 0.23756874 0.0041829892 -0.24909408 -0.041337278 0.35896963 -0.03633745 0.10918421 -0.12658729 0.2316856 0.15532817 -0.026444763 -0.19098628 -0.06716257
D6 -0.061011173 0.31570128 0.11074401 -0.09171953 -0.25596142 0.087978154 0.2949889 0.13085702 -0.021923784 0.16414464 -0.249362 -0.15174766 -0.0648114 0.01139317 -0.090179265 0.12265179 -0.06745185 -0.021091131 0.08334999 0.36555606 0.20894681 0.079204686 -0.03403577 0.06399513 0.15874015 -0.05135597 -0.16766798 -0.026492821 0.053933505 -0.14294644 -0.23510717 0.26062182 -0.3384353 -0.034220874 -0.009434689 0.3021917 -0.0881752 -0.41517 -0.100823246 -0.32277578 -0.16582806 -0.1481842 0.07029224 0.04332765 -0.31369603 0.19864537 -0.15552062 -0.006554763 0.11207389 0.09634177 -0.18834436 -0.0059562107 0.29277313 -0.0054141665 0.0045806943 0.05568497 -0.17822096 0.028094674 -0.10134202 0.0512438 -0.06178684 0.092054166 -0.15126505 -0.049991857 -0.03409683 0.22494343 -0.10126575 0.16224808 -0.006412673 -0.13706133 -0.31485164 0.09382785 -0.0702375 -0.25813785 0.1324482 0.04177126 0.29247892 0.06751329 -0.2654036 0.013807738 -0.22625765 0.15126391 0.11268257 0.15484262 0.026711097 -0.06671387 -0.3050171 -0.00523681 0.23111339 0.016023949 -0.056057572 -0.2458619 0.19736382 0.16421087 0.07920194 -0.1537999 0.1282516 0.1790904 0.06590504 0.014298839 0.23586498 -0.0139655955 -0.073799215 0.1404097 0.09037497 -0.13093914 -0.050496377 0.19469033 0.20551257 0.13130128 -0.114695854 -0.23887774 0.15938604 0.09514639 -0.11324131 0.021797443 0.15352485 -0.2307552 0.2633684 -0.47343266 0.002638926 -0.013298707 0.20927016 0.046883445 -0.048337564 0.31303284 -0.33120444 0.027595814
D7 -0.2245834 0.03760421 -0.08013671 0.087110125 -0.18966684 -0.06309545 0.103886746 0.22034894 -0.13415341 -0.007659521 -0.2526036 0.13521105 -0.13403481 -0.035270397 -0.16568646 0.106630005 -0.24891724 -0.15957722 -0.043874923 0.054171026 -0.30198312 -0.012368022 -0.14023313 -0.045276083 0.22481616 0.0751253 0.3329033 0.24176511 0.056320373 0.10324154 0.009635181 0.124895744 0.022509435 -0.22560693 0.024860224 0.028059194 -0.10463368 -0.014905726 -0.18608616 -0.31151238 0.26394448 -0.2129946 -0.0931651 0.019238614 0.15397635 0.040907532 -0.11894692 0.29296792 -0.036416404 0.37177217 -0.02955437 -0.0031762682 0.04347046 0.12086698 -0.19836637 0.21230772 0.035487637 -0.14525263 0.031457774 0.050205458 0.051416967 0.24902159 -0.077541314 -0.32827625 0.00184479 0.15608923 -0.4254336 0.11034933 -0.032002054 0.05861665 0.10705919 -0.16060045 0.31777975 0.061595842 0.09938569 0.07642873 0.3439614 -0.016080514 0.06552467 -0.27218133 -0.03664589 -0.09759919 0.059741016 0.25206578 0.058811918 0.26822048 0.18229562 0.18005523 -0.108474895 -0.0027532745 0.0351119 0.15046687 -0.009554514 0.073967665 -0.14183255 -0.017624328 0.048883066 -0.077466995 -0.036246125 0.1496805 -0.23487604 0.027743062 -0.23475063 0.41592366 -0.02164955 -0.18841423 0.021021744 -0.16080827 -0.114622466 0.300964 0.07453301 0.17953229 0.086592436 0.24277656 0.3503655 0.21391228 0.30530497 -0.046602625 0.024324328 -0.17414372 -0.23176304 0.07021461 -0.187253 0.058905665 -0.0918525 -0.18533543 0.076765515 -0.15687558
D8 -0.058331948 0.25134975 -0.084136575 0.13795105 -0.033923585 -0.05190772 -0.034626454 -0.033101305 0.11866289 0.048188306 0.11788252 0.104497395 -0.26065278 0.12461034 0.19143687 0.12485722 0.068612754 -0.36675137 -0.03218363 -0.12324652 0.002882218 -0.17739542 -0.08814464 0.11948681 0.09245383 -0.11095539 0.22870083 0.22399731 0.021983642 0.11725005 0.08357172 0.096061446 -0.08255245 -0.024198238 0.107225016 0.24806374 -0.024660438 0.28834903 0.17663065 0.11467748 -0.30032673 0.10362635 -0.14256136 0.08140172 0.10849183 0.043215275 -0.103912644 0.2292976 -0.004521298 0.25391507 -0.2379496 0.2648623 -0.16936417 -0.12272236 0.13597363 -0.23289317 -0.02484344 -0.1687495 -0.14803074 -0.1464122 0.051299732 -0.04732393 -0.14077623 -0.014066883 0.16607921 0.12265884 0.024719633 0.13560882 0.1240151 -0.0036507116 -0.114173934 0.25357497 0.28033406 -0.11033414 0.29462042 0.40186784 0.04931539 -0.003992615 -0.045509394 -0.28413853 -0.35030437 0.09098117 -0.30141574 -0.29149044 0.018606199 0.015683156 -0.065888494 -0.2670752 0.18132028 -0.04556028 -0.118929036 -0.00045848667 -0.10946508 0.12301094 0.093909025 0.087368965 0.28058758 0.041849006 0.01734272 0.0364615 -0.2972883 0.067100696 0.09480624 -0.035964206 -0.088317245 -0.23393092 0.110833 -0.0044095735 0.10955902 0.32765323 -0.10786854 -0.11191674 0.33095732 -0.18912444 -0.06886447 0.26342094 0.10810483 0.059749413 -0.012529495 0.14969605 0.2262168 0.18555498 0.04779026 0.10547457 -0.03699123 0.62687844 0.017396005 0.034886114
D9 0.03247201 0.029937025 0.05234642 -0.019300645 -0.040422052 0.16825765 -0.2045355 0.22149043 -0.28284788 0.20659533 -0.42656264 -0.18677086 0.05949668 -0.031141326 0.26611295 -0.15727827 -0.09162247 0.23304975 0.07440185 0.1602549 -0.011278221 -0.19318013 0.3270386 0.07292817 0.2824232 -0.20196941 0.05849562 0.12099845 0.09823473 -0.05573142 0.029483544 -0.119151026 0.18800709 -0.16612947 0.13190307 -0.15580931 0.07434067 0.028257314 -0.2019111 0.0786302 -0.16283688 -0.091581486 -0.050595384 -0.0013990847 0.11690178 0.3183323 -0.046203084 0.058340255 0.00405716 0.24260278 -0.043785263 0.13106936 0.07291152 0.25359562 -0.0062164157 0.21674332 -0.07469975 -0.13821729 -0.082327425 0.3095869 -0.3149145 0.010213322 0.049960308 0.013212408 0.16523837 -0.102732666 0.34380943 -0.025902612 -0.05428782 0.18448554 -0.088066444 0.07958804 0.23812096 -0.055813957 -0.18617943 0.42169753 0.110348545 -0.16867222 -0.028109636 -0.2240613 -0.22834198 0.22197968 -0.058069207 0.082896926 -0.18156075 0.23753975 0.11589497 -0.028261095 -0.2287977 0.17330407 -0.16332796 -0.057552062 0.031923786 -0.10848454 -0.12053201 0.20709686 -0.16525957 0.21848114 0.3904605 0.10254641 -0.12612914 -0.09399579 0.35906568 0.023010725 0.041348115 0.08158817 0.04747471 0.06000567 -0.2731019 -0.0014408679 -0.18304114 -0.21416122 -0.0033927248 0.078816265 0.18304318 0.36037034 -0.0149115985 -0.14465776 -0.012021749 0.043197103 0.17088483 -0.14483733 0.31341466 0.050349977 -0.1056633 0.035710134 -0.22099456 -0.11287891
D10 -0.064729154 0.17687067 -0.1293819 0.103327446 0.15281866 0.26210424 -0.22968538 -0.15470338 -0.04020326 0.31000298 -0.053950485 -0.19377111 0.0031638895 0.042956103 -0.34498608 -0.4209324 -0.13598253 -0.04787635 -0.18444858 0.05594225 -0.2958701 -0.4145417 0.0181632 0.21215035 0.10788517 -0.26149753 0.077214785 -0.080637686 -0.067821234 -0.26278654 0.0022874656 0.1751129 -0.18135011 0.18682924 0.2539632 -0.10551314 0.007526299 -0.023659298 -0.3164612 0.021392565 -0.0073620207 -0.083206825 0.22644171 -0.25289893 -0.15120427 -0.026810993 -0.004543328 0.2027567 -0.13405497 0.032962453 -0.11169923 0.19650638 0.13537382 0.09318622 -0.07824178 0.015740717 -0.20367381 -0.07807171 0.07690594 -0.07617941 0.12951308 -0.021605633 0.08406058 -0.17690946 0.039228454 -0.04241257 -0.0010561681 0.23684262 0.15752621 0.06748735 -0.2623882 0.10957238 -0.11220633 0.11669614 0.15295595 -0.10568336 -0.06708619 0.28418723 -0.120870575 0.2609646 -0.34381348 -0.09335391 0.09250098 0.12797989 0.08664212 0.3015554 0.06439227 -0.3234302 -0.20338824 -0.07026475 -0.17632958 -0.27726617 -0.149214 -0.04564121 0.26508626 0.20899345 0.0461806 0.10459393 -0.23290217 0.1491452 -0.2578723 -0.20265369 -0.2176924 0.36628082 0.17830929 -0.15748109 -0.06544369 -0.025181355 0.018829787 0.17548698 -0.020492954 0.14487481 0.19859177 -0.11072402 -0.12616411 0.13203138 -0.26365626 0.02922989 -0.13914011 0.0062641553 -0.0697762 0.061290227 0.11498786 0.087252796 -0.08015986 -0.071907416 0.011488172 -0.07232194
D11 -0.11737199 0.3430879 -0.1551709 -0.22164094 0.011946105 -0.07001376 -0.080961265 0.069448754 -0.0601272 -0.10623035 -0.14993884 0.16894804 -0.1099163 0.054042395 0.050509777 -0.087354176 0.2228693 0.04822323 -0.09214167 0.116730325 -0.39186186 0.21622673 0.2879066 0.04458225 0.3220605 -0.09272255 -0.15901619 0.20583239 0.09324453 -0.040794667 -0.091416955 -0.07497651 0.12684564 -0.20426495 0.09739149 -0.030003313 0.084303625 -0.14888057 -0.25434092 0.11908816 -0.08277277 -0.3638669 0.14109026 -0.22629434 0.13240819 0.027503071 0.063466445 0.052420873 0.08376988 -0.016725207 -0.22283006 0.528732 -0.15080227 -0.15786088 -0.053911023 -0.08429818 -0.026102405 -0.14774075 0.14805688 -0.33570603 0.26685882 0.03524164 0.15994474 -0.057910644 -0.019191086 0.06451177 0.08314551 0.03168087 0.022935722 0.013983403 0.1351854 -0.269192 0.13367757 0.13591565 0.07732343 -0.14379148 -0.13519852 0.107383765 -0.17220736 -0.10488319 -0.0526797 0.1706458 -0.08330489 0.0011021326 -0.39396113 -0.039181914 -0.04178262 0.04256163 0.16502668 0.039212592 0.116117515 0.24212259 0.50648326 0.18320252 -0.10676087 -0.049084984 -0.29672152 0.07813361 -0.25511712 -0.1883387 -0.15961969 -0.21765503 -0.0025565543 0.06146651 0.04488575 -0.2718434 -0.035520177 0.1577968 0.04511642 0.013802142 -0.00096279645 -0.031614058 0.114212565 0.08085615 -0.35693625 0.09797616 0.20675975 -0.3567552 -0.049667474 0.07366253 0.038181897 0.11657226 -0.0540332 0.12694222 -0.08235274 0.035496168 -0.32429507 0.054203257
D12 -0.0011978475 0.107022524 0.0030548882 0.028403942 -0.18143198 -0.11537528 0.045693632 0.049641054 -0.00010952873 -0.20212063 -0.20927429 -0.10247963 -0.18874316 -0.017035415 0.101723574 0.09951515 -0.18987477 -0.09503418 -0.012939124 0.10434527 -0.11227638 -0.31079626 -0.17078972 0.32961577 0.14985637 0.050206784 0.09067544 -0.15728311 -0.186015 0.071566194 0.32748055 0.12198732 0.033841643 -0.14233306 0.05290542 -0.090678714 -0.1718214 -0.18755428 0.015768474 0.14686151 -0.023284491 -0.30758387 0.047952686 0.12966244 -0.02693642 0.15998922 -0.04283172 0.19285162 -0.20267998 0.019222353 -0.35524392 0.18317956 0.07440608 0.064227454 -0.02124539 -0.1877416 -0.013954978 -0.015793448 0.0803313 -0.132914 -0.12084144 0.19371311 0.059654813 -0.12407138 0.103836454 -0.44718915 -0.08642525 -0.19220454 0.1200818 -0.29199225 -0.08443856 -0.020549187 -0.15922228 -0.018853141 -0.20221514 0.035664517 0.22373886 0.3726813 0.07046951 -0.11883872 0.03516962 0.2897785 -0.09472676 0.03180275 0.37328774 -0.13717 -0.27483892 0.24037549 -0.012732379 0.11683217 -0.1896859 -0.11981037 0.07393513 0.15246826 0.1717978 0.22717823 -0.18717168 0.19547592 0.30866665 -0.0744119 -0.035036307 -0.12401914 0.00091139175 -0.093780704 0.15680957 -0.035991177 -0.10178045 -0.05935084 0.31315574 0.17409676 -0.24809153 0.20025317 0.09366032 0.18356334 0.007031567 0.19581705 0.072296955 -0.017982835 -0.09774753 0.16819817 0.43186653 0.099005274 -0.29857337 -0.049957525 -0.23197837 -0.2250845 -0.043331668 -0.12020951
D13 0.074702844 0.037995104 0.20434435 -0.014965747 0.20620166 0.08559055 -0.050257713 0.30978712 -0.25793386 0.009031647 0.068597436 0.030936629 -0.09170739 -0.09252792 0.44580305 0.042689662 0.24503358 -0.15270962 0.2852271 0.17062573 -0.20616493 -0.09431907 0.2125329 -0.006641673 0.26346427 0.15839782 -0.093717605 -0.04596554 -0.006489388 -0.15387124 0.284005 0.09623678 -0.119545914 0.12776244 -0.27805763 0.30783436 0.18181029 -0.16162874 0.08637398 -0.13181022 -0.19592302 -0.011714057 0.05510184 -0.17853883 0.12859742 -0.037368488 -0.16702673 0.10996045 0.12641403 -0.1980664 0.11725313 -0.04408244 0.029209426 0.058163133 -0.14332023 0.09613174 -0.08624232 0.03286894 -0.20205954 0.07166367 0.023964433 -0.13780276 0.13569373 -0.119161315 0.14222126 0.031616062 0.15706757 -0.13954243 -0.04058465 -0.07842011 -0.20856643 0.037450492 0.075034276 -0.055825498 0.009954257 -0.03560365 0.11287369 0.44986495 -0.17238504 -0.19955574 -0.39179704 -0.111377314 -0.0131515665 0.11275663 0.14420594 -0.11700251 0.18760593 -0.11306038 0.17102778 0.15731528 -0.38993135 0.0028104598 0.24676059 0.096257664 0.15103127 0.15845312 -0.033708673 -0.38220593 -0.042631175 -0.183601 -0.3719279 -0.041237846 0.010471628 0.29912904 0.2259642 -0.31767172 -0.20651661 -0.28370896 -0.06078693 -0.066376515 0.34157428 0.06624872 -0.026574362 0.034443002 0.24236585 0.038989168 0.19125527 -0.048235614 0.1479109 0.01836648 -0.03639279 0.06353647 -0.047123168 -0.14948481 -0.057882797 0.028459208 -0.097852744 -0.1573209
D14 -0.33457372 -0.08057135 -0.16222328 -0.10165936 -0.023542522 0.1518656 -0.18110628 0.05681226 0.11857756 -0.045946456 -0.2388792 -0.10406024 0.0025142585 -0.01935879 0.2803514 0.0312332 -0.08630061 0.09547754 -0.010126226 0.28075352 0.021504674 -0.16118863 -0.14243634 0.34465182 0.038506716 0.24980955 -0.109743506 -0.079982325 0.01752925 -0.16964322 0.027519928 -0.06307005 -0.12342306 -0.14982726 0.123597115 0.22585171 0.128621 -0.017356768 0.03960389 0.06124733 -0.11892753 -0.20411256 0.112325594 -0.3380727 -0.025506876 0.21583916 0.0451777 -0.30124736 0.15233587 0.027881334 -0.05625512 0.15645298 0.3151654 0.18925874 0.09465022 -0.00083892286 0.14883724 -0.11133914 0.12878971 0.10284421 0.22515042 -0.30161887 0.041453958 -0.0049139434 0.13327394 -0.01159347 -0.009116797 0.12354689 0.051705867 -0.28414902 -0.35814527 -0.1555076 0.4890365 0.12764612 0.13781811 0.114240855 0.07413208 0.21633102 -0.2930972 -0.13807213 0.021020273 -0.027971696 -0.09408507 -0.3146681 0.2489629 0.12273864 0.094631895 0.014412076 0.027274938 -0.012690665 0.2562249 -0.052315965 -0.05279643 0.1892149 -0.18166666 -0.19880787 -0.03433135 0.2714187 -0.109193735 0.15514499 -0.04102781 0.085650414 -0.15374622 0.0891591 -0.07492291 -0.15777801 0.11281719 0.19205774 -0.2488123 0.12877075 -0.0784099 0.12696944 0.38240033 0.067050025 0.20543543 -0.13208793 0.026792197 0.03462641 0.2786636 0.38627836 0.19871882 -0.025513504 -0.017061451 0.03330401 0.26059517 -0.19943325 -0.10217905 -0.0019892768
H2 -0.35404444 -0.11916745 0.16861722 0.09877995 0.20536844 0.24962182 -0.006659446 -0.012877755 -0.5022986 -0.15435173 0.1841359 0.36785114 -0.2311177 0.1369957 -0.17315519 -0.34429774 0.039961364 -0.2163267 0.19776359 0.4255881 0.1951014 -0.09559572 -0.18641011 0.009098734 -0.06846703 0.20540945 -0.030664746 0.2438083 -0.1889285 -0.05575697 -0.059910823 -0.096607976 0.12146215 0.20205478 0.24027283 -0.010653216 0.41321328 0.3027802 0.16950884 0.19916993 -0.26948366 -0.22020398 0.12764655 0.314597 0.017784862 -0.15496717 0.045111563 -0.08155015 0.14095484 0.09646562 -0.40706006 -0.19950466 -0.19063804 -0.018999837 0.1703285 0.2169023 -0.038449273 -0.2783604 0.013644128 0.021298612 0.08730727 0.018087162 -0.22004296 -0.34698996 0.1501866 -0.2153777 0.15164159 0.39711764 -0.14791192 -0.04790913 0.18509638 -0.15983845 0.30648544 -0.26997057 -0.12201739 0.09846237 0.21737826 0.28536585 0.05975759 0.09458746 -0.14788845 0.083353855 0.33468363 0.41010925 0.05726623 -0.0054743974 -0.10618408 0.08441409 -0.0334075 -0.033371538 0.131851 0.045783628 -0.026858957 0.004656088 0.25282282 -0.034629796 -0.20745794 -0.27523738 -0.05899213 -0.021231337 -0.1155858 -0.22736888 0.1519086 -0.17017372 -0.45304546 0.0691767 0.20311913 -0.010118859 0.018129667 -0.093279 -0.23368262 -0.048916813 0.039463848 0.14454032 -0.2279179 -0.11474907 -0.0046061184 0.49051785 -0.10569921 -0.341763 0.06209232 0.085225366 0.07813958 0.05188765 -0.13538708 -0.14589708 -0.19108042 0.46230337
H3 0.06766467 0.047850154 0.38034043 0.10331972 0.54291576 -0.38722065 0.06614341 0.026329208 -0.23541372 -0.10250783 0.3808051 0.2001535 -0.1721033 -0.17465183 0.03736718 0.09356879 -0.00670338 -0.24059005 0.17456572 0.34620902 0.04820802 0.009422882 0.08202895 -0.00267104 -0.21409214 0.21399564 0.4735196 0.36303154 -0.2119312 0.029167073 0.097233 -0.23592514 0.06633735 0.16258574 -0.095495224 -0.062551014 0.043839693 -0.035334814 0.22774884 0.105912164 0.028648658 -0.038433358 0.16424586 0.32795036 -0.27351356 0.10065004 0.11477762 0.101448864 0.06552528 -0.052637443 0.24246429 0.4825503 0.4312156 0.010568947 -0.27656734 -0.026703008 0.17307454 -0.05636792 0.101663716 -0.28455752 -0.072243474 0.08752059 0.33479288 -0.3009308 0.22385193 -0.24999703 -0.07043145 0.23448168 -0.043294348 0.2384298 -0.050239056 -0.22748274 -0.08771561 -0.33111963 0.06772233 -0.09431827 -0.14299472 -0.1364408 -0.3216979 0.15689383 -0.24915527 -0.10029858 -0.19213554 0.14622332 0.044374168 -0.030385027 0.23689035 -0.16038027 -0.24804804 0.024309827 0.043952566 -0.10903966 0.122047134 0.104489945 -0.15985234 -0.2519944 0.18821429 0.23039098 0.15096848 -0.020398723 0.09066014 -0.3279192 0.08784194 -0.15427877 -0.11074332 -0.10750526 0.3838311 0.12592456 -0.017362207 0.4521219 -0.058158185 -0.2543722 -0.06040123 -0.19952205 -0.15464832 -0.09107646 0.105845176 0.12228088 0.19469196 -0.20632672 -0.04669237 -0.035337035 0.32524398 0.014980998 -0.16963962 -0.5347641 -0.08925554 0.007951777
H4 0.09966582 0.42888203 -0.09612545 0.13763976 -0.13428944 -0.21737395 0.19569913 -0.018907674 -0.16207689 0.344305 0.4376613 0.36295998 -0.0060587153 0.15196165 -0.014208465 0.09702553 0.06827851 -0.13725348 0.16581321 0.2672758 -0.026516028 0.2521257 -0.4324847 0.1354979 -0.02055604 -0.22196573 -0.043296322 0.3173345 -0.21696968 -0.31068924 -0.023182517 -0.07299116 0.24514887 -0.07742493 -0.16319393 -0.1076904 0.22811079 0.22932371 0.12831062 -0.00049210107 -0.03721237 0.10712087 0.0981537 0.16716854 -0.16645718 -0.116322525 0.08494177 0.16894639 -0.04311595 0.17877053 0.2896471 0.47204965 0.26262206 -0.032987107 -0.050759323 0.24517919 0.37364185 -0.20333439 0.42026675 0.5050955 -0.10868668 -0.02845491 -0.0745881 -0.11392667 0.046261407 0.041460376 -0.041562483 -0.019261783 0.040996626 -0.13960445 -0.097397216 0.33499926 0.15519904 0.118831985 -0.101126045 0.17515112 0.039927833 0.13779236 0.15345433 0.4010724 -0.21433905 0.1518808 0.08417111 0.115545094 -0.12063396 0.035082426 0.1696934 -0.11146706 0.017658766 0.06990534 -0.2522053 -0.4860325 0.22890651 0.14577292 -0.10286763 -0.029479204 -0.5348944 -0.38990775 0.11973457 0.041842066 -0.047376085 0.086451225 0.021337772 -0.3001495 -0.19317788 0.004723498 0.22372656 -0.1470131 0.05128891 0.25288227 -0.11729978 0.105148256 0.26651904 0.37413475 -0.40747446 -0.2783088 0.06858443 0.099722266 0.016059715 0.1549458 -0.11872569 -0.17881729 -0.036874127 0.01696128 0.041317843 -0.2511875 -0.118926816 0.22249071
H5 -0.12699227 0.14895436 0.2335477 0.16791578 -0.09249401 0.009639916 -0.15202023 -0.046274506 -0.43797904 0.20173976 0.1389986 0.10081094 -0.14526872 0.22493638 0.07696287 -0.058142677 -0.14274532 -0.19210619 0.25550574 -0.09083512 -0.15288725 0.10463548 -0.04718037 0.018233947 0.14571649 -0.4100348 0.20049116 0.37282076 -0.11990662 0.044375647 -0.59381795 -0.33625647 0.008465453 0.12792265 -0.09304963 -0.18851961 -0.11583585 0.115003966 -0.15595037 -0.03957036 0.0067175883 -0.2027208 0.17063501 0.1253662 -0.2213595 0.14838618 -0.1341453 -0.1752018 0.38338816 -0.12298292 0.14535408 0.10250061 -0.0730084 -0.4112789 -0.074732825 0.1131019 0.1808726 -0.07683296 0.076724336 -0.07776509 -0.04605194 0.07927877 -0.052290227 0.023845254 0.41809264 -0.19894658 0.17485937 0.21252595 -0.24747299 -0.6161109 0.04741447 0.03619787 -0.118420824 -0.2917928 -0.07055092 -0.10051719 -0.03786969 0.06902085 -0.37053472 0.25164422 0.101604335 0.1392492 0.02906649 0.16855407 0.17449501 -0.022374405 -0.18486848 -0.2603668 -0.36453515 0.09794673 -0.31017515 -0.20777984 0.13437447 -0.011028946 -0.25293484 -0.11807289 0.080435455 -0.3093251 -0.03665993 -0.1796216 0.28903005 0.2661462 0.08305649 0.21095493 -0.63798565 -0.20087028 0.37842035 -0.03773467 -0.0032276628 0.09159195 -0.0009231583 0.34597883 0.042629894 -0.13706197 0.12918222 0.22944982 0.13652919 0.35291088 0.029861785 0.023904175 0.24280666 0.21877265 -0.044916373 -0.24980676 0.027696457 -0.25206545 -0.1875635 -0.09918942
H6 -0.2663337 0.12961878 0.008482367 0.32560644 -0.025772745 -0.030311545 0.027201759 -0.18842736 -0.10708729 -0.28122392 0.04215779 0.1904861 0.40380675 0.2002298 -0.2767761 -0.0005338208 -0.11614769 0.09907707 0.11859043 0.23346713 0.09349252 -0.14434229 -0.12043935 0.015258955 0.32322654 0.25332034 0.026380694 0.34228447 0.06203034 0.13275217 -0.005503131 0.28781757 -0.2131426 0.043563515 0.017636368 -0.10507907 0.14267412 0.17158175 0.19524273 0.29379642 0.030569488 0.12922627 0.19750787 0.0025341387 -0.17825076 0.15701915 -0.034103222 -0.055912774 -0.075837605 -0.15652153 0.39579514 0.06291212 0.14627421 -0.07324145 0.12450834 0.33159375 0.13940245 -0.03445735 0.03982896 -0.19094963 0.22994994 0.08880639 -0.16776605 -0.1702825 0.44087166 -0.049896415 0.28912038 0.08637256 -0.077896714 -0.29979798 -0.05802493 -0.18838197 0.011457271 -0.43179214 0.16642565 -0.15433462 0.106499076 -0.038093034 -0.16148563 0.09366062 -0.0017641801 0.520263 -0.03397044 -0.02427986 0.06593691 0.30365303 -0.2592631 -0.17329434 -0.19542855 -0.17851163 0.07818689 -0.43178833 0.06884646 0.0683802 -0.080781296 -0.20341165 -0.34824508 -0.28646383 0.13077693 0.0009992257 -0.26693645 -0.18627259 0.70661646 -0.14304627 -0.15287556 -0.2706973 0.3104773 -0.6439835 0.18187179 0.19422655 0.06803398 -0.27128142 -0.012854812 -0.1230159 -0.060206357 0.0034263707 0.2440043 -0.12437489 -0.07959999 0.038427413 -0.53305393 0.0020998712 -0.109822504 0.1891487 -0.09217207 -0.29989004 -0.003714039 0.033649713
H7 -0.30391002 0.040393356 0.26593864 -0.061384495 0.2588229 0.21800812 -0.044223238 0.124267936 -0.22807232 -0.0076545347 0.062906854 -0.11690402 -0.070029914 -0.35033572 -0.41454113 0.056530826 -0.012455923 -0.3574131 -0.067831054 0.43012726 0.21385345 0.055094015 0.058390014 -0.19039445 -0.08181778 -0.07852414 0.07183832 0.34570038 -0.0591081 0.12576967 -0.31897798 -0.14316788 -0.0054549617 -0.11305248 -0.04342361 -0.089187905 0.024012133 0.18862702 0.30859008 -0.17291899 -0.25343686 -0.11619598 0.2408993 -0.032425623 -0.112242684 0.2597262 0.21355012 -0.12245629 -0.35403416 0.07919506 0.34120947 0.16117804 0.04056719 0.29770792 -0.027390053 -0.005484346 0.37421468 -0.22868729 -0.110306315 -0.1237205 -0.31617683 -0.07041595 -0.07048344 -0.1453661 0.03292273 -0.4143412 0.12403539 0.31586394 -0.3954659 0.010246018 0.16159995 -0.07788429 -0.14778061 0.12187251 0.079355486 -0.1317801 0.06356864 -0.38237524 -0.0036179293 0.4181173 -0.46325836 0.20873381 0.28598678 0.04513811 0.08380225 0.16745375 -0.3595425 0.324671 0.027953554 0.0061617075 -0.19264534 -0.14982761 0.10977041 0.12619038 -0.20496656 0.033644628 -0.21129775 -0.09407254 0.061237834 -0.10572662 -0.30429772 0.18989737 0.17594579 -0.3139997 0.062102214 -0.46324345 0.19634011 -0.22391519 0.013669955 0.11732024 0.28462267 0.52639157 0.09466982 -0.19800991 -0.13663837 -0.13103946 0.30913752 0.318398 -2.884237e-05 0.1277645 0.18478684 -0.16335756 -0.10829438 0.22017464 -0.021835998 0.015268159 -0.10355245 0.21513547
H8 -0.06108824 0.42008093 0.20715563 0.21561702 -0.20353581 -0.09734536 0.29716587 0.21795852 -0.010323301 -0.2033468 0.13184154 0.14585517 -0.2516197 0.088693805 -0.11973716 -0.022129843 -0.31957293 -0.11994754 0.089964494 -0.1644743 0.030974139 -0.14432925 -0.0020731264 -0.19672695 0.012985267 -0.44217336 0.3646001 0.19763827 0.0051013664 -0.2615133 -0.24591418 -0.2712441 0.20704155 0.04093986 -0.1747849 0.1142613 0.2745658 0.186251 0.49227533 -0.08009295 0.08631212 -0.035500456 0.46731895 -0.1855282 -0.15543507 0.20786114 0.10730631 0.12106556 0.27783903 0.2486307 0.20221184 0.25557858 0.3948936 0.20403746 0.0356778 0.2087756 -0.08530395 -0.14041157 0.01352933 -0.19372694 0.10323586 0.12595406 -0.17310245 -0.20684329 0.19995186 0.09052071 0.36279175 0.36022446 -0.14171238 -0.08793542 -0.13341886 -0.19424167 -0.4753894 -0.29292876 -0.15955327 0.14101143 0.085434444 0.021948723 0.06189427 -0.0434296 -0.07116359 0.22091478 0.122149184 -0.13987666 0.023948846 -0.38803145 0.12491417 0.030992804 -0.04693435 0.062082417 0.10235589 -0.13228703 0.09270293 0.094779626 -0.17283683 0.14150609 -0.22601779 0.14399935 -0.17392969 -0.16204841 -0.5410725 -0.015269931 0.22142 -0.06772349 -0.0713006 -0.2825008 0.15007795 -0.013515322 0.13058059 -0.41432872 -0.18602537 -0.057287116 -0.14710572 0.12861012 0.023699418 -0.11141691 -0.21060438 0.60283923 0.00025868177 -0.032105792 -0.16407643 0.09755281 0.0145410085 0.14065382 0.14436696 -0.51626486 -0.077082396 0.30069757
H9 -0.334285 0.006580618 0.12405018 0.036550216 -0.089806944 0.13625763 0.15611775 -0.083820455 -0.31140578 -0.22028016 -0.16360563 -0.08660852 -0.22298178 0.039693784 -0.19595268 -0.27100533 -0.46159124 -0.24249089 0.2327873 -0.07091819 0.15734449 -0.07092582 0.08933608 0.06848974 0.12857652 0.2648689 0.15793799 0.3270125 0.10580827 0.030388216 -0.0043725283 -0.093641415 -0.21488418 0.18375057 -0.09396427 -0.2276585 0.15781197 -0.028538039 0.21394423 0.07536244 0.0954277 0.074688464 -0.094695956 0.2899238 -0.13103132 0.021043405 -0.06879749 0.02654927 0.23714705 0.09819888 0.05610001 0.44356957 0.21448098 0.16357231 0.41747347 0.07394531 0.14356963 -0.16591638 0.09648299 0.16132495 0.13753235 -0.15607621 0.17906572 0.2724605 -0.10788324 -0.084811494 0.14612113 0.19715399 -0.1811949 -0.27962455 -0.12423654 -0.28756598 -0.04531747 -0.06851136 -0.05492682 0.09382235 0.13910256 -0.37671226 0.087273166 0.09990736 -0.16050985 -0.19802642 -0.24172297 0.09154838 0.021081258 -0.06365277 0.12583214 -0.20863841 -0.012047854 -0.15555716 -0.48050728 0.24247429 0.3617315 0.081245095 0.20548831 0.027175022 -0.31171542 -0.27731517 -0.23962212 -0.05159012 0.20822924 0.26796964 0.18157665 -0.09880658 0.043242212 -0.06677213 0.33401674 -0.58270735 0.26410753 0.34285042 0.21833935 0.06282258 0.00814314 0.26650584 -0.43504477 0.0039788177 -0.10519649 0.42671537 0.30410415 0.09795158 -0.054417297 0.28418896 0.35543752 0.32252598 -0.084926456 -0.3222549 -0.3067267 0.09601992
H10 -0.24608855 -0.12767586 0.11497031 0.28760093 -0.250114 -0.2720607 0.0161721 0.07564322 0.26947388 -0.2803402 0.4089766 0.16403426 0.09145745 0.29789546 0.050622854 -0.3135017 -0.1427715 -0.10744162 0.29765746 0.44474277 -0.043751396 0.24940488 -0.21524787 -0.24916975 0.33931097 0.08589301 -0.07373266 0.29440364 0.057826247 -0.01185323 -0.42299783 0.22490425 0.42225525 0.04682546 0.13570578 -0.09020081 0.26562104 -0.12885895 0.05409399 0.2295301 0.033079553 -0.15083776 0.31406444 -0.044016533 -0.15181968 0.16575977 -0.28890604 0.38000655 0.30812007 0.17545232 -0.1394613 0.23453158 0.1697908 0.23580755 0.005918643 0.14452945 -0.09370497 -0.11207713 -0.092399836 0.06860485 -0.19321 0.05351916 0.04948388 0.03976261 -0.027017176 -0.013793435 0.16593692 0.25955066 -0.38063374 0.022352466 0.10368758 0.12751673 -0.14294441 -0.17766547 0.30463153 -0.24807054 -0.038961772 -0.059307408 0.09595927 -0.046149187 -0.34734654 0.09349009 -0.0056275576 0.1258203 0.30965656 0.029818656 0.061569665 -0.0032446878 -0.44203168 -0.063991256 -0.16923209 -0.06624557 -0.2168448 0.12611355 0.032080844 -0.094812036 0.29231915 -0.29000217 0.09401264 -0.16384026 -0.04960632 -0.1246406 0.28937927 -0.15649107 0.033870276 -0.09294915 0.46661896 0.10732592 0.05217634 0.16131657 0.31315812 0.3322747 -0.0975335 0.18799557 -0.45756057 -0.18960817 0.11469433 0.22729754 -0.008301752 0.41999817 0.07453239 -0.25898382 0.28764188 -0.12722398 0.0917799 -0.17403352 -0.056900732 0.0037306063
H11 -0.061670117 -0.21081723 0.12117182 0.12233626 0.20478109 0.30017754 -0.09911667 -0.18213825 0.16768251 -0.20362328 -0.081021704 0.3899045 -0.42165738 0.45604178 -0.12830405 0.070489466 -0.27254933 -0.12668611 -0.11301618 0.35525453 0.16174291 0.11443491 0.1047776 0.064123176 -0.038912863 -0.03371329 0.20732903 0.016928418 -0.13934574 0.005480357 -0.4643429 -0.13447946 0.04063982 0.054080494 0.2399741 0.2901698 0.06987101 -0.016963094 0.3673534 0.0989687 0.099660814 -0.05711692 0.2372393 0.17432795 -0.041529782 0.08374499 0.07431312 0.44144565 -0.29248852 -0.15856674 0.34512237 0.2268882 0.14064758 0.24630044 -0.22397275 0.05808012 -0.09229032 -0.07552704 0.39172158 -0.030761583 -0.1349318 0.049619325 -0.049522884 0.43560672 0.31097546 0.104419716 -0.12743348 0.21935914 -0.17150535 -0.029972738 -0.26601857 -0.34009045 -0.08714933 -0.42111948 -0.08564884 0.14831409 -0.0674975 0.06704956 -0.1470009 -0.032019913 -0.1906012 0.06659872 0.18498155 0.19306318 0.028769845 0.042635914 0.23072791 -0.13467367 -0.44297114 0.24370535 -0.03835278 -0.10017901 0.12006922 -0.0046573775 -0.20988408 -0.2317554 -0.35966477 -0.63775843 -0.027015144 -0.5807953 -0.07813278 0.12203819 0.06408538 -0.06549064 -0.15334707 -0.016284864 0.26868343 -0.27333367 0.15367952 0.047784556 -0.036257092 0.09017179 0.21804763 0.047187522 0.020864096 -0.16919848 -0.033061627 0.033078447 0.06679628 -0.09833628 0.18701294 -0.12760125 -0.047241665 0.29501206 -0.24729574 0.12717302 -0.13759683 0.07211
H12 -0.35653222 0.0618627 -0.37869927 -0.19823611 -0.19035062 0.21158081 -0.22714221 0.03775676 0.23015329 -0.10988427 0.12664236 0.12823345 -0.21768098 -0.09336693 -0.4578807 0.26242432 0.2509022 -0.34714302 0.098177485 -0.0635826 -0.057419576 0.0720305 -0.035113625 0.09809019 -0.054442156 0.18650314 0.09934598 0.4521413 -0.15125377 -0.09112091 -0.3647444 -0.25478154 -0.032283954 0.067669384 -0.11189611 -0.04248626 0.07660357 0.17598538 0.30796286 0.22173522 -0.18280876 -0.09834591 0.37706214 -0.03372351 -0.18629585 0.008128188 0.055581097 -0.14346522 0.29597872 -0.17647584 0.24304949 0.15356758 0.04752678 -0.16319215 -0.2724292 -0.19488019 0.13016015 -0.04908122 0.048505068 0.34540328 -0.32123718 0.29496616 0.099261634 -0.15224336 0.15258405 -0.107754506 0.25635964 0.32730028 -0.09039808 -0.4069229 0.06097927 -0.037029367 0.0047980035 -0.48111728 0.1827181 0.17085676 0.20051245 -0.094528206 0.27501532 -0.27812842 -0.36033228 -0.047774166 -0.114386365 0.23314123 0.11519186 0.25838256 0.036813933 -0.07499629 -0.4306593 0.029456418 -0.030004809 -0.17493616 0.13032578 0.028284827 -0.040706746 0.005996201 -0.019304885 -0.08770265 0.1956891 0.020778138 -0.17385021 -0.15442793 0.07304782 -0.45803294 0.026187578 0.022367634 -0.17659995 -0.25849822 0.18748398 0.07894068 0.30274665 0.1505906 -0.10069696 0.2207879 -0.045833368 -0.16048256 -0.32340863 -0.17271781 0.13153589 -0.248962 -0.018379737 0.19798735 0.14870374 -0.15685989 -0.06960861 -0.3584098 -0.32213962 0.025634272
H13 -0.43642733 -0.12150856 0.14517279 -0.13773982 -0.063251816 -0.07043777 0.16276994 -0.35503083 -0.19341792 0.008053862 0.15079382 -0.12173483 -0.04341181 0.11363966 -0.057860147 -0.02772847 -0.36168924 -0.1426265 0.37675914 0.07308111 -0.025090843 0.0039660116 -0.21544276 0.13893376 0.20753384 0.04924314 0.42431456 0.35495174 0.091893755 -0.007991303 -0.3168429 0.119514346 -0.19828098 0.10271995 0.123075254 0.17862526 0.10827365 0.37248707 0.34888422 -0.0918833 0.24295929 -0.012669331 0.26122487 0.1341532 0.0013135475 0.29180565 -0.112405606 -0.053319138 0.024821553 0.081124306 0.1662077 0.055495225 -0.02636257 -0.07329059 -0.08047892 -0.29500124 -0.12129593 0.08066175 0.16174033 0.032129023 -0.2978846 0.11463399 0.09685035 -0.123616934 0.17696439 -0.450644 -0.061486952 0.124681294 -0.26975244 0.049628492 0.022439534 -0.038378667 0.12710948 0.115555085 -0.08145865 0.19220354 -0.23933889 0.114009805 0.18279569 -0.029539272 -0.23544511 -0.018375317 0.144281 0.2504537 0.21414208 0.14788689 0.14729029 -0.05151189 -0.004479668 0.040140517 -0.002550908 -0.29487768 0.5382285 0.27902257 -0.34096068 0.19051524 -0.1959425 -0.16488029 -0.44977155 -0.13896623 0.05697127 0.11638249 0.3180929 0.027118577 0.12962897 -0.24633045 0.20587963 -0.0452537 0.060901962 -0.09615616 -0.12333042 -0.3717717 -0.16843249 -0.1016449 -0.21027616 -0.23513556 0.012713454 -0.04972276 -0.14691912 0.1744728 0.04591958 -0.21879172 0.22382386 -0.5331984 -0.036970053 -0.16570018 -0.05768659 0.38411805
H14 -0.04448822 -0.07402178 -0.038983613 0.023654599 0.21029074 -0.06275721 -0.23490691 0.13325697 -0.076091394 -0.08004861 -0.048210245 0.00038732655 -0.14703788 -0.16101833 -0.12666346 -0.015921846 -0.4816316 -0.29585665 -0.12662792 -0.08500993 0.19123456 -0.3157054 0.11373757 0.112061374 0.19927189 -0.18982784 -0.0874581 0.16890633 0.14811938 0.28310323 -0.18413574 -0.016989468 0.085777104 -0.21842974 0.17389324 0.028551714 0.03297027 0.17076905 0.4500508 -0.2010273 0.14770626 0.02687987 0.10899947 0.12704284 -0.37255642 0.030582914 0.18338422 0.20322748 0.3862183 0.20902447 -0.12518454 0.0006046623 -0.092696615 -0.2565588 -0.05183318 0.09135092 -0.019859347 0.07016664 0.0070967004 0.13746403 -0.14604001 -0.05421237 -0.044682384 -0.17726494 0.057014562 0.15479666 0.23201099 0.2327978 0.015716853 -0.061713308 -0.15495576 -0.2646722 0.2637957 -0.3294203 0.052868966 -0.21741845 0.15185748 -0.029825225 -0.18405436 0.3747496 -0.056132242 0.14616928 -0.2227959 0.21868607 0.086652115 0.08069078 0.102631345 -0.2191666 0.040413644 0.2109198 -0.50365454 0.0128940465 0.20779191 0.03283035 0.083110064 -0.23536338 -0.12269975 -0.053850915 0.081460916 -0.24488792 -0.35098684 0.045877412 0.089516655 -0.30380538 -0.33780178 -0.2022852 0.24708664 0.059891157 0.11156003 0.105694376 -0.030539459 0.2151433 -0.2985976 0.00076832774 -0.3818355 -0.39938396 -0.12481033 -0.07782927 0.1318356 0.18832725 -0.26886955 -0.53893757 -0.24676876 -0.23005775 -0.09822684 -0.26985317 -0.027930945 -0.00604651
S2 0.20825413 0.0016134501 0.19083752 0.110984445 -0.001720621 0.30699787 0.22230518 0.07165494 0.10648788 0.16422422 -0.25767773 -0.20997661 -0.09666503 0.27164093 -0.10164011 0.011645077 0.13246666 -0.014585126 0.018636636 -0.07188862 0.044087213 0.023356 0.237764 -0.118176945 0.0016417006 0.05856216 0.031277053 0.14503486 0.07360507 0.26162905 -0.0032501572 0.43010768 0.0016428278 0.023878124 0.25039247 0.02072313 -0.15548141 -0.13617821 -0.35234624 0.09986591 -0.2882245 -0.17343177 0.03866549 -0.30962732 0.11061261 -0.045904666 -0.032002456 -0.09040723 0.1080601 0.16966316 -0.054838102 0.154897 0.118022285 0.08342551 0.036578096 0.10714172 -0.09367334 -0.09540837 0.007832313 0.017129114 0.09446954 -0.052002627 -0.032821458 -0.26690748 0.1112495 -0.08394144 -0.14742512 -0.016639015 0.021406606 0.10985822 -0.090544485 0.008621244 0.2624105 0.16419132 0.23434187 0.12815724 -0.033156708 0.14809318 -0.17906512 -0.24005872 -0.31792143 0.16954151 -0.40768164 -0.009751333 0.35676157 -0.038167257 0.28511387 -0.11192354 -0.15394035 0.2737489 -0.2710259 -0.18109551 0.2285632 -0.07128575 -0.0059025805 0.16570464 0.015810333 0.11056263 -0.043506764 0.014504891 -0.009995089 0.046591893 0.051558252 -0.07238793 -0.101883866 -0.22749661 -0.35022846 0.19130705 -0.022462992 0.18951097 -0.32975876 0.030826474 0.020622632 0.0067162705 0.024155458 -0.17613304 0.41525054 0.07957093 -0.0431791 -0.026150918 0.11397118 0.27628496 -0.3107819 0.18953691 -0.055229053 -0.19798082 -0.25620624 0.22199412
S3 -0.07967254 0.1254282 -0.051567055 -0.116183475 0.005970198 -0.016904792 -0.2469606 -0.081163205 0.05208581 0.16913024 -0.15017451 0.17877847 0.02871741 0.00445688 0.31036738 -0.04958567 0.06786015 0.039714273 -0.02711497 0.18986331 -0.24928373 -0.0139172645 -0.00041416602 0.24911349 0.37759292 -0.020599635 0.15625645 0.042031046 -0.009649099 -0.15999149 -0.32596892 -0.13240913 0.07274653 0.5714833 -0.060997386 0.23177919 0.16259448 -0.09339551 -0.028736003 0.15159671 -0.0165376 -0.23501569 -0.09787598 0.015156536 0.036554 -0.03910365 -0.09331414 0.18785833 -0.15675057 -0.051899564 -0.3035371 -0.013665859 0.2637191 0.29263744 0.019436724 0.18942708 -0.03212384 -0.006415282 -0.32757232 -0.3279101 0.0352833 0.13625115 0.022030836 0.104374856 -0.15075944 0.16477592 0.032248423 -0.09046597 -0.029034225 -0.1211066 -0.15586616 0.0005483447 0.3648096 0.024100604 0.18324904 0.30841824 0.22064717 -0.1931869 -0.074975766 -0.14830334 -0.23933575 0.2213929 -0.08751386 0.23364116 -0.11426463 -0.094283424 -0.12011043 -0.10471951 0.18308291 0.087443024 -0.16299367 -0.020573337 0.23901622 0.20293812 0.039192166 -0.06269111 -0.10087253 0.35013884 0.18964994 0.114400044 0.043978952 0.063425556 -0.050681636 0.14198239 0.24616644 -0.17046782 -0.2593082 -0.054416567 0.11649002 0.19879973 -0.08421501 0.17573656 0.2448863 -0.31808832 0.08125062 -0.01871122 -0.04892262 0.11123638 -0.026784007 0.017988613 0.03255078 -0.16820161 -0.22854644 -0.09406956 -0.11602661 -0.29471484 0.19206084 0.08611656
S4 -0.1754064 -0.082933515 -0.0030533671 0.27837303 -0.18206775 0.29571158 -0.018747492 0.26645982 -0.14041954 -0.034184538 -0.43771434 0.106566526 0.2858754 -0.015116826 0.3805721 0.13318717 -0.055383977 -0.09080227 -0.014577618 0.10992306 -0.08106466 -0.19473863 0.08048708 0.20156266 0.10001906 0.1293934 0.024012117 0.15534164 0.18595962 0.007267114 -0.021263413 0.18440774 0.117211945 0.11371936 0.08861394 0.08209094 -0.23195755 -0.16468427 -0.29272577 -0.061067596 -0.013699057 0.12926361 0.041472405 0.25390756 -0.026653243 0.14257357 0.0884059 0.16209617 0.2593356 0.09950605 -0.0008392851 0.2711589 0.2314777 0.023207845 0.05318957 -0.31889147 0.059148192 -0.42845756 -0.04424847 0.21193065 0.092591844 0.054702166 0.30091947 -0.38211098 0.040042963 -0.037794326 0.08501761 -0.0707936 0.30097178 0.06817087 -0.017881153 -0.020331303 -0.098969005 -0.14701575 0.10334874 0.18030962 0.3059333 -0.07710175 -0.16155767 0.06206833 -0.3028497 -0.000985835 -0.027520424 -0.033669177 -0.14408006 -0.1600174 -0.14143477 0.010508708 -0.0059092697 0.14102285 0.2935958 -0.16570899 -0.04081977 0.114983596 0.2519667 0.110719845 -0.25418288 -0.28026095 -0.11077804 -0.23050337 -0.19136368 -0.16639124 -0.1686459 0.21833853 0.030346971 -0.17431004 0.0004974323 0.25423336 -0.018227031 0.026316257 -0.016524704 0.13389862 0.25733605 -0.2590235 0.054682214 0.021823283 -0.010482569 -0.21852353 -0.14698406 0.0500917 0.15566437 0.045789823 -0.11796973 -0.075967476 0.22009285 0.07146707 -0.06232296 0.1054965
S5 -0.2621581 0.24186072 -0.010106118 -0.24420339 -0.040123526 0.004101128 -0.098335244 0.10184371 -0.12313659 0.036780234 -0.017876577 0.23125787 0.23626117 0.4891953 0.003471785 -0.022001851 -0.039820116 0.02240358 0.1415041 0.2051345 0.012713245 -0.3355255 0.1716187 0.14361827 -0.017665235 0.050784156 0.0810978 -0.075884804 -0.075727075 -9.094822e-05 0.18997706 -0.19448705 -0.055491105 0.15907657 -0.045396104 0.29775104 0.0833926 0.09116421 -0.046372432 -0.12031718 -0.037709124 0.16276635 0.04024604 0.047407925 0.03870328 0.18656085 -0.072665 -0.12366419 0.06350369 0.15786962 -0.50035113 0.12797438 0.041193508 0.1636322 -0.08290087 -0.086610384 -0.24460734 0.10511906 0.06445898 0.11391343 -0.32150453 0.10209892 -0.00032767205 -0.0070634997 0.18426315 0.06092636 0.020685006 -0.09780211 -0.088636264 -0.00015710684 0.09624583 -0.07079578 0.11520048 -0.010617579 0.20736627 -0.124949165 -0.11676357 0.056661893 0.04456138 0.26520288 0.033887602 0.1416199 -0.10777722 0.1251092 0.00697605 0.102273665 0.04372675 -0.15533133 0.033697583 -0.028412499 0.059650347 -0.26661688 0.22464442 -0.101687476 0.09406093 0.2020064 0.06625611 0.2005518 0.022672167 -0.06929816 -0.49172938 0.12946886 -0.17276771 0.13225538 0.36163452 -0.011907667 0.13663666 0.20677659 -0.062656514 0.1318038 -0.1409595 0.2534432 0.038103864 0.23731081 0.043911364 0.2046718 0.4045231 -0.08221286 0.41773567 0.0004353816 0.08197412 0.2181004 -0.15870227 0.34265143 0.08669622 -0.006698836 -0.2586608 -0.19023411
S6 -0.10320775 0.13497491 0.3160414 0.0599142 -0.14686011 0.1967598 -0.2561343 0.0251751 0.020241832 0.17476326 -0.2726406 0.10588198 -0.27331233 -0.06160207 0.25659496 0.09267763 0.009387508 -0.04273398 0.43436217 0.3029465 -0.28338167 -0.22787912 -0.19256082 0.106472485 0.086936556 -0.04386636 0.060921904 -0.04439354 0.026495108 -0.1152889 0.16503184 0.21460491 -0.18949561 -0.099584304 -0.026784133 0.12258032 0.12364069 -0.009101591 0.00024273882 0.001583579 0.23729981 -0.30718407 0.121389605 -0.06805786 -0.18375988 -0.18878265 0.18072842 -0.1379126 -0.12927431 -0.10384199 0.03281259 -0.09946687 -0.11993673 -0.064064726 0.16351907 -0.07429304 0.0023168125 -0.17788006 0.22824778 0.15879616 -0.44825086 0.25128213 0.015562114 -0.31391457 -0.00609038 0.25648376 0.24621217 0.103145696 -0.1950312 0.1386916 -0.25884977 -0.0043671946 -0.0234541 0.09706757 0.044759363 -0.18778463 0.024145879 -0.16603829 -0.18805858 -0.29159468 -0.007834037 0.06955407 -0.112593 -0.1658594 0.097623244 0.006884452 -0.005986724 -0.0853733 -0.018048087 0.069190815 -0.08994748 0.25541392 0.069959976 0.015689772 0.03902385 -0.058727898 0.19228008 0.17238471 0.20358701 0.034110796 -0.10081979 -0.0016082926 -0.13022096 0.16209452 -0.017672133 -0.34908286 0.05021529 -0.25396487 -0.096275024 0.008132931 -0.28962052 0.025551224 0.28171933 0.133168 -0.35115427 0.088554434 0.16126692 -0.18858282 -0.318268 0.035914436 0.09692251 0.16685092 0.030436082 0.27381828 0.053320084 -0.004222639 0.08730721 0.010254416
S7 -0.20698433 0.289484 -0.025708385 -0.29159757 -0.07428372 0.1338991 0.05938759 -0.1614694 -0.0080239605 0.0608116 -0.052768197 0.10753252 0.12521748 0.054794114 0.07189344 -0.25220853 0.01146815 -0.21862681 0.10258111 -0.010141784 0.06632951 0.06887581 0.077990815 -0.09008891 0.13099055 -0.090035394 -0.058759052 -0.08493291 0.09807152 -0.13712724 0.08086439 -0.119546175 -0.21490654 -0.008110181 0.012809185 0.07147527 -0.33255437 -0.1313487 -0.16778935 -0.009162289 -0.13446891 -0.29454687 -0.11389606 0.05809959 0.099979 0.14245988 0.09397099 -0.08645686 -0.15699683 0.23550773 0.06616061 0.30415106 0.01673162 0.1817716 -0.27100617 0.22332306 -0.29357016 -0.07224765 -0.32239592 0.14866468 -0.004750377 0.0778755 0.15919833 -0.08007336 0.14095849 -0.13543005 -0.05038047 -0.11894037 0.15086532 0.053719524 -0.3225191 0.24540454 0.0057342 -0.038138147 -0.08092387 0.047814243 -0.013209166 -0.031706043 -0.11602007 -0.2039492 0.014960565 0.0028634283 0.1638026 0.24467413 0.30525053 0.06584255 -0.0496346 0.044888362 0.03728242 0.013912735 -0.078828365 0.34848577 -0.22758329 0.18107446 0.027827797 -0.24938959 -0.13372816 0.09981719 0.072334565 -0.24971586 -0.51973116 -0.16370592 0.116168685 0.12242487 -0.23053473 -0.2943749 -0.009172004 -0.036127873 -0.058475364 0.39688364 -0.030784337 -0.23398845 0.22128429 0.13635984 -0.22879945 -0.01979772 -0.02841605 -0.048499726 0.36434788 0.2641928 -0.03292971 0.36771363 -0.18464205 -0.3239416 0.004221289 0.043488003 -0.09185372 0.05984101
S8 -0.06195413 0.022111528 -0.019946735 -0.100790724 0.06213125 0.08454636 0.054591488 0.14641324 -0.10735222 0.05572073 -0.0585825 0.07166109 -0.2820012 0.19807833 0.012675378 0.038065296 0.10760501 0.15314165 -0.35238585 0.23170973 -0.24596916 0.01168334 0.038511444 0.1170857 0.050373614 0.23648791 0.13787855 0.057746686 -0.021810072 -0.087700255 0.107594416 0.09474301 0.022480879 -0.055638216 -0.007881381 -0.0017588639 -0.14010553 -0.12511797 -0.02179058 -0.02816356 0.04930742 0.15742883 -0.45444113 -0.15832031 -0.07879862 -0.03687225 -0.13153577 -0.036250982 0.06812548 0.3311059 -0.27468562 0.020423995 0.028214846 -0.0719556 0.15347978 0.014062143 0.27061442 -0.31986442 -0.2980117 -0.12625878 0.10577935 0.050056573 -0.0716992 -0.2064612 0.0013705053 -0.03698368 0.061089043 0.3248621 -0.32488856 0.13397577 -0.052246377 0.20549741 0.08050513 -0.016715309 -0.29612908 -0.008803668 -0.13154656 0.119845636 -0.5364387 -0.10637507 -0.099611215 0.30995858 0.083317034 -0.009803803 0.24987091 0.28765061 0.015689345 -0.16984268 -0.06764777 0.38275138 -0.1086359 -0.20068099 0.23773442 0.21007705 -0.13104028 -0.11953977 -0.0066890265 -0.023641197 0.07335758 -0.15524417 -0.20525512 -0.13891782 -0.22090897 0.040719938 0.34798026 -0.10158584 -0.04194275 0.019324413 0.4058401 -0.107503064 0.071888894 -0.053572476 0.22626533 0.28822532 0.08727044 0.27355424 -0.32041594 -0.091490485 0.10098294 0.14416373 0.09196692 0.100779645 0.13262647 0.004664465 0.14801332 -0.09385482 0.0026380983 -0.01918414
S9 -0.05717594 -0.024080697 0.117834926 0.036327757 -0.04961543 0.03939565 0.07015049 0.09747756 -0.35651663 0.2199131 -0.052474387 -0.24908543 -0.17457995 0.13096213 0.1338587 0.23226155 -0.23360728 -0.138402 -0.16608295 -0.07597859 -0.029676965 -0.32811207 -0.18003182 0.07592653 0.13534126 -0.021222875 -0.06971097 0.21397293 0.13851711 0.015068304 -0.087606855 0.025381494 0.1978556 -0.030855566 0.19390236 0.24276166 0.23615855 -0.16673362 0.2586539 0.057546694 -0.31138945 -0.0749678 -0.0057257423 -0.22065967 -0.005066274 0.0975819 -0.23260841 -0.052691102 -0.108389325 -0.04710118 0.21929032 0.0781878 -0.002721545 -0.06299519 0.11164748 0.04280173 0.10419491 -0.107426256 -0.15286873 -0.08226812 -0.17731503 0.35503575 0.032507673 0.17693691 0.1159485 0.1479477 -0.020660404 0.1589044 0.43085605 -0.059180047 -0.03826722 0.092451766 0.14991754 0.021849904 0.17668098 -0.025060462 -0.034697074 0.25663307 -0.24240714 -0.13189143 -0.34759974 -0.13629626 0.124099076 0.16048951 0.041125618 0.020359674 -0.16228966 -0.14465746 -0.11555115 -0.123081885 0.20817396 0.08444185 -0.12229065 0.20349659 0.101137765 -0.08200091 -0.32601476 0.06179459 0.2784295 0.080690145 0.017707488 -0.03803159 -0.16154802 0.315392 0.25707945 -0.03469712 -0.13429709 0.20188557 -0.12830175 0.033295266 0.10364621 -0.13877676 -0.18576492 0.21801506 -0.3330852 0.37282968 0.27178317 -0.011007421 0.16499206 0.38715777 0.039571293 0.11916055 -0.22279322 0.12270412 -0.20965151 -0.15972292 -0.20880614 0.06440464
S10 -0.00606804 -0.06258306 0.20712388 0.08242484 0.0022208707 0.037144873 0.16029352 -0.071787596 -0.108965464 -0.11352771 0.029250586 -0.090392485 -0.22361761 0.38568142 0.00028606094 -0.12652428 -0.26972598 -0.17652455 0.12553523 0.5286841 0.032907706 -0.093739346 0.14260463 0.27984467 0.29582253 0.04954631 -0.054157715 0.230611 0.23866329 -0.17818886 -0.18325214 0.04524815 -0.28311637 -0.2796685 -0.04493302 0.0139366435 -0.19769682 -0.27550656 0.094972886 -0.057828385 0.06457449 -0.01635048 -0.013977316 -0.16831294 0.11746202 0.04782615 -0.024421543 -0.025757207 -0.22092435 0.103433385 -0.051925775 0.09176625 0.01202634 -0.2270053 -0.21482852 0.17582853 -0.055945985 -0.21187711 0.101604976 -0.115604594 -0.01732031 -0.01307423 -0.18059732 -0.17575857 -0.009569393 0.14797194 0.18969205 0.020231685 0.028856095 -0.16939077 -0.04775896 0.14615388 -0.10848424 -0.009474026 0.16533487 0.10058058 0.20307046 0.3041926 0.054419138 0.082384735 -0.09516913 0.10889335 -0.050242927 -0.24063563 -0.28665984 0.01574016 0.15039666 -0.30067217 0.1707928 0.33209217 -0.0096045425 0.2655138 0.054762576 -0.005929535 0.007432428 0.22533198 -0.12578364 0.36502337 0.010006585 0.31136107 -0.21119273 -0.25483233 -0.036369078 0.02621696 0.09839963 0.25861835 -0.06414853 -0.0867595 -0.194417 0.29930282 0.17334925 0.19754381 0.06543559 -0.07852304 0.3216749 0.00015747549 -0.03198145 -0.14051037 0.16679555 0.13289118 0.27440554 0.146113 -0.01608884 -0.24537317 0.003987733 0.017382449 -0.09232887 0.110979505
S11 0.13323463 0.09730765 -0.26507148 -0.011429384 -0.06682557 -0.101498924 -0.16553101 0.0696977 0.12585448 0.02664284 -0.016325668 -0.14578716 0.19103405 0.038228717 0.07504173 0.060862 0.0087537225 -0.2835606 0.1388868 0.113381095 -0.0068865498 -0.05660291 0.021997888 0.18678755 0.16908552 0.15831651 -0.14698637 0.0841831 -0.1502492 0.10065348 -0.114737965 -0.20233655 0.06758722 -0.21536621 0.054978654 0.15899706 0.0634042 -0.016909549 -0.15769152 -0.19659388 -0.3224147 -0.10504105 0.022777537 0.047201585 -0.14055263 0.15956034 0.011859581 0.15142752 -0.018248715 0.27188516 -0.17558745 0.20089315 0.07249088 -0.067249015 -0.122850284 0.17204662 0.036813408 -0.094596505 -0.27443805 0.048494298 0.08675549 -0.038996402 -0.0620493 -0.44574654 0.09098808 0.19982925 -0.13786414 0.15283167 -0.04167352 0.23766021 -0.2827556 -0.25265422 0.0057337345 0.19827403 0.05264302 -0.006148345 -0.15398163 0.23800555 0.033949535 -0.25159794 -0.02324009 0.15193261 -0.000533979 0.045167394 0.059842627 -0.05451008 -0.21389572 -0.32399204 0.033147372 -0.18842536 -0.33685264 0.030678155 -0.035780918 0.21917589 0.11956545 -0.2180969 -0.20199096 0.070771076 -0.07656554 -0.021262636 -0.1389757 0.26248908 0.13059969 0.4043174 0.23416942 0.043693535 0.15041818 -0.3136969 -0.13401327 -0.037312336 -0.07393131 -0.023691997 -0.11438711 -0.058289297 0.217715 0.08029853 -0.027855879 -0.25267756 -0.34686455 -0.08604354 0.61799294 0.11081965 0.13113382 0.13230321 -0.06248735 -0.2885035 -0.23017968 0.038691565
S12 -0.01853391 -0.24011901 -0.086434506 -0.008328846 -0.09052314 0.124864 0.06333088 -0.15424521 0.10543826 0.07247011 0.008402435 -0.11660546 0.08674505 -0.12145322 -0.10210603 0.10032533 -0.018554151 -0.17286918 0.124546066 -0.04242936 -0.34775278 -0.1733109 0.13896877 0.35167697 0.14893866 -0.041379623 0.043026112 0.12408817 0.06805302 -0.28494182 0.21394795 -0.055575192 0.00067283405 -0.18878582 -0.2569889 0.106814906 0.31332007 -0.27621138 0.1692668 0.042517424 0.2149158 -0.2871107 -0.24576665 -0.10117985 0.1290397 0.43040663 0.27031845 0.27200672 0.029103834 0.22294658 -0.19313982 0.005111744 -0.047872756 0.26787552 -0.12250096 -0.036480792 0.07801176 -0.2555696 0.19870351 0.11732708 0.294367 -0.06600346 0.18028696 -0.0030514847 0.1840114 0.21881437 0.09641972 -0.0034402988 0.10886177 0.020194417 0.024842825 -0.058825906 -0.13309756 -0.120269716 0.24063128 -0.10536383 0.023037162 0.36047468 -0.2169768 -0.050648972 -0.2582547 0.16217889 -0.11632362 0.14374301 0.08295091 0.46367478 -0.20323639 0.039793745 0.09272695 0.107693814 -0.23469187 -0.026397496 -0.03744023 0.061453734 0.028366065 0.012417001 -0.033228572 0.09548615 -0.08952239 0.09578663 0.035556614 -0.028085716 0.22447957 0.06637233 0.066026054 -0.2905677 -0.14135449 0.24691218 -0.06404829 0.078367494 -0.17030469 -0.030942567 0.08405183 0.14527592 0.060909655 0.17674202 0.2429328 0.2645647 0.020428868 -0.139704 0.08326215 0.05946898 0.058968265 -0.11829528 -0.059649136 0.31215516 -0.09913366 -0.14487997
S13 -0.026359595 0.18123433 -0.06653567 -0.3766033 -0.012613797 -0.0146376155 -0.094271064 0.18580164 -0.1349382 -0.08991497 0.022128765 0.03857883 -0.11470498 -0.18604659 0.16548671 -0.22674292 0.070287056 0.05333022 -0.38229075 0.25435027 -0.2228364 -0.024111928 -0.061589178 0.07212189 -0.051544473 0.0860123 0.02278453 -0.069469236 0.07065339 -0.10297221 -0.20114897 0.28302476 -0.15556961 -0.08205611 -0.019882154 0.25368986 -0.10198093 -0.13692905 -0.2536237 0.015208519 -0.00035006134 -0.051178534 0.104486935 -0.031907212 0.14557539 0.11066283 -0.05503087 0.006961637 -0.02459046 0.37189132 0.2838634 0.09532706 0.13815893 -0.022733497 0.017847024 -0.1223758 0.15462734 -0.12937164 0.18782054 -0.1967263 0.0003836314 -0.16522463 -0.08206295 -0.16814403 0.14227554 0.10769332 0.039712537 0.2207714 0.04884153 -0.37548694 -0.03848643 -0.0757805 0.043845255 -0.04524131 0.0717972 0.14007895 0.10358059 -0.108355835 0.05764543 -0.19056208 -0.12398566 -0.1426362 -0.07734444 0.3203587 0.0067287334 0.27068886 0.20272526 -0.22758822 0.42053312 0.0058686533 -0.11828016 -0.12523015 -0.109709926 -0.06456618 0.47428587 0.43156978 0.09921689 0.10421231 0.26615205 -0.20341994 0.023422783 -0.055747237 0.23543897 0.17815897 0.01818776 -0.27530724 0.24147198 0.078311756 -0.07487033 -0.16262063 -0.14334285 -0.16748857 0.17273128 0.24859153 0.043290183 0.022825375 -0.03919735 -0.11586438 -0.013860341 0.18026334 0.20143358 -0.051953938 -0.22183147 0.14248559 -0.32781386 -0.025686568 -0.14055794 -0.15137284
S14 -0.30335966 0.13922547 0.15903124 0.2920636 0.19983476 0.0146256 0.108375594 -0.025845073 -0.26946586 -0.052618515 -0.006008314 -0.014588358 -0.13297907 -0.23322205 -0.18565331 0.10032656 -0.041539285 0.05793759 -0.31767994 -0.09530986 -0.25015837 -0.15961866 0.0111355875 -0.05509934 0.20370369 0.08063985 0.021732332 -0.06799699 -0.25973722 -0.22940147 0.12053485 0.11653437 -0.1089706 -0.081141256 0.08392175 0.1861566 0.0645387 -0.047037996 -0.11839742 -0.08999797 -0.22502352 -0.010043193 -0.11015466 -0.029376015 -0.057235617 0.21995921 -0.21077478 -0.15942025 0.08319264 -0.010425682 -0.2633294 0.32414386 -0.074509956 -0.37303105 -0.116342135 -0.099097885 -0.1543613 -0.004079206 0.30580172 0.030658193 0.028869746 -0.023271712 -0.11958444 0.1863691 -0.34347323 0.04453791 0.15004937 -0.10801562 -0.01401511 0.18293566 -0.4692468 -0.22563921 0.108185105 0.017228251 0.24022801 0.12484229 0.24548413 0.09365259 0.12981476 -0.20143309 -0.078641675 0.38770777 0.22896007 0.15579236 0.053909272 0.005617492 0.24926618 0.20565815 0.030885102 0.2617554 -0.029918797 -0.033299122 0.023980001 0.17149198 -0.041500688 0.025868073 0.053639814 -0.036392756 0.28889292 0.03267109 -0.2085034 0.0825032 0.24007261 0.3122029 0.10229432 -0.12295411 -0.05799137 0.15948828 -0.07419887 0.23017249 0.10325054 0.028646179 0.2366624 -0.20261368 -0.06271198 0.053671826 -0.015772969 -0.08136372 -0.06124818 0.16647053 0.119796954 0.11677253 0.1186718 0.01427432 0.12920013 -0.061479457 -0.10969386 -0.26009193
