52 128
C2 0.32158235 -0.30740017 0.34937128 0.1523138 -0.44744587 -0.21249223 -0.108742915 -0.39548945 0.16933261 0.1262975 0.5057082 -0.49545833 0.12916237 -0.04099468 0.020058922 -0.033836376 0.45718178 -0.012964699 -0.066471055 -0.08498126 -0.4507574 -0.08216813 -0.30926284 0.12661031 0.38591796 -0.37477666 0.2098944 -0.18983917 0.038684912 0.23455831 0.11580171 0.03683424 -0.0034589868 0.2184803 -0.15257438 -0.011268453 -0.28634924 -0.3044651 -0.4075202 -0.40067255 0.281319 0.36424464 0.1514766 0.33128843 0.0585453 0.0067605427 -0.21558318 -0.14654656 -0.32020995 -0.3151013 -0.14461038 -0.08766804 0.096034616 0.01698951 0.042614378 0.21184994 0.2390548 -0.010528304 0.008003423 -0.07272342 -0.26191142 0.36721912 -0.0859634 0.24505287 -0.31221688 0.11742791 -0.020896519 -0.28837427 0.08639298 0.3483364 0.3384738 0.40495938 -0.16147676 0.28828785 0.027893223 -0.46891353 0.46036062 0.008129832 0.04167516 0.034802318 -0.10057486 0.1647308 0.20962219 0.44048738 0.15302993 0.10105687 0.17242056 -0.25042576 -0.0508379 0.05184138 0.08058928 -0.110675484 0.24429359 0.18315932 -0.013190915 0.019248297 -0.28341737 -0.14131118 0.19366293 0.34675637 -0.30584395 -0.26252586 0.059439495 -0.35485965 0.15628742 0.06763534 -0.054726485 -0.41630867 -0.08237008 0.011984105 -0.069977954 -0.38811377 0.34458214 -0.4945307 -0.14680336 0.15909857 1.0582206 -0.04645634 -0.042854663 0.47533417 0.3208505 0.23181334 0.26561797 0.38807118 -0.26692668 0.36886993 -0.12854743 0.03462164
C12 0.07300519 -0.4523782 -0.18551524 -0.020639643 0.013858638 -0.03505271 0.037161123 0.24965854 -0.052289948 -0.21731426 0.2378727 -0.12120199 0.24858977 0.1482678 0.11884909 -0.07060789 -0.25589663 -0.09986892 -0.06644881 0.27012515 0.0680492 -0.22888936 -0.16347252 -0.47583038 -0.1927857 -0.072183125 -0.032058775 0.057220962 -0.17519784 0.07768583 0.04577876 -0.05469139 0.018922167 -0.029218907 0.008231005 0.25341833 -0.16176207 -0.27858776 -0.1262522 -0.24723464 -0.13470475 -0.039314978 0.28404504 -0.013385422 0.20008883 0.018248726 -0.31194457 0.2494766 -0.13464251 -0.14080416 -0.17630157 -0.29461968 0.23015943 0.06370797 0.058365755 0.032053184 -0.12843904 -0.0205541 -0.2407757 -0.05426888 -0.08214288 -0.21206395 -0.13069043 -0.26012588 -0.19904755 0.16076007 -0.2544469 -0.092542805 0.080270626 0.014822386 0.018441869 0.18013176 -0.12323639 0.033169195 -0.088243276 -0.18192391 0.33697173 0.35646993 -0.059880514 0.023837933 -0.2891191 0.069543175 0.060650777 0.11267205 -0.104994446 -0.10316407 -0.012264753 0.08809851 0.06233434 -0.02715009 0.037071884 0.26015103 -0.0132890055 0.15591331 -0.024121802 0.20762335 -0.1698881 0.043296225 0.03019397 0.51920694 -0.021676442 0.021619963 -0.4256647 -0.25870335 0.21808183 0.04677307 -0.05671123 -0.3619532 0.057668436 -0.06378073 -0.0026836633 -0.44039515 0.36362055 0.018996138 0.3923563 0.2947348 0.12425342 0.09004485 -0.092976846 -0.23871353 -0.2057128 0.05207142 0.4349186 -0.07387273 0.28010342 0.03566031 0.29561746 0.16646303
C13 0.046687827 -0.40013885 -0.022624565 -0.02068506 -0.037956007 0.19584002 0.02446857 -0.343288 0.121671975 0.015128986 0.28361267 -0.06682548 0.3063069 -0.3399648 0.182215 -0.11375664 -0.097932346 -0.14233704 0.17840594 0.32610095 -0.09299427 0.20572308 -0.28118384 0.037475947 -0.042291068 -0.20083863 -0.14024141 0.14347267 0.015457502 0.15814137 0.078927785 -0.15418296 0.078537755 -0.14637262 -0.0038139299 -0.1649864 -0.050447833 -0.37563363 -0.35816503 -0.3475634 0.063202865 -0.08819601 0.067787975 0.12972602 0.041935552 -0.06479767 0.013881171 0.09700783 -0.049086995 0.02280464 -0.13363416 -0.061629094 0.15512751 -0.06255676 0.14898743 0.13899276 0.2704436 0.000104739025 0.003956095 -0.11507643 -0.13065997 -0.089962795 0.029100772 0.20375411 -0.3157214 -0.044381462 0.15153225 0.20339486 -0.14489684 -0.04942817 0.016046315 0.2733139 -0.453031 -0.026822742 -0.053697687 0.29931858 0.055545766 -0.17501387 -0.23135793 -0.08890829 0.20777106 -0.060066685 -0.031392053 -0.03390337 0.23156679 -0.021386165 -0.22975375 0.10292631 0.105735585 0.18763456 -0.027156273 -0.031264737 -0.1636951 -0.26257434 -0.0047592237 0.12591684 0.17183323 -0.3059154 0.3213538 0.40558946 -0.022206487 -0.1553867 -0.19502039 0.22050688 0.1297264 -0.03238426 -0.13133048 0.12917411 0.09910795 -0.017939018 0.07593679 -0.021196496 0.19098283 0.023206888 -0.26027775 0.10107071 0.071407825 0.23769599 0.4006542 0.39492777 0.21643476 0.24446753 -0.45397052 0.20232522 0.38986933 0.2914116 -0.1716864 0.34281424
C11 -0.15427215 -0.4735563 0.3592844 -0.03415377 0.032859895 0.20102338 -0.20043392 0.37954926 0.058910694 -0.11411037 0.5247236 0.036556926 -0.03305404 -0.013331426 -0.15540208 -0.13258412 0.2189938 -0.0071948953 -0.3129644 0.0053946236 -0.02184906 0.19371288 -0.027142676 -0.25356656 -0.43798214 0.13367936 0.031127186 0.4411158 0.042240318 -0.0176236 -0.01687196 -0.13859554 -0.038971946 0.055115048 -0.120939925 0.16386127 -0.28410593 -0.06957556 0.09624029 0.017317386 0.08494916 0.21491498 0.3135977 0.16860013 -0.045317933 -0.24700771 0.027254911 0.14797392 0.09054567 0.09548187 0.09537378 0.059085634 -0.17156503 0.012149916 -0.16051269 0.19785045 0.048647292 0.18364285 0.1563645 -0.16589689 0.032052137 0.32292694 -0.044222575 0.24824893 -0.03027699 0.06450727 0.20900483 0.11774091 0.096455134 0.18231125 0.33639133 -0.046358023 0.17319846 -0.2380751 0.058287703 -0.11405676 0.13803776 0.091528706 -0.000101646205 0.067468524 0.20725381 0.12002508 0.007757269 0.105422184 0.07325868 -0.04912227 -0.27318454 -0.40823573 -0.11187844 -0.034042582 0.011022945 -0.08035883 0.045426406 -0.13997303 -0.0076856334 -0.12700802 0.40067983 -0.21600306 0.1979932 0.47780165 -0.19862452 -0.19649628 0.051222697 -0.17031512 -0.04042004 0.2370604 0.110450834 0.098202065 -0.23976403 -0.055324502 0.09117452 0.15097311 -0.05357345 -0.12495574 -0.46053812 0.34242672 0.30392826 0.060984135 -0.21933286 0.10041348 -0.0061272983 0.1073792 0.40511575 0.13338299 -0.07855865 -0.073880136 0.21650392 -0.040925793
C14 0.07513688 -0.40328854 -0.3286867 -0.042746905 0.2947963 0.42431524 -0.16480297 -0.08469654 -0.15194939 -0.08398271 0.19022755 -0.0899569 0.16706195 -0.10572954 0.03688894 0.3477045 0.12559897 -0.028373886 -0.24545135 0.1780134 -0.06319348 -0.02287209 -0.08113428 0.016739646 0.105909266 -0.052566145 -0.09802429 0.08428502 0.14082274 0.11023507 -0.060533375 0.34482324 -0.1834394 -0.10418599 -0.1340235 -0.3264696 -0.08747838 0.1137521 -0.04874002 -0.30605087 -0.18571152 0.18500799 0.20730497 -0.0314816 -0.13095275 -0.0017835794 0.016826745 0.24443257 0.0018981247 0.092928976 -0.016087271 -0.24906991 0.13647817 0.1523025 -0.102701336 -0.055912454 0.09864638 0.16559607 0.057598397 -0.26640558 -0.004193627 -0.2015052 0.033754826 0.018688641 -0.07578369 0.0602805 0.0076582907 -0.09207197 0.045594584 -0.08827035 -0.002034537 -0.060015574 0.02117068 0.25038695 0.06788066 -0.021579338 -0.053778492 0.06748832 0.47273356 -0.024338944 -0.02010724 0.27442896 -0.28222883 -0.07354997 0.072233334 -0.22348964 -0.04953462 0.051990796 0.08673833 0.062265698 -0.14259909 -0.12253707 -0.010846257 0.14704904 0.04473851 -0.09341582 -0.028931223 0.11640973 0.47795904 0.27888912 0.11248741 -0.10379374 0.07977659 -0.19037773 -0.41286498 -0.040379718 -0.20405294 -0.3292906 -0.17576134 -0.19867758 -0.07032739 0.2801158 0.044346035 -0.32482293 0.1479717 -0.09515271 0.4238681 -0.20318624 0.19324188 0.14001033 0.09383383 -0.16771351 0.10057869 -0.19511342 -0.59676486 0.053054944 -0.32745534 0.44558236
C10 -0.122946404 -0.2121781 -0.3085961 0.21042815 0.13881122 0.2913592 -0.090687424 0.009190005 0.034495864 0.07193777 0.11100848 -0.16650142 0.14335418 0.032208573 -0.0700714 -0.026444623 0.11651806 -0.060156543 -0.06998804 0.115677394 0.0028461018 0.33043304 -0.24641664 -0.3601458 0.597694 -0.18848863 0.25132906 0.13068451 0.1264365 0.15555856 0.010434418 0.075905815 -0.013172917 -0.03426424 -0.16013335 -0.110457234 -0.12572688 -0.13168693 -0.09211113 -0.018465655 0.042463124 0.25942364 0.0949385 0.16670585 0.05657281 -0.27568632 -0.21453518 -0.13200058 -0.09672397 -0.33985665 0.018260842 0.0029647143 0.06746041 -0.05988476 0.14949784 0.04830296 -0.11595178 0.10064262 -0.094294444 -0.005516035 -0.28465888 -0.28341618 0.17513973 0.17241043 0.09574867 -0.028683087 0.19198467 -0.44271863 -0.155168 0.19663319 0.14808516 0.05481257 -0.25387973 -0.3451643 0.06516319 0.07493577 0.086927466 -0.15411068 0.2727467 -0.09270904 0.09161061 -0.1306162 -0.16541672 -0.19822626 -0.114873774 -0.07920224 -0.1255011 0.07097534 0.19921525 -0.35082334 0.3313837 0.20622179 0.064962536 0.18022013 0.06956697 -0.075269625 -0.03095631 0.122705914 -0.16613284 -0.13095447 -0.6565517 -0.17923 -0.074551545 -0.1209182 0.19964992 -0.08336928 0.23050167 0.19945031 0.46264985 0.005454704 -0.2579257 0.1360162 0.28225553 -0.1543769 -0.017264592 0.14848582 0.38468 0.26035687 -0.0034524938 0.26897237 0.07987368 -0.05324357 0.23670901 -0.036486674 -0.050618123 -0.28546453 0.15156092 0.07289594
C9 0.16708788 -0.36386216 0.16015618 -0.10420859 -0.20483589 0.118872754 -0.104970075 -0.07457311 0.2443657 -0.0029706836 0.06770361 0.16027945 -0.040157884 -0.13121542 -0.05779554 0.13147464 0.086384304 0.09015674 -0.053417835 -0.034415703 -0.00037127954 -0.14708856 -0.08826564 -0.067620285 0.033767786 0.1443058 -0.30953532 0.16710353 0.1974375 -0.23350301 -0.18133841 0.3064091 -0.19861467 0.0053784736 0.107460864 0.07126294 -0.203739 0.022652788 0.010255514 -0.048197843 -0.20025772 -0.17848738 -0.02792633 -0.04976471 -0.050232153 0.10474764 -0.09217405 0.08125599 0.1354321 0.16152076 0.25427902 -0.02945283 0.16236372 -0.07275288 -0.015755186 -0.01137853 0.08735511 -0.16810745 0.18167065 0.01858843 0.11831509 -0.12520005 0.015062355 -0.013848605 -0.15699798 -0.16508953 0.24792624 -0.22081025 0.20738472 0.23143144 0.008132613 0.26517105 -0.22968458 0.20506041 0.22091924 0.12260237 -0.03459664 -0.07699937 0.13592297 0.034264 0.2835299 0.2555746 -0.04380802 0.24481353 -0.23983377 0.061169874 -0.24641214 0.020604782 0.40159544 -0.00042988508 0.20112836 0.20238848 0.25023067 0.048055716 -0.03738486 0.07708552 -0.05174283 0.26476336 -0.1915015 0.35070834 0.07195949 -0.45944518 -0.032106478 -0.1830734 0.107240245 -0.15726505 -0.10140442 0.048955064 0.35034212 -0.07107315 -0.079896815 -0.37307382 0.20445092 -0.11950761 0.10825439 0.3394786 0.12045946 -0.120636314 -0.33164448 0.52632195 0.47365394 0.008492505 -0.163457 0.10321905 -0.2013514 0.4448762 0.07036414 -0.50180334
C8 0.15356262 -0.17173094 -0.187554 0.113231026 -0.2159505 0.035998084 0.1048937 0.14363576 -0.32127857 -0.11528108 0.06040738 -0.3513936 0.10588848 -0.3432141 -0.123507716 0.15629959 -0.015851127 0.027965326 0.011198869 0.11908175 -0.31963834 0.155053 -0.34476715 -0.11275966 0.04981127 0.08837911 -0.27680224 -0.4785473 0.42198184 -0.17273809 -0.14244616 0.22707193 0.022028783 -0.039839227 0.02442951 0.10301076 -0.14307986 -0.26674393 -0.14501755 -0.21931191 0.13841014 -0.27600586 0.18639706 0.27904662 -0.14088428 -0.12104727 -0.0804772 0.22554138 0.18390907 -0.16149393 0.14511678 -0.092639215 -0.1730278 0.28041977 0.013987033 -0.062724486 0.05549096 0.07497136 -0.06511446 0.1954468 -0.02382472 0.25850666 0.13667049 0.04159169 -0.43882352 0.06609605 -0.12341691 0.05158866 0.206525 0.28633144 -0.19179179 -0.06078382 0.015459855 0.1085975 0.34800225 -0.045031477 0.06726616 0.23862334 -0.09514626 0.24662334 -0.017778821 -0.25719562 -0.07835063 -0.30462778 -0.21575302 0.111746274 0.08365873 -0.35220414 0.1430675 -0.12951344 -0.095636725 -0.02489408 0.27391523 -0.20290713 -0.032069072 0.04467329 0.2156936 -0.14799798 -0.10719752 0.033430945 -0.26451215 -0.12263425 -0.22820342 0.15853871 0.13525675 -0.052935798 0.05788483 0.0038335072 -0.11272239 0.26168722 0.27946374 -0.27211943 0.3875378 -0.028541688 -0.21707523 -0.25896972 0.15841243 0.027943417 0.17644131 0.15245667 -0.14174005 -0.05461187 0.22624692 0.06491432 -0.47530162 0.04438975 -0.08918305 0.062461343
C3 0.2452596 -0.1889455 0.0130682895 -0.03627653 -0.4997917 0.25544426 0.10254815 0.12353941 -0.26989895 -0.044319227 0.21005812 -0.09296232 0.25987735 -0.18933803 -0.35097784 0.3100176 -0.095275134 0.17725171 -0.06746111 0.03853512 0.012929164 -0.048264727 -0.02262721 -0.12133557 0.054607842 0.0064366246 -0.009737745 0.14500935 -0.05799645 0.3187292 0.093127675 0.109600246 0.10515861 0.037693568 -0.17206949 -0.24640305 -0.23511374 -0.098963335 -0.16280648 -0.12761605 0.12548225 0.101060316 0.09184718 0.10431364 0.10594243 0.02244632 0.12041751 0.46020934 0.07609572 -0.1497635 -0.03973221 -0.124299124 0.109363765 -0.044349182 0.05292907 -0.19040427 -0.0728808 -0.09805643 0.11530015 -0.12600447 0.37212104 0.06049312 0.2662834 -0.078510955 0.16105896 -0.23531096 0.0830932 -0.14192982 0.06917885 0.22118172 -0.23319164 -0.31898388 -0.17028026 0.20511922 0.081811756 0.00021851639 0.20162168 0.15822658 0.10886894 0.22777465 -0.119206324 -0.051559646 0.14267077 -0.13185774 0.6481477 -0.10702927 -0.19763629 0.1403019 -0.24435201 -0.10158223 -0.03673539 0.11797243 0.0072823795 0.3465425 0.26320234 0.055762116 -0.067321554 -0.15434034 -0.3250579 -0.050205085 -0.089680254 -0.13601366 0.2618554 -0.07226201 0.24038714 -0.10722341 -0.01470143 -0.21817884 -0.14872298 0.13210392 0.030500099 -0.22284819 0.05995509 -0.07211052 -0.52771354 0.17733769 0.2861916 -0.09550799 -0.2663221 0.3070633 0.20562866 0.08055334 -0.1735755 -0.26657405 0.2704422 0.022561392 0.33796197 0.123036034
C6 0.019913465 -0.42212012 0.1490062 0.067569606 -0.10227125 0.07004193 -0.25029892 -0.14712909 -0.012465273 -0.13623652 -0.018658947 -0.1681897 0.04010583 0.28921515 -0.38213214 0.16188875 -0.15221028 -0.18146816 -0.28913555 0.3241551 -0.16781428 0.14883155 -0.21493533 -0.26093614 0.03890384 0.34179854 0.17817079 -0.036965728 0.27855468 -0.091341116 -0.17288254 -0.20745587 0.042794053 -0.296689 0.02305187 -0.06237079 0.010989262 -0.2369648 0.083262816 -0.0022194632 0.21937443 -0.11071701 0.017799271 0.30963457 -0.16288498 -0.0049613784 0.27623415 0.047171652 -0.0426629 -0.34200817 0.13860641 -0.0608247 0.19994576 -0.39093003 -0.3760653 -0.12229992 -0.12759297 0.03648944 -0.13059539 -0.16738078 -0.19461118 -0.11816731 0.061716277 0.0944868 -0.16938841 0.14936656 -0.03101091 0.21686883 -0.10310264 0.39898324 -0.014990958 -0.043624334 -0.080494925 -0.030298764 -0.09949632 0.20349225 0.031405207 -0.17316195 -0.009503727 0.3049884 -0.14130025 0.40119854 0.21599954 0.2542941 0.10931302 0.1694614 0.14160375 -0.047211558 -0.04193307 0.114720725 -0.26340374 -0.19971502 0.304383 0.06335731 0.10889967 -0.24265328 -0.256709 0.2825847 0.12665689 0.019767836 -0.10065375 -0.21402393 -0.024592532 -0.17432728 0.26014405 0.3807294 0.0059245056 -0.39255482 -0.03612284 0.008229914 0.19854866 0.09685757 0.18266927 0.031015612 -0.028846346 -0.11152633 0.17759886 0.21170656 -0.09731118 0.25083444 0.23560688 -0.14993142 0.050311983 -0.18705574 0.27990702 0.14683148 -0.35938486 0.003756283
C7 0.11188966 -0.02026427 -0.1303494 -0.037717186 0.065270424 0.1590951 0.14172599 -0.01854025 -0.28875515 -0.023012321 0.028761197 0.027261177 0.18447712 0.1439139 -0.37424892 0.29512066 0.115626864 -0.38996103 0.13529517 -0.039001197 0.0017887941 -0.08999236 0.044588562 0.020514341 0.3100026 -0.07695313 -0.29695994 0.23936458 0.16432984 -0.033809748 -0.043771192 0.035274364 -0.3532086 0.08594023 0.15237068 0.12451751 -0.12796772 -0.071527034 -0.08118697 0.052047733 0.21380319 0.19616583 0.04665583 -0.13902679 -0.39466104 0.24214341 -0.046889182 0.14923131 -0.0916485 -0.15440361 -0.15710364 -0.29914314 0.14142679 0.2904704 0.08695399 0.25477928 -0.11264332 -0.10767383 0.19190438 0.096628666 -0.054631103 0.23847365 0.03413994 0.15822998 -0.29214466 -0.1968143 0.013972171 0.17281623 0.2881808 0.24932867 0.16710293 0.15030532 -0.2573633 -0.16806203 -0.11403586 -0.017982533 0.3341479 -0.1927771 0.055594716 -0.018806333 -0.11131327 0.19684383 -0.17757364 -0.16668604 0.2134985 -0.31764355 0.1368097 -0.040088806 0.16548218 0.1070738 0.08143906 -0.15690447 -0.26313514 -0.23514633 -0.06355146 -0.12047055 0.054874334 0.028281651 -0.18032368 -0.010384957 -0.12748007 0.07087474 -0.32764462 -0.1000199 0.28198057 0.26027068 0.09213469 0.1687127 -0.4631559 0.05614837 -0.082712434 -0.30185917 -0.09824901 -0.09230804 0.12583198 0.38648543 0.5398083 0.12643018 -0.28525046 -0.00063641695 0.4627378 0.10004898 0.025123173 0.08957048 0.13311763 -0.09866615 -0.32245895 0.083341286
C5 0.3496494 -0.26316628 -0.3464906 0.12036686 -0.14286366 0.011885448 -0.010925538 -0.077290066 0.13865672 -0.11712309 0.1533595 -0.19147353 0.3889929 0.29642016 -0.3075371 0.048562754 -0.112705894 -0.39272076 0.20257728 0.28280002 0.12083335 0.08037395 0.053394113 -0.30138952 -0.028797695 -0.41218048 -0.14529152 -0.0085336985 0.05158242 0.22003329 0.1252336 -0.08305098 -0.35626778 0.04678558 0.075381435 -0.01249576 -0.013964336 0.1471797 0.13364223 -0.21556969 0.03602533 0.04971399 0.17331918 0.17330052 -0.026964732 -0.036198933 0.079154536 0.088723056 0.13926718 -0.32789525 0.21828353 -0.2712517 -0.10815079 -0.0403881 -0.058557145 0.016587188 -0.20154275 -0.013211554 0.3903135 0.114904754 -0.10569715 -0.045875818 0.076220885 -0.0049122004 0.12100988 -0.17879051 0.21216041 0.04519172 -0.32217386 -0.06176477 0.48334622 0.016148688 -0.21657969 0.13088484 0.29080185 0.13874012 0.5501483 0.005704625 0.16058172 0.32189053 0.007890916 0.088591516 0.202988 0.38356945 -0.20421797 0.34456056 0.18712716 -0.024546402 -0.14424981 0.02699341 0.069706015 0.15879326 -0.047392353 -0.0381634 0.27619165 -0.14197885 0.017673548 -0.10020758 0.048131578 0.1519025 -0.018251821 -0.13540259 0.1819341 0.19095884 -0.050384253 -0.16269551 0.0483082 -0.020812288 -0.13820682 -0.021534083 0.0899965 -0.21644145 -0.1665437 -0.064118855 0.013963305 -0.12760106 0.020594291 -0.10817575 0.08116392 0.30900222 -0.11382883 0.029766766 0.1479786 0.5725193 -0.14928642 0.13601048 0.1475235 0.025969367
C4 -0.121480785 0.14880802 -0.21239355 -0.096321896 -0.058952082 0.004356974 0.06697228 -0.20415482 -0.27423757 -0.16451827 0.29483697 -0.11412389 0.030892458 -0.0047836443 -0.16614848 0.31309083 0.13636579 0.23294103 -0.21662422 0.03250181 0.02739331 0.31307524 -0.22185823 -0.18153109 -0.13037595 0.19002874 -0.03909356 0.43914422 -0.079506904 -0.21722338 0.032154024 0.038852304 0.07016029 -0.24312636 -0.039005905 0.26868576 -0.05751986 -0.09636526 -0.0022769517 -0.15022856 0.028582472 -0.036076084 -0.06568403 0.08492734 -0.058064852 -0.067520775 0.0060117096 -0.28583968 0.0017273758 -0.33541876 -0.23209433 -0.1791137 0.016397761 -0.16473436 0.31080714 0.18873607 0.29675138 -0.26675233 0.16293779 0.25317597 -0.20173162 -0.12807707 0.22965847 -0.14010707 -0.12862773 -0.034871962 0.17623556 0.029186385 0.1267365 0.26926187 0.046604548 -0.12294498 0.15729919 0.011391733 0.2194735 0.15258889 0.30802065 0.12807363 0.021723375 -0.06984083 -0.03757223 -0.13983628 0.181425 0.04913169 -0.09599439 -0.20246294 -0.27018985 -0.12745789 -0.22779635 0.14756879 -0.12239271 -0.17545052 -0.016136777 0.28730693 -0.06803867 0.010764543 -0.21563324 -0.29185176 0.10164548 0.13250192 -0.08826212 -0.17234191 -0.36939245 -0.31160572 0.1418257 -0.11180006 0.22781853 -0.40648228 -0.1601154 -0.09447803 -0.4193353 0.05776117 -0.015481908 -0.050808985 0.16703452 -0.001289781 0.06412705 -0.25441378 0.01292779 0.38022286 0.18322966 -0.17217775 -0.17443803 0.6488724 -0.21700084 -0.05155488 0.05830291 0.06720822
S10 0.21334134 -0.12858844 -0.48410532 0.28610355 -0.057310164 0.24416237 -0.27062464 -0.15590544 -0.21291277 0.17158534 0.24662739 -0.49162158 -0.06158331 -0.33374548 -0.041466344 0.25923595 0.08599906 -0.013883067 0.11410203 0.096351445 0.08141353 -0.36387843 -0.029079901 -0.289282 -0.027524631 -0.039851133 0.0363944 -0.00976938 -0.12208148 0.0499108 0.0056317607 0.05795819 -0.2798958 0.28173998 -0.02036619 0.037811495 -0.036537554 0.06385616 0.179146 -0.22727275 -0.057442755 -0.057433564 -0.20938015 -0.028935334 0.19147283 -0.42181936 -0.0027482526 -0.22450048 0.1137983 -0.009055169 -0.012583628 -0.007195821 0.099728264 -0.2240721 -0.18866725 0.22820851 0.060929228 0.02319632 -0.105845526 -0.0016777157 0.017472995 -0.12388374 0.28466767 0.016293202 -0.1125672 0.07559728 -0.1595666 0.16701134 0.12267332 0.3155624 0.0033904416 -0.033023458 -0.03957291 -0.04140035 -0.06823308 0.01631099 0.008761903 -0.36763364 0.13130231 0.08182806 -0.07416735 -0.014846074 -0.17467448 -0.15638621 -0.1371628 -0.05935136 -0.06365313 -0.00075276825 -0.08914588 0.09630012 0.10789529 0.027686585 -0.0069414726 -0.15091941 0.056197226 0.06417227 -0.34831956 -0.07531862 0.28110322 0.34885696 -0.35031313 -0.30359513 0.2055456 -0.19463587 0.02891548 0.22858389 0.121442586 -0.35527167 -0.25337377 0.41391417 0.36008587 -0.1720338 -0.05142306 0.1670641 -0.1526586 0.3977268 0.44105494 -0.1227353 0.26333466 0.27116922 0.0709338 0.37333927 0.08838733 0.06584917 0.019489413 0.07252717 0.06344192 -0.20953792
S11 0.13510336 -0.15196179 -0.19486721 -0.1067503 -0.22281976 0.2839874 -0.28344193 0.1205213 -0.47259086 0.2970203 -0.12904572 -0.24033232 0.1895194 -0.16807562 -0.24526015 0.40116212 -0.16714227 -0.07591669 -0.017111715 -0.14981101 0.27057043 -0.09124541 -0.08390601 -0.06483692 0.040971152 0.13259955 -0.036400832 -0.030175503 0.1733485 0.22366923 -0.20579994 -0.11652103 0.1792525 -0.23060624 0.014234632 -0.035495177 0.016320577 0.05550302 -0.0015467819 -0.2089268 0.12300636 -0.13723165 0.35938308 -0.073607095 -0.12871835 0.10655287 -0.25810486 0.09380552 -0.2545042 -0.05652235 0.077142045 -0.031147998 0.03835723 0.0866859 0.29762992 -0.017018199 0.022667157 -0.02256798 0.0648926 -0.3081079 -0.13571298 0.16372919 0.00016878359 0.034779925 0.24023509 0.036038853 -0.01907018 0.17501132 0.04766539 -0.0848074 0.013777334 0.23696736 -0.004822465 -0.36353588 0.15594488 -0.18801193 0.10180905 0.0099289315 0.08906734 -0.26084176 0.07155603 0.14760603 0.22692114 0.562518 0.086075604 -0.019312445 -0.15999536 -0.22536312 -0.023367405 -0.19876496 0.039335232 -0.047699153 0.06322675 0.05150752 -0.27018163 -0.023173159 -0.13798796 -0.13075303 0.32383603 0.09244355 0.07299907 -0.5054953 0.030290019 -0.24498568 0.13779949 0.19786619 0.01874672 0.24223337 0.16582705 0.035838157 -0.14179583 -0.40005508 0.20338966 -0.25841543 -0.018634228 -0.27880654 0.39743972 0.011930405 -0.15831482 0.42788586 -0.31616363 0.053700328 0.027753402 0.2637324 0.19295757 0.11033313 -0.109517775 0.24272148
S13 0.26091644 -0.16456038 0.10630651 0.008640877 -0.09208743 0.032008704 -0.22218041 -0.051014055 0.13187551 0.23221004 0.6228482 -0.4244224 -0.0013031885 0.018769383 -0.16644658 -0.23785913 0.1250851 -0.20189632 -0.031510808 0.25135857 0.01222519 0.09494916 -0.19428347 0.03312946 -0.15706767 0.07404382 -0.08561675 0.30078435 0.36204204 0.12506825 -0.3023413 0.08349161 -0.3419073 0.12892678 0.163716 0.020821024 -0.20856623 -0.06611201 -0.11862772 -0.19252504 -0.0203859 0.1522731 0.49139377 -0.013270722 -0.02065087 -0.23888889 -0.12871791 -0.019611022 0.18015693 0.09191539 -0.09876334 -0.3525475 0.20019047 -0.056631297 0.15030695 0.01154395 -0.31198695 -0.029711664 0.11902949 -0.26185542 -0.38509256 -0.16486862 -0.27155 0.034573227 0.052362185 0.16943944 -0.14623284 -0.2290665 0.016746333 0.31255215 -0.35633034 0.20826167 -0.18694091 -0.15008038 0.09428431 -0.05993293 0.029244944 -0.0047826595 -0.043634355 0.045106344 -0.3642934 -0.32497925 0.043037307 -0.31255996 0.06913612 -0.03935391 0.14218904 -0.14239155 0.32041892 0.10102082 -0.17476049 -0.34051213 0.14835066 0.21706674 0.29944554 -0.13510643 -0.059939515 -0.081426136 0.028268686 -0.10627584 0.020918217 -0.18151248 -0.01201881 -0.07074781 0.026277866 -0.13375226 0.004439455 -0.056025222 0.09103757 0.008370459 -0.035666093 -0.1344607 -0.16305372 -0.09812856 -0.12654844 -0.05675189 0.02081381 -0.23270474 -0.38632053 0.0067613507 0.26766798 0.004491221 -0.25432596 0.39817297 0.0058532376 0.10944704 0.056367163 0.15903214
S9 -0.23170985 -0.3516053 0.1772979 0.33972755 -0.106983 -0.12490479 -0.10556342 0.16738021 0.090190575 -0.16456585 0.12292072 0.027088622 -0.013846906 0.19279666 -0.08804134 0.22704911 0.016892772 -0.086666405 -0.013684198 0.14904481 -0.19523953 -0.09015704 -0.25585207 0.00847558 -0.025718775 -0.06613448 -0.04899593 -0.14293954 -0.2892654 -0.1078983 0.104474485 0.28192303 -0.25400898 0.219425 0.012446043 -0.058281094 -0.11647332 -0.25786576 -0.16985981 -0.077839956 0.065272555 0.54980725 0.026688512 -0.12502809 0.15327585 -0.06575516 0.06952493 0.1603909 -0.23035291 -0.040864605 0.09603742 -0.1301669 0.05990878 -0.07049172 0.06659575 0.113429785 -0.29842052 -0.107029796 0.03434553 -0.11076537 -0.040189438 -0.0656457 0.22111614 -0.01624356 -0.06123527 -0.003782162 -0.026574016 0.059048474 -0.19878763 0.076996185 -0.017750293 0.028479142 -0.16561252 -0.16329145 0.30847737 0.07466651 -0.1371013 0.056945533 0.083571576 -0.07100751 -0.015252173 0.05754689 0.29903847 -0.13868707 0.24396561 0.09393001 -0.09854417 -0.042887732 0.1996191 -0.12198171 -0.30528197 -0.06804079 -0.24274617 0.096478075 -0.2476268 -0.07434007 0.3154785 0.06299781 -0.22343546 0.25946477 -0.08166958 0.081061594 0.04334976 -0.123994544 0.37524074 -0.088432536 0.18875171 -0.015457773 -0.23339045 -0.22655687 0.024769714 -0.08475896 0.331378 0.24245246 0.124938056 -0.051845945 0.5409965 -0.5872436 0.3609193 0.62422067 -0.084065095 -0.21859747 0.17878556 0.3104385 0.06937235 0.29398146 -0.15301083 0.06457162
S8 0.14080875 -0.16095182 -0.13855226 -0.24270263 -0.12944913 0.04585886 -0.07896911 -0.07656512 0.07010201 -0.033072397 0.21259816 -0.1496563 -0.042298704 0.08507321 -0.08779449 0.4363072 0.09935803 0.18069294 -0.15690859 0.16268057 0.11843084 0.05086816 -0.18045765 -0.23076472 -0.034714773 0.1783351 0.15421972 -0.074224666 0.23112354 -0.041742723 -0.03923014 0.10095696 0.01220756 -0.27319682 0.12947828 -0.102272265 -0.46818846 -0.0491755 -0.42679107 -0.35861367 -0.19232798 0.24350755 0.016417423 -0.022431135 0.065591276 0.25082824 -0.10539949 -0.1390041 -0.041311365 -0.13209237 0.19449069 -0.024727464 -0.23433068 0.13344084 -0.08990408 0.15066685 0.24914694 -0.0076397867 0.19615938 0.0894122 -0.33326098 -0.196135 -0.028207943 0.2513434 0.17949216 0.056199625 0.16118911 -0.05441088 0.24550572 0.20776458 0.33890584 -0.1840233 0.00927647 0.16010258 -0.2680322 -0.20812067 0.3595207 0.017451374 -0.02955728 0.322466 -0.3635514 -0.21829353 0.21368608 0.10007492 0.34625795 0.41806933 0.10746022 0.12141822 0.26506585 -0.049196344 0.18138175 0.012379557 -0.049669605 -0.2294075 0.035399497 -0.06687289 0.3268302 -0.039294176 0.2890159 0.12251679 0.13951299 0.05021838 -0.3856423 -0.04382101 0.2348998 -0.10430479 0.009956027 -0.09911281 0.001522061 0.1190015 0.17814143 0.17248973 -0.06685468 -0.20263405 0.16750582 -0.0013121899 0.49553955 0.14599419 0.045924865 0.20790361 0.08648086 0.12026 -0.20269915 -0.2499906 -0.023101129 0.22242908 0.3405456 -0.17522462
D12 0.017794093 -0.24527305 -0.05053783 0.008538363 -0.28073433 -0.12656714 -0.042957913 0.07421658 -0.11628481 -0.028208002 0.057530653 -0.2646298 0.16832067 -0.21663155 -0.0037505252 0.262154 -0.19301373 0.0078718355 -0.094413966 0.18638466 0.0027025137 0.08780463 -0.0021948155 -0.1324256 0.022107918 -0.12058941 -0.039528325 -0.3886665 0.16783679 0.05304319 0.11851173 -0.036501665 -0.03577844 -0.08761283 0.066252954 0.01909321 -0.07275883 -0.00480151 0.19279547 -0.15383552 0.105422296 0.47067356 0.17270172 0.055897687 -0.067452416 -0.120737515 -0.009228575 0.19756126 -0.097002484 -0.07381776 0.06631638 -0.3854557 0.024346119 0.0040782043 0.04350498 0.23951323 0.2881121 -0.2139438 0.23256926 -0.17668475 -0.13673237 -0.17349668 0.041534904 0.27576843 -0.014897989 0.07227836 0.037763502 -0.30354086 -0.18764508 0.43077886 0.2057403 0.33406007 -0.2816603 0.3362155 -0.16681203 -0.15308236 -0.22311038 0.03179893 0.17464438 -0.16287613 -0.1313242 0.0499506 -0.061019488 0.010553753 0.3759402 0.107446924 -0.0143160485 -0.20561542 -0.07223733 -0.2163421 0.10391871 -0.061850578 -0.010725747 0.09603598 0.06537586 0.3031584 0.20989935 -0.099093795 0.13515148 0.1767306 0.044252064 -0.27790627 -0.21467066 -0.20659935 -0.027578207 0.5821365 0.1702285 -0.2713977 0.06902292 -0.15153672 -0.3127355 -0.29482746 -0.07464862 0.15687217 -0.3914056 0.26251692 -0.23463593 0.1821468 0.21221213 0.09057879 0.32936943 -0.40453267 0.0701822 0.22657189 -0.24697635 -0.18885048 -0.07185364 -0.19247882
S14 0.2606675 -0.08676294 0.114417486 0.012432533 -0.08822475 0.10145851 0.13229676 -0.20727412 -0.12647879 -0.21045011 0.289784 -0.2765243 0.254604 0.2423767 -0.18016839 0.31601572 -0.04791995 -0.33959803 0.032953996 0.20085143 -0.22555959 -0.076016836 0.1520818 -0.033074345 0.15205722 0.03307685 -0.121506706 0.046702407 0.04489281 0.024798876 -0.076547 0.10941149 -0.002004859 0.30391717 0.0067379754 -0.25610906 -0.28605223 -0.17588478 -0.09889199 -0.15392658 -0.036708254 0.09911769 0.22654468 0.28592226 0.1873122 -0.1198318 0.23303641 0.20543367 0.034866847 -0.37032637 0.33981505 0.21943714 -0.14926597 0.16143888 -0.099221036 -0.18247043 0.20305449 0.07719976 -0.07292877 0.03857794 0.16459595 -0.07795955 -0.10774851 -0.37383348 -0.111147515 -0.15073334 0.08216063 0.04796311 0.11833946 0.1971849 -0.11608059 0.13341792 -0.25306794 -0.16431351 -0.36528066 0.22062042 0.058401912 -0.19148296 0.12524895 -0.1505747 -0.13953662 -0.00017395451 0.12668121 0.43231407 -0.1864938 -0.15685514 -0.15330644 -0.49742958 0.07580557 -0.1908126 0.028391998 -0.37677002 0.07234545 -0.040322788 -0.22810845 0.32108927 0.1843979 -0.22888787 0.02826493 0.09283899 -0.08416349 0.093000315 0.11605311 -0.09120594 0.02316054 0.19521558 0.24037562 -0.15273324 0.005731538 -0.0021257675 -0.25462985 0.23710287 0.44428155 -0.30658236 0.26564333 0.37153098 -0.05656944 -0.04082337 0.0036807798 0.16983432 0.24997962 0.1672169 -0.05198188 0.12012648 -0.10594121 -0.113651775 0.22221544 0.1416905
D11 0.2689565 0.14769346 0.013067551 0.16784573 -0.091770716 0.08086483 -0.033401884 -0.30582216 0.108479016 0.08100656 0.19661638 0.040841073 -0.082967564 -0.21598276 -0.07833149 0.24865802 0.10390909 -0.033265248 0.09051601 0.17790684 0.2838709 -0.016090339 -0.07505973 -0.08376446 -0.059783984 0.21763822 -0.080352716 0.25367546 0.21640015 -0.0622088 0.05696882 -0.19254881 -0.059063707 -0.34278154 -0.104582064 0.015073182 0.03694727 -0.24571694 0.07717183 -0.044987038 0.1944924 0.019866994 0.15282255 0.22408587 0.026766175 0.014885694 -0.13434167 0.15773901 0.016578449 -0.068714224 -0.3047278 -0.21927726 0.08084873 0.386022 -0.07202348 0.078184225 -0.12976229 0.28074664 0.06468588 -0.12769178 -0.059545677 -0.12482672 0.19884916 -0.12745807 0.008155255 0.15260738 -0.04434235 -0.47240743 0.21390434 0.21946505 0.1409538 0.24255997 0.18012953 0.17007105 -0.16540387 -0.040576376 0.23564573 0.07605308 0.28697422 0.16835621 0.22976306 0.22146301 0.26911744 0.06976909 0.2909849 0.050493885 -0.07904911 -0.13931277 0.47896236 0.18274136 -0.35937056 0.06117363 -0.22044317 0.023777332 0.060020454 -0.037537385 0.1950893 0.06840924 0.12389537 -0.03797969 -0.35947698 0.20026378 0.4038709 -0.032130305 -0.0012734998 0.03301828 -0.022699574 -0.14347139 -0.121903405 0.20183688 -0.17069206 -0.19282053 0.5107878 0.11150691 0.0683938 0.06635302 0.045639206 0.24887368 0.18962266 0.38993773 0.24271542 0.25400928 0.35441613 0.28154194 -0.09184969 0.23300323 0.21738775 0.31554615
S7 0.23043123 -0.41321784 0.08056697 0.08924575 -0.26308197 -0.02869083 -0.03351293 -0.04958426 -0.24800295 0.064808324 0.03610157 -0.057017192 0.0841263 0.19718656 -0.28144914 -0.1916539 0.014779845 -0.15026617 -0.2616946 -0.25835523 0.035460085 0.19151327 -0.19202444 -0.20897163 0.13906392 -0.044669308 0.092768416 0.20064697 0.32551405 0.04233723 -0.0141198905 -0.0016630453 -0.032909792 -0.18458834 0.23719902 -0.045898233 0.12036344 0.14744039 -0.02001816 0.25527567 -0.10076411 0.05723925 -0.14349549 -0.17048924 -0.18540911 -0.02090199 0.13858028 0.052176002 0.041940313 0.041905627 0.18882628 0.10579203 0.09141807 0.10963314 -0.0061324267 -0.041997347 0.36615166 -0.005670417 -0.123923495 0.2622506 0.060354654 -0.049399197 -0.11484057 0.29465756 -0.09174764 -0.10957512 0.089226775 -0.071009696 0.08392467 0.3229892 0.18789059 0.0189137 -0.2516066 0.059075993 0.14349405 -0.16562092 -0.19445382 -0.3396716 -0.023681657 0.029723007 -0.30045825 -0.112472855 0.33736938 -0.04581618 0.026982622 0.0081056 -0.11811249 0.119668595 -0.00270801 0.21861972 -0.07568195 0.23570457 -0.0030292151 0.060976576 0.033031292 -0.057309993 -0.1727701 -0.21494202 0.13184164 0.4870682 -0.021270288 0.2028752 0.035929587 0.17309657 0.103491105 -0.2638523 -0.10277286 -0.42266276 0.057824764 -0.3024928 -0.1045251 -0.3744287 0.361928 -0.092350625 -0.31262925 0.39727038 0.26972762 0.07463569 -0.023942864 0.19605868 -0.072751775 0.05807558 0.27384463 0.19148959 -0.28202924 -0.025923727 0.05468266 0.75440174
D10 0.29178536 -0.27424532 -0.22349298 -0.022853224 -0.11171772 0.1458388 -0.12439844 -0.098881446 0.28114235 -0.12798196 -0.06499524 -0.19590448 0.30141112 0.073839754 -0.27703136 0.26539186 0.15216725 -0.23427536 -0.15444595 -0.25131226 -0.07810148 0.06510059 -0.044781383 -0.0041621886 0.4388921 0.054500967 -0.061741985 0.23274772 0.25513583 -0.020695627 -0.09690965 -0.01045303 -0.13143247 0.14103663 0.0041718106 0.013970533 -0.21046253 -0.19990267 0.025890267 -0.16534145 0.07172993 0.10911808 -0.2852713 0.32237494 -0.07075579 -0.087715074 0.17955881 -0.024867814 -0.11510799 0.21881002 -0.22766668 0.086403236 0.09532341 0.023341412 0.04354819 0.049193773 0.27503356 -0.08276328 -0.01813612 -0.36860067 0.17261048 -0.023758354 0.17803542 0.18897086 -0.48599863 0.24699806 -0.26930866 0.023023905 -0.1317172 0.12223087 0.1999539 0.37026387 -0.19024578 0.12647729 0.007996305 -0.07255415 0.31120604 0.21900174 0.1898766 -0.06375836 0.010465524 -0.13414809 0.32843775 -0.27209708 -0.18243136 0.32479662 -0.33503193 -0.1288836 -0.039414186 -0.1339346 -0.00014652865 0.2581227 0.24055138 0.16013423 -0.06542158 -0.050353426 0.08855253 0.084173635 0.0061497893 0.041164447 0.03704015 -0.27730983 -0.22544076 -0.1891418 0.088081434 0.16392617 -0.2988405 -0.10313738 -0.39818648 -0.0024121613 -0.03990142 0.34058502 0.15694192 -0.043783978 -0.036445584 -0.01437798 0.14213042 -0.26602516 -0.23503387 -0.037817318 -0.20034118 0.041055415 -0.17977673 0.29277122 0.21309799 0.08709235 0.40177888 0.24834797
S6 0.18543744 -0.25310826 0.25869521 0.14139403 -0.26335096 0.24156693 -0.11818842 -0.34061635 -0.009032681 0.03566121 -0.021232316 -0.23226364 0.28071013 -0.3042833 -0.04958918 -0.022563485 0.05036474 -0.069230765 -0.34446585 0.20305206 -0.32345214 -0.048035372 0.028859677 -0.061768036 0.28670308 -0.19790687 0.03623101 0.11876836 0.18273379 0.14107138 -0.12195716 0.17658256 -0.08621333 -0.047769602 0.05092269 0.059554033 -0.051406585 -0.050237138 0.04001496 -0.06823115 0.0047572064 0.023494985 0.02315516 -0.028488657 0.15521598 0.09485111 -0.03160488 0.23181266 0.15978107 0.10071176 -0.07976138 0.07945791 -0.33593068 -0.17361853 -0.033052173 -0.32771057 0.09440429 0.12723398 0.132002 0.20356262 -0.172272 -0.20778769 -0.011939354 -0.022239422 -0.32205975 0.3621054 -0.011035566 -0.01935041 -0.41315883 0.024518283 0.2745287 -0.15019812 -0.018968133 0.11458752 0.068933725 -0.12893315 0.5576342 0.43372524 0.24080408 -0.075354874 0.18082324 -0.09612829 0.1829152 -0.014093759 0.31320518 -0.4996996 0.04607468 0.008260578 -0.055633675 -0.16154185 -0.2431459 0.09065531 0.027393544 -0.10019776 -0.07232267 0.046462797 0.14211246 0.059928525 0.19288199 0.20199229 -0.36388025 0.05123694 -0.21719803 0.03397886 0.06770091 0.11964121 0.42967877 -0.16099995 0.116762035 0.17809282 -0.12299867 -0.23542541 -0.1794431 0.16063477 0.1498551 0.2134532 0.074825615 -0.049729917 -0.46951056 0.32151917 -0.001721055 0.099276096 -0.005621303 0.0126479445 -0.049064297 0.08519216 -0.41927707 0.008441854
D13 -0.12215147 -0.3783283 0.07618418 -0.148872 -0.3040179 0.18323289 -0.13088024 0.22062889 -0.33989823 -0.068743825 -0.0073217535 -0.1637382 0.22690067 -0.15542006 -0.44164822 0.1157329 0.05375388 -0.20720065 0.07928026 -0.031944454 -0.09567015 0.07236813 0.24929889 -0.2995838 -0.028916096 0.0943833 -0.4084822 0.04622682 -0.03855649 -0.0076276483 -0.14297906 0.20482466 -0.20527081 0.25516826 -0.21104647 -0.0702483 -0.19370799 -0.24218734 -0.13588022 -0.23035288 0.12479584 0.19209105 0.06602329 0.1547095 0.2512574 -0.18708183 -0.11812827 -0.14814283 -0.11665895 0.21676414 -0.32673278 0.051443342 0.06317636 -0.056904186 0.31699052 -0.14017896 -0.09753506 -0.31555352 0.17096612 0.2590899 -0.1664333 -0.12082906 0.36256447 -0.062144108 -0.061971404 0.05313535 0.26126745 0.049531896 0.09774636 0.22391953 0.12066653 0.13375437 0.0238783 0.056809183 0.06716231 -0.011924686 0.33368906 -0.21936314 -0.24612823 0.028205821 0.09098208 -0.14017168 -0.02003923 0.17081681 0.0867323 0.14386126 0.100641884 -0.049571414 0.004911011 0.2982239 0.1843648 0.009479689 0.33345598 0.15847203 -0.0351504 0.14846833 -0.037664954 0.09495251 0.31087035 -0.03784369 -0.1549922 0.34277526 -0.061454877 0.096093394 -0.47341585 0.013281159 0.24691866 -0.16269714 0.27624044 -0.2176656 0.12576768 -0.029502861 0.19167332 -0.14939997 -0.0669168 0.0030223622 0.364474 0.02698677 -0.06066252 0.06786019 0.30841953 -0.1862995 0.335399 -0.04583642 0.16032927 0.43316686 -0.076797694 0.2471816
D14 0.07177983 -0.21149875 0.015898531 0.031888157 -0.08542489 0.2844549 0.06402881 -0.43605292 -0.29950988 -0.21574067 0.3501835 -0.084767245 -0.025232373 0.316588 -0.49854603 0.0487857 -0.1294903 -0.10725224 -0.091974676 0.21689326 -0.036932103 0.104936086 -0.10986655 -0.30213866 -0.37455 -0.016025014 -0.042318825 0.17331892 0.033168186 0.1537009 -0.056385253 -0.09793361 -0.23068824 0.06654154 -0.10451026 0.101104565 0.012486391 -0.291238 -0.15140851 0.083693765 0.029996501 -0.026681378 -0.0022248558 0.42173335 -0.15148896 0.10018692 -0.3698579 0.15677853 -0.058296405 0.12212854 0.04592675 -0.17454033 0.00034200898 0.33136946 0.03912068 0.04323587 0.22864957 0.004834025 -0.14894351 0.09327336 -0.056427896 -0.051823143 -0.16475491 0.17343327 0.26324993 0.037001055 -0.055051465 -0.4255246 -0.06996802 0.07900754 0.119491495 0.21176344 0.027838089 0.020740347 0.051772323 -0.010300617 0.018858615 -0.040449873 0.07452041 0.00069074176 -0.0032671692 -0.043492936 -0.027352948 -0.047000326 -0.23847991 -0.34253913 0.14552277 0.24297228 -0.30842957 -0.34940237 0.14837475 0.11292623 0.24604791 0.14440885 -0.26829004 0.23595697 0.32662523 -0.105941266 0.16511191 0.010764728 0.02344335 -0.23849462 0.21765386 0.15171728 0.23941302 -0.09737362 -0.15368809 -0.2254799 -0.10312126 -0.023249889 0.05973394 -0.009888866 0.15205705 0.2885516 -0.031671293 0.020567134 0.6565246 -0.090741135 -0.01530095 0.12532514 0.011949229 0.13339 -0.24705432 0.10050546 -0.06851753 0.11864195 -0.37533805 -0.2939122
S5 -0.20990384 -0.22088735 -0.0003296721 -0.08068449 0.007389702 -0.25709203 0.045216694 -0.22709404 0.052793764 -0.25962198 0.12379682 -0.14492351 0.005698178 -0.09391731 -0.020885956 -0.015834577 -0.21840304 -0.3963589 0.20620899 0.25152475 0.13415441 0.06649551 0.11434029 0.123838075 -0.09372436 -0.08453208 -0.24983157 0.005493117 -0.014604787 -0.0075438824 -0.27807412 0.107575275 -0.0009527301 -0.08577516 -0.035308436 -0.043717414 -0.03918493 -0.20908971 0.04313864 -0.07625358 -0.08852884 0.33213687 0.13885088 0.4338784 0.025587523 -0.22810188 -0.07388574 0.14744695 -0.044559915 -0.30110762 -0.28826353 0.34419647 -0.106783435 0.01665751 0.09124406 -0.06626934 0.17412716 -0.20908484 0.22280133 -0.0026006773 -0.17290476 0.16753991 0.0557712 0.091657564 -0.33405852 -0.26671624 0.2559392 -0.2534442 0.02152642 0.15407185 0.20499198 0.04470169 -0.048570603 -0.3058026 0.17659134 -0.05181188 0.1439392 0.08877342 0.28486425 -0.08351834 -0.06931285 -0.21738659 -0.1655035 0.06611096 0.14024496 -0.3752355 -0.0682687 0.17360984 -0.025886193 -0.19525805 0.00094271527 0.14895508 0.074553125 -0.13042608 0.11541241 -0.39045218 -0.18730983 0.19650787 0.24382502 -0.15424508 0.32831833 -0.18742435 -0.065137506 -0.5144393 0.27989087 -0.07187244 -0.29029462 -0.36294845 -0.35488173 0.02522373 0.18692943 -0.28110445 0.20844781 -0.0679163 -0.1755974 -0.07086088 0.09214903 0.2714294 -0.07259472 0.36037028 0.1355419 0.0005260738 0.2196589 -0.08822689 -0.21870075 0.27224052 0.23531532 0.12031166
D9 0.21474464 -0.16473815 -0.14211753 0.054681882 -0.016618816 0.016631257 -0.02974002 -0.10076471 -0.25371137 0.17880704 0.16940415 -0.057659063 0.12339492 -0.01733552 -0.05807196 -0.20989464 -0.29855862 0.014862279 -0.120809905 -0.09066703 -0.29981074 0.35261822 -0.21089709 -0.00048939645 0.0052202893 0.06737087 -0.04760774 0.16137712 0.12376422 0.26145974 0.018580258 0.18346678 -0.1517758 -0.10098973 -0.16542691 -0.046941847 -0.08602483 -0.28563103 -0.20022023 -0.2468787 0.07172929 -0.11319739 0.02835356 0.21584137 -0.10684224 -0.3571814 0.04122238 -0.051274918 -0.23461059 0.16446638 0.017380817 -0.22879036 0.29531565 0.25415745 0.110617764 -0.030921068 -0.02541135 -0.03442652 -0.16407725 -0.013518698 -0.32746214 -0.1998749 -0.1396683 -0.01066307 -0.27013668 -0.112723894 -0.0036305734 0.107698366 0.049116053 -0.051195364 0.03382391 0.072979145 -0.18774213 -0.285644 0.15440106 -0.1798388 0.23153478 0.1154299 0.011073305 0.04401763 0.07582359 0.23440433 0.28397062 0.4132413 0.25524357 0.0470024 -0.1690556 -0.01942418 0.22643107 -0.17543267 -0.038465004 -0.09024375 0.18373893 -0.2255433 -0.06574487 0.043642256 -0.18105012 0.23069325 0.039750542 0.095104955 -0.13904478 0.095626965 0.14534904 0.13804676 0.14521113 -0.24179398 -0.025000706 -0.22698097 -0.50476277 0.060882807 -0.1399589 -0.16720091 -0.4008246 -0.54480356 -0.07722271 0.48439786 0.008710818 -0.21414104 0.27034706 0.41029125 0.031478 -0.19104497 0.14559868 -0.17801914 -0.122246355 -0.16744493 0.19048403 -0.37916958
S4 0.2966374 -0.48724577 0.2599802 -0.2136651 0.1106871 0.08830859 0.11880592 -0.082283966 -0.09541384 -0.33584034 0.005786335 -0.48701602 0.18079837 0.27260727 0.075403355 0.19681028 -0.037155494 -0.015481407 0.20132834 -0.07041844 0.042949915 0.2003383 -0.26895574 -0.11000444 -0.030209886 -0.18284996 -0.12199411 0.045892883 0.035537545 -0.11765811 -0.031617783 -0.36476603 0.28821293 0.10368756 -0.012033648 -0.21093355 -0.0022631034 -0.025452001 -0.13424528 -0.24772307 -0.009344579 -0.05089532 0.054824896 0.029944224 -0.043561827 -0.04160262 0.05371884 -0.02152283 -0.3587613 0.19422318 0.07334464 -0.19133241 0.35195786 0.059955947 -0.011543661 0.23380114 -0.11747548 -0.0725784 0.03503774 -0.068138905 -0.017531572 0.023824112 0.5061663 -0.057828568 0.23191287 0.06623064 -0.10451533 0.15135649 0.051905543 -0.23438907 0.21509627 0.1407246 -0.12253277 0.012565661 -0.023876088 0.034681056 0.29129988 0.15044384 -0.1976366 0.23800072 -0.20294143 -0.12561983 0.048954744 -0.11202738 -0.04250383 -0.058159538 -0.30151963 0.23650664 -0.0041516745 -0.12777391 -0.20043185 -0.05684353 -0.012951627 -0.09979807 -0.09800797 -0.081997074 -0.06596399 -0.07657631 -0.06730076 -0.04392113 -0.54412675 -0.17790776 -0.06361971 0.020304313 0.06187629 0.2405164 -0.050993793 -0.14828622 -0.00041409285 0.01792699 -0.30491632 0.0054993643 -0.02281855 0.050403558 -0.15040189 0.06424578 0.13017637 0.038841825 -0.3426293 0.24899013 0.47096732 0.117124185 0.28245997 -0.0588622 -0.70617986 0.35283285 -0.052561093 -0.04416996
S3 0.072429635 -0.052597556 -0.0933144 0.16936538 -0.078374706 -0.08227786 0.03813233 -0.23254186 -0.05475645 0.07818408 0.35086256 -0.2982676 0.43605298 0.091144465 -0.18784162 0.37310812 0.23216173 0.18973683 -0.07612758 0.11904712 -0.18959585 0.22364369 -0.47111562 -0.10803082 0.018171038 -0.11047401 -0.19449359 0.10731734 0.1452002 0.03420433 -0.109713 -0.035450425 -0.0891289 0.028692117 -0.2819781 0.06923636 0.043094788 -0.028419368 0.3134859 -0.17609464 8.8806664e-05 0.08542225 0.27201903 0.05943998 -0.1272096 0.10845308 -0.15804341 0.19093452 -0.14342806 0.022391675 -0.17198639 0.19560951 0.11588066 -0.31769466 0.008343162 0.13259149 -0.16553153 -0.11678048 -0.06870935 0.116535716 -0.018942213 0.1672722 0.2635658 -0.1937754 -0.4235032 -0.15473822 0.049309686 -0.030820128 0.17721379 0.22307381 0.20826301 -0.18663621 -0.24160871 0.095170945 -0.16504574 0.16176434 0.23993562 -0.03089879 0.090840586 0.050966647 0.053262834 0.054795872 0.15268178 0.24858102 -0.026555521 -0.117984176 -0.18735747 -0.19522318 0.3449446 -0.22490864 -0.25274438 0.02249723 0.12434102 0.055258196 -0.10682745 0.04423379 0.15378696 0.31932372 -0.0079027135 0.2799931 0.15909418 0.053366322 0.09309917 -0.02473569 -0.05395864 -0.09662817 -0.4210064 -0.11744679 0.4103671 -0.33812332 -0.1690486 -0.23089136 -0.335337 0.11769793 -0.40796658 -0.112123765 0.536251 0.086467005 0.2690871 -0.26348752 0.030986048 0.20091932 0.08346263 0.1069512 0.0052042855 -0.16109847 0.06865055 -0.15367737
D8 0.1723617 -0.46193942 -0.16615209 -0.069437675 0.22776322 -0.011841754 -0.096963316 0.19408143 0.09622122 -0.1632376 0.34407055 -0.016459603 0.16464783 0.077980995 0.14109775 -0.021190824 0.058523517 0.18023996 -0.05066798 0.0666953 -0.028389165 -0.074193016 -0.23171498 0.051683675 0.14533333 -0.11907134 -0.25914598 0.023673465 -0.3606803 -0.10951712 0.096337594 0.09429095 -0.2087868 0.23416342 0.04925936 0.053987216 0.016301908 0.16123453 0.39220473 -0.18049455 -0.25874448 -0.220563 0.2721062 0.053794302 0.06358824 -0.1867887 -0.14098187 0.17727779 -0.12689975 0.099108435 0.14265834 0.1912119 -0.25845575 0.0024596667 0.18264328 0.010521744 0.33346033 -0.037866727 -0.009046981 0.0740316 -0.14180236 -0.15269314 0.29082075 -0.15188695 -0.0019885777 0.13493 -0.011079723 -0.15527791 0.08036347 0.032623254 -0.002229925 -0.02580253 -0.15812178 0.12163428 0.15204896 -0.17420489 0.18906775 -0.13913324 -0.040858116 0.045471083 -0.15676156 0.13433298 0.21102412 0.19216004 0.23131637 -0.06915461 0.053052753 0.099524036 -0.016879126 0.32093495 -0.15905166 -0.26949313 0.47507215 0.14727974 0.3250056 -0.06500356 0.19173653 -0.0487078 -0.086729676 -0.24299668 -0.005255675 -0.20824607 -0.0863162 0.17943305 0.46215335 0.22757143 -0.14018604 -0.08313537 -0.15120968 0.15318593 -0.066644534 -0.01948576 0.3159957 -0.38428935 -0.0571344 0.09143304 0.5173917 0.3542057 -0.056332573 0.3940062 0.1923149 0.12419601 0.0816375 0.28058615 0.1198009 -0.33693814 -0.24246632 0.18156901
D7 0.09601769 -0.01366882 -0.1397208 -0.051042866 0.024045343 -0.10090126 0.05546364 0.35194337 -0.20824754 0.14091317 0.3864558 0.062635325 0.12174885 -0.15848 -0.021275783 0.20015892 0.063897625 -0.14083387 -0.03491989 -0.12680623 0.0067107016 0.06406251 -0.0067337244 0.11580841 -0.030336646 -0.26952612 -0.24854605 -0.057864532 -0.21367039 0.22494867 0.20645328 0.019230543 -0.16606732 0.046857495 -0.194537 -0.0625368 -0.16203947 0.008981012 -0.29713246 -0.18929243 0.23630282 0.008780353 0.1290885 -0.023855323 -0.20506157 0.07762245 0.0011737985 -0.08091098 0.09276002 0.076499596 0.11436962 0.19161403 0.17633727 -0.063619874 -0.021192435 0.26243222 0.15136488 -0.07646035 -0.30292958 -0.07907788 -0.14341938 -0.22785048 -0.14971912 0.17804478 -0.19379121 0.06548693 -0.14739718 0.070393965 -0.27301744 0.46585664 -0.1638296 0.042250052 -0.16139597 -0.02469218 -0.41258115 0.23266487 0.24461296 0.12807897 0.4413795 0.28683972 -0.11304221 -0.014849555 -0.037684668 0.41508347 -0.036204766 -0.11289903 -0.10227058 -0.25521702 -0.03600619 -0.084771305 -0.023532253 -0.06809139 -0.017045751 -0.0404715 0.16815895 -0.28586563 -0.13776329 -0.13736545 0.043133896 0.45994782 -0.16194521 -0.1688912 -0.086434335 0.10881626 0.13032739 -0.36514792 0.1301015 -0.08979052 -0.12006215 -0.23186728 -0.08944001 -0.032354895 0.35352632 0.3759924 -0.052758824 -0.43185872 0.25440374 0.18045339 -0.5120944 0.30365616 0.22674516 0.039271202 0.10534839 -0.11327042 -0.2633561 0.07447781 -0.011998378 -0.055239186
S2 -0.0035178354 -0.21342264 0.18793713 -0.23073056 -0.11650623 -0.083999984 -0.02880542 -0.08057143 -0.025191355 0.026546344 0.2964389 -0.11649209 0.16731717 -0.13252835 -0.33883762 -0.08763349 -0.07292258 -0.005385822 -0.17842117 -0.025623089 -0.17126836 0.05705215 0.13623823 -0.14635305 0.0765473 -0.22606431 -0.21082737 0.2251008 0.12879622 0.028090157 -0.115626305 0.28822008 0.0942222 -0.2385314 0.05236024 -0.22209246 -0.25145257 0.22867535 0.12674023 -0.05899496 -0.21221982 -0.1577817 -0.005520121 0.078469925 0.020956567 -0.074242875 0.10846039 -0.0938984 0.04645231 -0.16400087 -0.068475835 -0.29257694 0.009223461 0.05952827 0.19483347 0.24835289 -0.07391713 -0.22472198 0.055636194 -0.2155702 -0.04069954 0.105750486 -0.074905924 0.059974708 -0.021836214 0.21853916 0.08924779 -0.1512408 0.11654005 0.25647804 0.045777835 0.35628328 -0.29419428 0.2564235 -0.11711011 -0.0071360385 0.3061424 0.045330703 -0.15644489 0.2668919 -0.1177924 0.37758014 0.101979844 0.11985605 -0.24009499 -0.15052585 -0.05042115 -0.06792516 -0.051908832 -0.23468158 -0.24017112 0.17540357 0.14859582 -0.13007596 0.3467013 0.19236422 -0.045899335 -0.40262026 -0.19643912 -0.13878582 -0.24851696 0.09815711 -0.27272 -0.45893723 -0.33851257 -0.11381077 -0.23959243 0.1456913 -0.17163368 0.085430466 -0.013734314 0.06901544 0.17834812 0.31206137 -0.054125905 -0.012334181 0.41564348 -0.030017244 0.41420943 0.64798003 -0.06864092 0.013464413 0.24599966 -0.22273819 0.19196773 -0.18908456 -0.14302057 -0.011363082
D6 0.2549146 -0.34630653 0.36782646 0.074310996 -0.25368518 0.086357005 -0.29721627 -0.15349649 0.11853767 -0.18054517 -0.0016710093 -0.1883447 -0.051799476 -0.2011931 0.10180322 -0.19956273 -0.10854183 0.027835393 -0.048102837 0.084119394 0.37345332 -0.103622265 0.047373638 -0.4480736 0.41665533 0.16759288 -0.078293 0.018600324 -0.05515426 0.06237397 0.22493264 0.18230353 -0.03668826 -0.038775064 0.048073072 -0.0037853094 0.03871084 -0.272918 -0.154108 -0.20980413 0.29889876 0.15924996 0.39325717 0.2612288 -0.20035449 0.1492181 -0.13014457 -0.04976443 0.090681024 -0.12623593 0.13050467 -0.26558128 -0.24993627 0.1660378 -0.031798325 0.23184958 -0.05589507 0.16716786 0.11328155 0.027775513 0.018252755 -0.24575461 0.033211254 -0.12787984 -0.07530623 0.19774568 0.15750651 0.12517284 -0.06037966 0.023786446 -0.12594233 -0.25879693 -0.13682349 -0.055854317 -0.31637704 0.083099216 0.41451555 -0.4007337 -0.029122986 -0.024346104 -0.035343915 0.13841859 -0.12760787 0.071958914 -0.1289289 -0.23243837 -0.3018785 0.10079472 0.17477235 -0.051380906 0.16351706 -0.13290001 0.19206442 -0.038916446 -0.19675899 -0.021273293 -0.09210281 -0.06481964 -0.44633892 0.10337451 -0.0047080973 0.05325539 -0.27745837 -0.43637568 -0.049604684 -0.036610555 -0.12961063 -0.30710125 -0.09912955 -0.1688603 0.1700663 -0.15264264 -0.16927189 -0.1624612 -0.40414566 -0.2062753 0.31625715 -0.1759781 0.052323878 0.18705276 -0.118215814 0.040198047 -0.08911118 0.2653051 -0.2593547 0.024591984 0.01704091 0.22809766
D5 0.18310331 -0.11452388 -0.11734615 -0.15449178 -0.07909313 0.28224254 -0.08068835 -0.1267793 -0.4373538 -0.10024787 0.18669304 0.0089073265 0.12892736 0.16107628 -0.26219854 -0.1480817 -0.03617941 0.03258731 -0.12989931 -0.0487754 0.11309247 -0.23492172 -0.09732131 -0.005616639 -0.12556899 -0.3472737 -0.18957028 0.10862853 -0.13772056 0.31506425 -0.19449086 0.10885139 -0.038931273 -0.029873755 0.0312746 -0.15553696 -0.067473575 -0.11283102 -0.10206083 -0.045450084 0.42195022 0.2322457 0.20529379 0.047972325 -0.16203704 0.047307126 0.023997758 0.013591696 -0.09121196 -0.04611249 0.06949272 0.15991211 -0.17513922 -0.07770596 -0.21740359 0.2667041 0.06925746 0.23123164 -0.003021952 -0.12641162 -0.02867769 0.19036742 0.051185906 -0.14809188 -0.22699447 -0.06650522 0.37679082 -0.08511455 -0.017909069 0.3530847 0.2840524 -0.305491 -0.07657094 0.045688458 0.120735824 -0.051603783 0.15422323 0.12534623 -0.2948594 -0.14292227 -0.11429272 -0.057586674 -0.12221241 -0.10839757 0.16310683 0.23080966 0.110525705 -0.26844493 0.30439654 -0.11857071 -0.30502942 0.08438435 -0.10384664 -0.24888529 0.2349315 0.045411564 -0.217089 -0.05156371 -0.10434755 0.01885041 -0.28765774 -0.5292574 -0.20180278 -0.18650994 0.12246574 -0.15794885 -0.43030933 -0.36180606 0.40035048 0.18375123 -0.2154819 0.2110954 0.23671187 -0.23309034 0.1891481 0.3018193 0.032179438 -0.28014213 0.11078316 0.1271952 0.07135373 -0.06206121 0.19215125 0.16852397 0.13110621 0.3002792 -0.29150277 0.033997316
D4 0.13229482 -0.166277 0.051380377 -0.0576406 -0.16136503 -0.16454725 -0.009847574 -0.21547392 0.0029860504 -0.03753355 0.21734042 -0.10954649 -0.061345667 0.08812058 -0.04957183 0.054088525 -0.12803303 -0.030146077 0.03494103 -0.0135654835 -0.41110227 0.4047039 -0.14518285 -0.2087631 -0.09091975 -0.07290542 -0.4913252 -0.12612937 -0.023425251 0.011473413 -0.40265253 0.0028890714 -0.044355888 0.117602885 -0.047131468 0.23894203 -0.21606018 0.0576537 -0.068249814 -0.2402623 -0.1595732 -0.3062549 0.12004126 0.13939494 -0.012868192 0.36028802 -0.19134054 0.095733956 -0.123207636 0.00526789 0.3165228 0.052671716 -0.072294526 -0.012579171 -0.20139897 0.025385264 -0.020919092 0.07309407 0.3116991 0.003919633 -0.03256964 -0.16264026 0.11701286 -0.2805062 -0.15617865 0.31622344 0.042368434 -0.08138153 0.12122556 0.21068303 0.18526426 0.31536728 -0.0686726 -0.029141601 -0.01298407 0.08545591 0.015126231 0.17121519 0.040011946 0.10310776 0.13066763 0.18233202 0.12125532 -0.14667349 0.078065924 0.04352005 0.14735606 -0.049555488 -0.27925226 -0.09146586 0.28755727 -0.10596047 -0.58243084 -0.01820521 -0.0016957006 -0.27308547 -0.2552461 0.1680371 0.06540286 0.20312345 -0.28913817 -0.24354878 0.111021824 -0.35033566 0.21310098 -0.045948017 0.12503347 0.02464646 0.13315377 0.08612384 -0.0019188396 -0.05982534 -0.09676198 -0.05412447 -0.2671114 0.13555473 0.41863108 -0.23606452 0.12841187 0.22758307 0.31701168 -0.13032442 -0.06987522 -0.073122606 0.028075023 -0.21132147 0.22863364 0.68650776
D3 -0.07268424 -0.17486541 0.04912984 -0.15993766 0.15535834 0.20296557 -0.039006077 0.14501517 -0.14843431 0.0057747397 -0.08704816 -0.11405508 0.11403347 0.005257402 0.02524366 0.37103248 0.3419035 -0.2972716 -0.05370827 0.12653986 -0.35475075 -0.010457749 -0.066838175 -0.023826858 0.022504753 -0.27351642 0.22071506 0.011163819 0.13389558 0.22531365 0.15326503 0.12385163 0.004726464 -0.26323017 0.019300861 0.09869212 -0.30369255 0.0014631681 -0.07543339 0.18541498 0.19596303 0.07900178 0.08459976 -0.027852478 -0.103750385 -0.007117764 -0.1351237 0.22156678 -0.11784037 0.35461324 0.27933064 -0.20538612 -0.08072197 -0.21695906 -0.17637385 -0.12795481 -0.41378847 -0.09210707 0.04849849 -0.028538937 -0.06503745 -0.019380653 0.09946256 -0.1647856 0.055353276 0.15067129 0.29586047 0.1712654 -0.08038406 -0.037951577 0.023426795 0.1205986 -0.12843071 -0.058784965 0.053058345 -0.09515236 0.015704898 0.0975411 0.11882588 0.3561266 -0.042617537 -0.25649852 0.010329757 -0.036428172 -0.23674014 -0.32538792 0.014624955 -0.40144557 -0.084741786 -0.10098305 -0.05518777 -0.03624978 0.2812481 0.026094781 0.20874088 -0.005291555 -0.11145157 -0.06896841 0.009033118 0.1308259 -0.08786835 0.14028442 -0.14053188 -0.26777622 0.09601217 -0.05682243 -0.21145156 -0.36541218 -0.12833114 0.05406865 -0.10882804 -0.25102147 0.06746776 -0.13892677 0.031316273 0.3214559 0.37301305 0.5353649 0.3680868 0.29713413 0.14968176 0.037225842 -0.42949438 0.3820143 -0.031839665 0.37900466 0.3732187 0.114299096
D2 0.14211565 -0.0670116 0.19590993 0.005749946 -0.03693138 -0.018010462 0.0856984 -0.05124286 -0.12097359 -0.15964389 0.2991875 -0.36525714 0.082023725 -0.009218627 0.13119915 0.21075644 0.2702763 -0.14739141 -0.053428814 0.45151937 -0.20490254 0.013330263 -0.05775918 -0.16237593 0.5981973 -0.044540677 -0.21876581 0.47203937 0.09469218 0.08705052 -0.028574327 0.27380985 0.0063635386 -0.1041658 -0.018823395 -0.094277516 0.022171088 -0.17156911 -0.030727627 -0.39912975 -0.08081992 -0.038795736 0.20224716 -0.13285136 -0.018160548 -0.084483825 0.32874775 -0.04685847 -0.13235308 -0.046850882 0.029899716 0.28280488 0.08206735 0.29246205 0.10024324 -0.058535337 -0.1398261 0.068692125 0.202795 -0.13533364 0.07432221 -0.05069893 -0.030936463 0.07061153 0.14796789 0.041832816 0.04721935 -0.06094094 0.25025135 0.26188982 0.27457502 0.094582975 -0.07630034 -0.0702632 0.4990655 -0.22381362 -0.25466844 -0.035585444 -0.058853798 0.24777763 -0.104005255 0.14736275 -0.123595 0.23922724 0.3251925 -0.012702288 0.064343676 0.035189267 -0.06773198 -0.30116323 -0.18655354 0.28261822 0.11790617 -0.031710763 -0.45108053 -0.21651512 -0.25569698 -0.25623396 -0.2063675 0.43326315 -0.04279306 -0.2878533 -0.14639352 0.004824254 -0.021857582 -0.121468835 0.13038051 -0.32705197 -0.06384039 0.09856749 0.18925269 0.030245792 -0.07332322 0.18938428 0.11761687 -0.12786762 0.12445329 0.27132097 0.00867836 -0.04939177 0.29212597 0.10149616 0.16254327 0.35110614 0.18841533 -0.020236457 0.04766999 -0.01898595
S12 0.21123245 -0.3386138 0.010674109 0.10306058 -0.21930985 0.09311751 -0.276493 -0.11137775 -0.13545422 -0.054632027 0.29509485 -0.2044328 0.20520988 0.11042582 -0.02218086 -0.11392549 0.09600369 0.016736722 -0.04176007 -0.0055394922 -0.113644384 0.0060950452 0.018656129 -0.17180964 0.02988364 0.19807136 -0.11172122 0.011696422 0.04230469 -0.12494188 -0.1341136 -0.17058301 -0.05743175 0.021531751 -0.17902793 0.08584668 -0.16967668 -0.11351626 -0.12591836 -0.2580288 -0.07303777 0.05283121 0.3665502 -0.099645 0.025072964 -0.10282545 0.04779981 0.18771313 -0.2140243 0.052819517 0.04284107 -0.062175397 0.14066878 0.21014088 -0.077151485 0.38998273 0.12441803 -0.063998125 0.054767024 -0.16855863 -0.013682441 0.17697303 0.16453579 -0.001142897 -0.3121363 -0.2414128 0.090521716 -0.122529194 -0.10179883 -0.02553992 0.07634777 -0.076536186 0.15021533 0.059211783 0.033211935 -0.06100833 -0.013791544 -0.072755426 0.38120452 0.066986926 0.25460595 0.1579365 -0.30028722 0.3502379 0.09963493 0.07481892 0.35215628 0.00358189 -0.05953207 0.18213968 0.19132617 0.024448056 -0.03404928 0.1882426 -0.107987516 -0.40680292 0.022276798 0.1425861 -0.06412989 -0.10257171 -0.6398465 0.030398136 -0.51949394 0.2031876 -0.24638492 -0.111645296 -0.18531848 -0.39620063 -0.24824364 0.13072668 -0.3538679 -0.15121399 0.42995843 0.23724318 -0.11947355 0.22145738 0.16994435 0.10183151 0.0023580093 0.23116693 -0.22834955 -0.28714657 -0.51104367 0.11321489 0.16246037 -0.00022669953 0.14629574 -0.063202
H4 0.034072846 -0.34514678 -0.05279654 -0.03594989 0.33499202 -0.113678284 -0.09676056 0.3701084 -0.04651334 -0.119821675 0.03620795 -0.114296064 0.17949854 0.1215269 -0.11906262 -0.14836648 -0.089546576 0.16120335 -0.1813184 -0.35140353 -0.17760515 0.05244581 -0.3182474 0.12894066 0.37628904 -0.11512886 -0.025662258 -0.09760489 -0.018893357 -0.09775084 -0.0753427 0.007378812 0.018552804 0.22869329 0.022030117 -0.015364454 0.17294237 0.028162513 0.0929343 -0.10701042 -0.19611341 -0.00489781 -0.023212602 -0.052330703 -0.27373573 0.048635177 0.016768424 -0.31666672 -0.34370908 0.25582537 -0.03230248 0.23330179 -0.17907974 -0.00032492352 -0.4760261 0.18566465 0.012978292 0.36672533 -0.14510337 -0.032776512 0.061060317 0.10213334 -0.127044 0.13126428 0.13156281 -0.463846 -0.064487174 -0.752885 0.26977974 0.18873586 -0.2095671 0.2913847 0.25824082 -0.1903572 -0.08782934 -0.053122573 0.72270155 -0.14121336 0.12345955 0.22768526 0.040678483 0.018260371 -0.2624253 -0.19787505 0.0907323 -0.04509382 -0.094439246 -0.09414439 -0.089557864 -0.17720614 0.057952594 -0.0960019 0.046064448 -0.21332668 0.004570821 0.12179759 0.09291803 -0.19630904 0.08851509 0.11411806 0.22869831 0.26444548 0.21406235 -0.11750802 -0.022563403 0.24726157 0.4334479 -0.37652647 0.12126197 0.24706183 -0.1968663 -0.45393485 -0.18101247 0.04568272 -0.00059595105 -0.31985992 -0.2577197 -0.18922523 0.24496691 0.25890312 0.029653253 -0.09533315 -0.21866687 0.086914696 0.37656203 0.50097406 0.056458384 0.14724834
H5 0.02474223 -0.014132007 -0.040978335 0.07951684 0.18813618 0.103082284 0.06869077 0.14342672 0.12739454 -0.14438531 0.11120884 0.034564752 0.10907661 0.13894074 0.3443617 0.16762517 0.06753127 -0.14206365 -0.23874786 -0.27922675 0.049799096 0.054825295 0.1666014 -0.32571906 -0.07328856 0.3487477 -0.11579187 -0.18455271 0.29572117 -0.29525518 0.19727255 0.50649774 -0.04835421 0.30081376 -0.1929386 -0.15869194 -0.09784331 0.042158283 -0.056400165 -0.175788 0.041747984 0.3102378 0.21060203 -0.27885222 -0.111771315 0.002354019 0.0019083677 -0.08223608 -0.42720667 0.06334192 -0.32084128 0.12276444 -0.39178824 0.25796068 -0.27863935 0.014428956 -0.12935938 0.12575135 -0.036940046 0.13134883 -0.096785 0.36290976 -0.34671172 0.17487498 0.06845267 -0.2597146 -0.07860859 -0.32752645 -0.2931657 0.09235834 -0.18657924 0.11889197 0.2794125 0.22259203 -0.23814245 0.3757385 0.016412636 0.2583159 -0.26365662 0.07337436 -0.25711158 -0.17533667 0.19539268 0.24164535 -0.064770244 0.10422141 -0.27851942 0.09732401 -0.15224265 -0.18999204 -0.11567665 0.023346925 0.057863165 -0.18284076 -0.07191831 0.25386652 -0.7918163 0.51913786 0.22867282 -0.17508686 -0.0795649 -0.02227444 -0.017179195 0.23283021 0.22207563 0.14155011 -0.09695219 0.2081904 0.09067493 0.31243345 0.011332233 -0.026519718 -0.23874508 0.31556478 -0.3085573 0.2578781 0.07504164 0.10930956 0.06457703 0.40727723 0.08456643 0.12174831 -0.051270615 0.41670454 0.053238235 -0.002821202 -0.12585263 0.3495106
H3 -0.217813 -0.07943031 -0.15418342 -0.044817775 0.1267347 -0.329207 0.2595136 0.278417 0.355333 -0.13253635 0.22771312 0.17058335 0.24000122 0.40537852 -0.081024855 0.15903494 -0.1970021 -0.240412 -0.09228418 -0.14234921 0.04215154 0.18665282 0.15386152 -0.5771391 0.29416236 0.0722624 0.117668815 -0.28898707 0.087456346 0.21135736 0.14502679 -0.19300818 0.13642839 0.06768289 0.08661739 0.18839122 0.19739375 0.121243425 0.3286377 -0.10714622 -0.10556452 -0.013792938 0.044512447 0.04295675 0.06407309 -0.0396798 0.006390282 0.26412752 -0.23245911 0.3749441 -0.006484948 0.055978827 -0.041856892 -0.03086422 0.03227088 0.05752529 0.20604478 -0.03280709 0.060760804 -0.2558662 -0.10473614 0.24751855 -0.07784977 0.13725072 -0.23644944 0.11953775 -0.076235406 -0.15398884 0.02050112 0.5607225 -0.2725565 0.025968079 0.12952422 0.24249256 -0.15497324 -0.083952926 -0.18530826 0.021829903 -0.029222844 -0.073299766 0.23030752 -0.12473028 -0.13502523 -0.0054074093 0.5570596 -0.1523015 -0.05486031 -0.16564748 0.10961887 0.18733083 0.034117892 -0.09520626 0.041975953 -0.18592474 -0.31752944 0.06829046 -0.39360628 -0.37590516 0.036439788 -0.42104992 -0.49460268 0.0002346932 0.18417972 -0.060601946 -0.029881619 -0.31328413 0.008965307 -0.04124872 0.19205698 -0.094064415 0.23308578 -0.15123135 -0.4178229 -0.19211465 0.39539966 -0.0224038 0.1555667 -0.20720296 0.028552173 0.22071181 -0.17207877 0.45394346 -0.1857464 0.05814436 -0.2025249 0.4777367 -0.020183114 -0.044760667
H6 0.13189253 -0.122033834 -0.25909558 -0.0038271907 0.07981658 -0.28932112 0.25143722 0.23665862 -0.18640164 0.23944493 -0.11424346 0.044437017 0.3562651 -0.19874543 -0.27695563 -0.58851933 0.19157726 0.051389918 0.24982461 -0.117671564 -0.10652818 -0.10900435 -0.0864139 -0.3030536 0.4167789 0.19158942 -0.07621197 0.09252814 -0.15757632 -0.0923587 -0.024495512 -0.1423443 -0.047260668 -0.045404147 -0.02781226 -0.0137440525 0.08769335 -0.005120779 0.059198603 -0.2769957 -0.2804348 0.19969456 -0.19328539 -0.32385376 0.18662107 -0.124952525 -0.19313844 -0.023345996 0.15895088 -0.12876701 0.10780584 0.24348442 -0.1824264 0.37660077 -0.13909955 0.24948879 0.19945349 0.37058043 0.06724631 -0.20373635 -0.020458952 0.2426898 -0.40577665 -0.119665235 -0.045971844 0.36989936 0.00054858037 0.08688403 0.06318458 0.15609992 0.061020426 0.18718544 0.20753336 -0.102334715 0.08134286 0.48539275 0.16764693 -0.004561665 0.10497918 0.3797441 -0.24621697 -0.3236358 0.21693778 0.09126399 0.35615423 -0.15460938 -0.054467425 -0.09058914 -0.040420145 -0.15587164 0.05476343 -0.19381556 0.26836175 0.37906986 -0.15916479 0.05370066 -0.19171578 0.05810959 0.055891067 0.019198917 -0.18193398 0.19579682 0.40749183 -0.16335472 0.29686424 0.45684406 -0.45573702 0.2550438 0.15093008 -0.17598654 0.061690826 0.0050867917 -0.2672708 0.25052458 0.06051359 0.24367823 0.020527406 0.051284373 0.13923721 0.12002115 0.014873476 -0.46778756 -0.19865368 0.07065626 -0.21270125 0.6228488 -0.09782855 -0.02263145
H7 -0.24740332 -0.06883826 -0.3906275 0.19368225 0.19404839 -0.14297749 -0.13944674 0.050516684 0.25138223 0.11068389 -0.02918855 0.55003345 0.101326905 0.03504845 0.02385593 0.13997209 0.02197064 0.17562586 0.13331504 0.01909317 -0.13206016 0.03285234 0.030753149 0.13798323 0.2508239 0.19391502 -0.017045036 -0.24884114 0.18630715 -0.0139096035 -0.028881332 0.32486945 -0.0047687623 -0.06943019 -0.5600773 0.048148945 0.060045514 0.016883828 0.22715446 -0.25110853 -0.16541952 0.12585703 0.317547 0.18402503 -0.08858105 -0.12727337 -0.3322121 0.011782481 -0.20389964 0.1817236 0.13245867 0.00012579597 -0.07274934 0.14372535 -0.039061684 0.10894488 0.051076703 0.064765364 0.051690567 -0.3096742 0.040805873 0.079004325 -0.2189784 0.21217078 -0.24935836 0.01009221 0.15836883 0.21348988 0.09348159 -0.08466739 -0.009940805 0.051991504 -0.08350714 0.12970302 -0.086930685 -0.06317611 0.18291683 -0.70255965 -0.33766994 0.0375708 -0.24522522 -0.0014474222 0.34436303 -0.14055707 0.013006452 0.054387577 0.11693028 0.23254104 -0.40632868 -0.46534643 -0.19262877 -0.37154603 0.042779945 -0.4214329 -0.1175874 0.22393899 0.004052206 -0.31579128 0.083242096 -0.024111522 -0.28551173 0.15716495 0.32632214 -0.13130271 0.06740093 -0.23344 -0.056782246 -0.41004723 0.3116781 0.40486348 -0.16926084 -0.07310871 -0.10869954 0.4359016 0.09963698 0.21058483 0.020866811 0.003644964 -0.6676794 0.09729041 -0.045016676 -0.36040527 0.094939314 0.27482763 0.007538189 0.42250428 0.23229912 0.18828972
H2 -0.38865468 0.2489438 -0.0044868886 -0.08634466 0.37640703 -0.01461547 -0.015341814 -0.020973263 0.5064384 -0.150533 -0.31413558 -0.18800786 0.2110027 0.05346828 -0.13487844 -0.22261234 0.084399834 0.23429525 -0.052435514 0.1789584 0.05837529 -0.30588418 0.072163686 -0.24125038 -0.0011111847 -0.04029151 -0.050021946 -0.2690552 0.1251062 -0.08552938 -0.110530525 0.04479166 0.10310673 -0.05761611 -0.080699384 -0.28245664 0.27601364 0.3168091 -0.34851974 -0.47705868 -0.15776451 -0.00594638 0.39955541 0.056288894 -0.44452238 0.3829634 0.08458884 -0.22490442 -0.057418298 0.31915423 -0.57916886 0.3769557 0.2793139 0.10594155 0.071495205 0.041715905 0.14805922 -0.25899675 -0.17067948 0.08648963 -0.12590735 0.3212607 -0.053596918 -0.13379043 0.11972183 0.21606737 0.2697607 -0.07781107 -0.09768804 0.3851047 0.032043837 -0.011408582 0.0031049605 0.19020514 -0.02500152 0.1316132 -0.005974176 -0.10870055 0.00036925916 0.17318434 -0.34500253 -0.021405784 -0.071201526 -0.11534969 0.11175976 -0.084661625 0.135808 -0.30482128 -0.15085742 -0.31814757 0.16264878 -0.061757907 0.27515364 -0.079917744 -0.0057399576 -0.026358033 0.11286438 0.100129455 -0.048253648 0.33836728 -0.42451197 0.07588517 0.4692212 0.084048636 0.2590169 0.17671081 0.10318508 0.002207303 -0.23095341 0.007297238 -0.06957435 -0.20206349 0.038647607 -0.2790443 -0.021258296 0.26131234 -0.061930537 -0.21216388 -0.021676758 0.30335805 -0.22043447 -0.045805175 -0.054108933 0.18801321 0.09461097 0.1273224 0.10783947 0.12096794
H8 -0.2759387 0.09481135 -0.19854212 0.019583318 0.043332063 0.38149792 0.019014135 0.27198082 0.16962892 0.035623677 -0.22330964 0.093749 0.08497615 0.0010202592 -0.042952545 -0.026913537 -0.09030943 -0.06268223 0.046025325 -0.095807835 -0.08189357 0.18338583 0.3040255 0.06836862 0.17721869 -0.05930293 0.08855936 -0.015349588 0.10358826 -0.1843555 0.077041335 -0.05298194 0.019607984 0.014557295 -0.3208266 0.19617936 -0.21085897 0.06742243 -0.08966504 -0.123622954 -0.05058688 -0.47729352 0.3622252 0.27847704 0.03936032 -0.09603572 -0.30610195 0.111513965 0.19190432 0.1855372 0.01148599 0.37839517 -0.26647198 0.059535574 0.03959954 0.31880257 0.16031669 0.035422545 0.04124034 -0.49718168 0.08953006 0.34313488 -0.103415 0.18158363 0.26034755 0.10738452 0.24403718 -0.4429387 0.05137827 -0.037660725 0.20655468 0.25312978 -0.31251112 0.018339694 0.2424694 0.20457196 0.21924585 0.09526308 0.22730628 -0.1006789 -0.4965996 -0.20905457 0.093362056 0.03992714 0.20111172 0.40378687 0.011163748 -0.00050124206 0.19337289 0.12459461 -0.06936772 -0.49796084 0.22442007 -0.19715509 -0.20546399 -0.05839988 -0.56589586 0.16744591 -0.23027857 0.13351211 -0.03285491 0.4546667 -0.100434504 -0.026192145 0.2577813 0.21401381 0.32313266 -0.47176352 0.092687644 -0.22181937 -0.08849032 -0.07595819 -0.12339185 0.43241084 -0.09239357 0.2402258 0.05258351 -0.420131 0.26161462 0.07326272 -0.086030506 0.492651 -0.09754598 -0.034374714 -0.12786263 0.19632263 -0.24953815 0.037236277
H9 -0.2380107 -0.23160641 -0.31824714 -0.17201589 0.26851344 0.10829234 0.009251786 0.31953448 -0.007278876 0.024365684 -0.2691827 0.21725929 0.23011841 0.30050257 -0.20166051 -0.36496964 -0.2596515 0.19225706 0.16184607 0.24401599 0.26932552 -0.22670995 0.106796704 0.050879765 0.3075243 0.16235983 0.2203152 -0.2894388 0.05356818 -0.076589875 -0.08935152 0.20202896 0.19736323 0.12599272 -0.22644599 -0.21398893 0.115782894 -0.028119631 -0.10843609 -0.131038 -0.3273779 0.110599376 0.10240722 0.06382402 0.092432104 0.07136734 -0.22400169 0.033626888 -0.14016853 0.44190586 0.09867782 0.21747869 0.1352234 0.0865583 -0.067149565 -0.20909002 0.05700458 -0.013121245 -0.17068817 -0.12456127 -0.1475357 0.044203483 -0.44994044 -0.0424358 -0.18501723 -0.27857584 -0.060748767 -0.26131433 0.2979368 0.26088578 -0.029627306 0.1295524 0.16068691 0.060976528 -0.038664635 0.1472946 0.20234546 -0.04762941 0.0030316433 0.13135628 0.33801445 -0.5220051 0.87258416 0.12523033 0.045245953 -0.11472877 0.30302447 -0.16558097 0.073235504 -0.10819579 -0.16850331 0.1262719 -0.35246173 -0.083353825 -0.058432613 -0.1743181 -0.27994037 -0.15363842 -0.0728618 0.20401917 -0.32815507 0.12840815 -0.18489791 -0.27181762 -0.2789164 0.35009345 -0.019695772 -0.13960768 -0.066417456 0.14414266 0.1840014 0.11689738 0.007335388 0.011954788 -0.47336805 -0.08612228 0.14903389 -0.19719334 0.03127618 0.042687684 0.4231016 0.26968524 -0.17810616 0.5357326 -0.11646547 -0.16674654 -0.19011062 -0.22938779
H10 0.11883546 -0.26742703 -0.20392147 0.0890315 0.23466846 0.28307435 -0.40476722 0.01612488 -0.044128224 0.0737937 0.10180565 0.031862717 0.124595694 0.1168303 0.037788387 0.07017076 0.512057 0.00978276 -0.21057256 0.24847175 -0.17017096 -0.16329125 -0.25158796 0.0393944 -0.15291087 0.07915768 -0.22210686 -0.13938351 -0.06359743 0.216302 0.03641028 0.24618009 -0.02261721 -0.08231352 0.117542036 0.23780186 0.0705395 0.19262743 0.054095764 -0.12203112 0.036616005 0.26480818 0.22907777 -0.12278107 -0.19911852 0.05481208 -0.041531045 0.14047097 -0.18227991 0.11002947 0.05539539 0.3200029 -0.046225023 -0.20254062 0.46294793 0.18878005 0.27718228 0.00973766 -0.28179428 -0.048441846 0.008914992 0.1376686 -0.392992 0.094297186 -0.1968975 0.031638622 0.12156015 -0.36528927 0.18867572 0.008865748 -0.23820063 -0.06350417 0.020167992 -0.023826433 -0.1858836 -0.063373156 0.1205859 0.13226368 -0.017775962 0.05086907 0.050728284 -0.17261177 0.41021937 0.17272681 -0.17450787 0.33735606 0.34789065 0.28020146 -0.090512514 0.014578798 0.38259614 0.22480635 0.051538695 -0.15251759 -0.4738127 0.19479315 -0.22949517 -0.20446481 -0.31327072 -0.3158692 -0.45988634 0.33244446 0.37687814 -0.3662913 0.30741692 0.34420338 0.0038695177 0.0057838876 -0.22122273 -0.27291596 0.05188272 0.04377001 -0.35504785 0.26941004 -0.090624265 -0.029194793 -0.5187697 0.008912145 0.093928665 0.26137277 0.26988518 0.18875423 0.045968294 -0.16647473 -0.09560408 0.48158374 0.0015516491 0.32772654
H11 -0.17914027 0.029879346 -0.12737343 0.16175552 0.2921815 0.24442123 -0.100643426 0.26699358 -0.04379842 -0.08203075 -0.0019367288 -0.040342186 -0.009360394 0.15134887 0.08049992 -0.104030386 -0.0021269524 0.013336111 0.18487546 -0.35192636 0.12500884 -0.30211672 0.2943092 -0.15748021 0.3902943 0.019335918 -0.09888763 -0.11482737 0.11522594 -0.25966215 -0.3203771 -0.0071712104 0.07070653 0.16004488 -0.27440345 0.05167294 -0.049936473 -0.061221022 -0.08341459 0.07310023 -0.22334798 -0.37915018 -0.005162661 0.17566352 0.39229006 0.0036623243 -0.29177678 -0.1353263 -0.35577536 -0.05249993 -0.022619413 -0.13787693 -0.21787111 0.03236532 -0.28318754 0.082428426 -0.18613127 0.0039629755 -0.20364939 0.01621804 -0.23788826 0.15707251 -0.20264395 0.12061566 -0.35104132 0.02853148 0.019297423 -0.123417 -0.274648 0.35877198 -0.15159525 0.022119062 0.142558 0.3848374 0.35856947 -0.08246382 0.15532623 -0.061286405 0.09710901 -0.24749076 -0.49427146 -0.29049706 -0.14357689 0.3620094 -0.030180618 0.29139298 0.20054245 -0.11263519 0.05916286 0.059852008 -0.30445746 0.15346734 -0.18506917 -0.04295638 -0.43510234 0.20334427 0.42657062 -0.27825922 0.016269846 0.13082881 -0.23776343 -0.00436218 0.41964033 -0.2679882 0.25619385 -0.104934596 -0.20216732 -0.14039688 -0.18012084 -0.35872066 -0.27688107 0.014808992 -0.5915366 -0.049231324 -0.32550037 -0.032232948 -0.11188961 0.26773188 -0.09673565 0.45487627 0.26058766 0.061762534 -0.16176522 -0.076721296 0.12330156 0.18811274 -0.04505489 0.26724333
H12 -0.11904913 -0.2587599 -0.15569876 0.17606685 0.10252789 -0.23220725 -0.13815212 0.15270145 0.0139398305 -0.07007104 -0.07543039 -0.40917718 -0.29609466 0.022699025 0.19031855 -0.37055945 -0.023062633 0.17811173 -0.12488898 -0.12535213 0.13549894 -0.28579754 -0.08689802 -0.024279896 0.20398833 -0.09893655 0.019715045 -0.24923539 -0.14259295 -0.18913396 -0.042078547 0.184379 -0.21789177 -0.06581476 -0.26664487 0.037764896 -0.26345342 0.181468 0.17553903 0.051834732 0.44768175 -0.026738744 -0.16597599 0.4629382 -0.18917517 -0.18804926 -0.10557014 0.31838602 -0.068356015 0.018638426 -0.05646956 0.09955734 0.06508051 -0.028939502 0.3848097 -0.14809631 0.14481786 0.06849735 -0.2136839 -0.015194601 0.36668888 0.0068094484 -0.24384984 0.03375662 0.113794014 -0.4243649 -0.22511669 -0.072512604 0.42599538 0.14048758 0.2875724 0.28728482 0.44613814 0.2361267 0.056842886 0.47117335 -0.05156921 0.3086042 0.07136787 0.19081631 -0.49711555 0.023715056 0.18574372 0.0947562 0.2284157 0.0108503215 0.07921229 0.10284321 0.09024379 -0.33070987 0.18483312 -0.40314052 -0.019584505 -0.4410098 -0.061247766 -0.06608883 -0.015492162 -0.0063753566 0.1634444 0.030265462 -0.49198398 0.1633628 -0.0061477004 -0.05200713 -0.2313729 0.0027277032 -0.07886184 0.033411868 0.18956295 -0.28619978 -0.03554257 -0.022359207 -0.40265533 -0.009284972 0.1575347 0.086718746 0.10256725 0.11000936 -0.17792903 0.31771398 -0.028777767 0.08984915 -0.2955754 0.36979574 0.2631013 0.25606042 -0.03961373 0.22413203
H13 0.13588127 -0.08421786 -0.20853637 -0.021296868 0.061992113 -0.11524152 0.2182654 0.038942866 -0.22718668 -0.017593183 0.100403585 0.5082784 -0.050698582 -0.03437663 0.21175846 -0.17005526 0.016543766 0.047174126 -0.3006598 -0.0689088 -0.1649084 0.026756184 -0.032373153 -0.10579823 -0.04262814 0.12315926 -0.24225801 -0.09834267 -0.1372891 0.15743479 -0.18524677 0.17686938 0.32257244 -0.2957553 -0.41115233 -0.32425272 -0.13324933 0.19535494 -0.107169695 -0.058905963 -0.101996586 0.13440086 -0.20851283 -0.12195507 0.1876797 -0.11100141 0.11621211 -0.09865391 -0.14396831 -0.08461478 0.08339698 0.06576847 -0.1499423 -0.25205418 0.0724758 0.2938021 -0.25660107 -0.0042651133 0.06491545 0.09483156 0.03157721 0.30345023 -0.2634502 -0.0062429826 0.13555911 -0.009787445 0.020318344 -0.42167762 -0.39407972 0.17714807 0.1320144 0.46714988 -0.05966813 0.34772527 0.07816009 0.2848523 -0.012643211 -0.3952631 0.09099341 0.002156974 0.035610177 -0.3012052 0.099897385 0.06824674 -0.06125069 0.14150743 -0.176242 0.08639268 0.29061764 -0.2622648 0.06037223 -0.2414386 0.23525275 -0.21006341 -0.24209972 -0.18632375 0.11415526 -0.0055074315 0.14451374 -0.08038354 -0.6262453 0.13498393 0.097842164 -0.035848677 0.16639267 0.45760125 -0.1433312 -0.32107902 -0.36603072 0.1325458 0.15084232 -0.5477169 -0.1821486 -0.2563229 0.06049848 -0.31324604 0.10908499 -0.28689155 -0.24337517 -0.3594803 0.025859319 0.29970366 -0.09008848 0.17283589 0.14033729 0.13294926 -0.112407394 0.21116139
H14 -0.296588 0.3583205 -0.24446319 0.04859076 0.12849557 0.18981245 0.04418077 -0.04845659 0.2161623 0.09362418 0.005974844 0.2986448 -0.12350493 0.1336283 0.15137912 0.2035055 -0.042556364 -0.10910314 -0.03856007 -0.15906852 -0.21888171 0.28719676 -0.26734963 -0.03180693 0.45658585 -0.052937552 0.0027499297 0.18253703 0.050641384 -0.048267372 -0.063396044 -0.11033572 -0.25712985 0.5348822 -0.19370756 0.112308055 -0.17089479 -0.046033725 -0.025052901 0.00070815295 -0.22445698 0.18916959 -0.1025371 -0.111175634 0.086688906 0.09304711 -0.15042211 -0.03543871 -0.19393827 0.15847208 -0.07624783 0.11708547 -0.055137347 0.070438795 0.21078923 -0.2562739 -0.18657267 0.25011057 -0.05709064 0.08543388 0.033918988 -0.05709681 -0.12109219 0.08437208 0.20181547 -0.07454981 -0.04060051 -0.1771485 -0.04942722 0.0056847404 0.048821315 -0.024626285 0.121981315 0.16693985 -0.22164716 0.1008098 0.254911 0.00895948 -0.077778526 0.31860438 -0.38782516 0.033746023 0.03313219 0.4031919 0.2946088 -0.076008454 0.36444753 0.0016998079 -0.006891163 0.028497154 0.06691569 -0.1636243 0.27909434 -0.45820057 -0.12131953 -0.0068305004 -0.06047 -0.34520012 0.159337 -2.5247218e-05 -0.436938 -0.31591812 -0.061465845 -0.44995853 0.0052647213 0.28319833 -0.33813214 -0.020303462 -0.061680824 -0.29910344 0.20502742 -0.3656956 0.46114492 -0.0042758626 -0.5911286 0.13574387 -0.43537238 -0.3737606 0.066073634 0.094780564 -0.19644514 -0.0936921 -0.10897585 0.110057995 -0.13749354 0.30557954 -0.16339567 0.10101253
