52 128
C2 -0.37868655 -0.15736355 -0.07455855 -0.49600062 -0.12090894 0.054185055 0.18138587 0.13712703 -0.23939879 -0.20909321 -0.6490289 0.39658523 -0.111859255 0.10875828 0.14831176 0.043433473 -0.4228476 -0.25247917 -0.21286212 0.5824589 0.037536617 -0.18374036 0.0329151 0.113409914 0.11867919 -0.1532357 0.386576 0.23136137 -0.19330803 0.22990479 0.5015594 -0.11269372 0.081325226 0.18097755 0.118932754 -0.15560675 0.074952245 -0.10360767 0.29153952 -0.07136745 -0.3277928 -0.40221062 -0.28930402 -0.052025378 0.5427141 -0.3248848 0.19472753 -0.112591706 0.27716398 -0.41296214 0.3156603 0.14645384 -0.12830386 0.16090232 0.10045785 0.16070351 0.32634494 0.02204317 -0.1512621 0.16585445 0.10167047 -0.117732875 0.12309571 0.23630509 -0.59157753 0.45024005 0.13104057 -0.3382716 0.14262097 0.11130539 0.09347907 0.10436595 0.4195567 0.53208345 -0.082188025 -0.2029853 -0.08815033 0.12049151 0.4818978 -0.19908856 -0.44588262 -0.22810327 0.000846282 -0.5121747 0.11776899 0.4626283 0.06694818 0.0035353485 0.33522934 0.005717507 0.25412488 -0.05760438 0.14087814 -0.34055343 0.07967137 0.004101898 0.03241564 0.026306782 0.16959168 0.16229053 0.053067997 -0.09737541 -0.3439231 0.47533593 0.31864253 0.13879767 -0.48796496 0.14304957 0.14042844 0.033096936 0.08772694 0.09130354 0.0024597698 0.21732631 -0.049560584 -0.5289311 0.15435617 0.40347847 0.5508812 0.020642506 -0.4764667 -0.21446073 0.11984344 -0.31823245 -0.01644287 -0.060147826 0.19897419 -0.048945874
C13 0.12417638 0.23974262 0.159692 -0.1512671 0.048712377 0.19184026 0.018878523 0.12642856 -0.037054308 0.023078945 -0.44534147 0.35537672 0.045426216 0.09631639 -0.10165137 0.19922966 -0.17369601 0.20892213 -0.018429033 0.031625915 0.14062327 -0.15646067 -0.29615664 0.0041727545 0.11429994 -0.071727484 0.0967353 0.1262688 -0.057792876 -0.26492465 -0.017831143 0.031434022 0.37218183 0.029908292 -0.031977277 0.061283838 0.031504028 0.14226662 -0.29153 0.17234518 -0.18778731 -0.21739505 0.06542337 0.1569465 0.27505362 -0.3140216 0.16522884 -0.07306212 -0.15971474 0.09499089 -0.34269145 0.20340265 0.21015398 -0.022493232 -0.25588474 0.323809 -0.06883021 -0.029407287 -0.010268512 -0.13611186 -0.12682328 0.19042037 -0.025294632 -0.07724341 -0.2803969 -0.014719495 0.11143548 0.001850357 -0.20140545 0.06309132 -0.47110894 -0.16183138 0.22993812 0.05389606 0.03420731 -0.19311091 -0.043874852 0.021772852 -0.061166625 -0.15716496 -0.37782344 0.32152292 0.15771116 -0.13530357 0.28796798 -0.33104095 -0.16891669 0.2682011 0.41374078 0.036079276 0.02319307 0.058844306 0.2024975 -0.2877791 0.33038685 0.15387714 -0.17391412 0.09199803 0.032437615 0.07679978 0.22074828 0.07895542 0.24583603 0.027852979 0.04965324 0.28908524 0.024788238 0.33083716 0.024877463 0.29012632 -0.12740153 -0.0074649556 0.2800668 -0.16641958 -0.17719781 -0.30016994 -0.055970777 -0.06932533 0.28094566 0.13640067 -0.13995546 -0.056130618 0.0732921 -0.06929562 0.16207442 0.23517168 0.146842 -0.0018820394
C12 -0.0025012114 0.09637756 0.07185973 -0.44997743 -0.21608238 0.20427464 -0.21860921 -0.041060943 -0.13604659 -0.06998494 -0.32649392 0.45351958 0.05676477 0.23867328 0.31445736 0.08232362 0.04101805 -0.36283416 -0.03588284 0.25475788 0.11785328 -0.14811781 0.3328799 -0.13617855 0.17864989 0.16877457 0.046315975 0.24747546 -0.12388643 0.20624152 -0.2116003 0.0034433603 0.113952994 0.09979272 -0.04230751 -0.1528248 0.14427382 0.11104471 0.08096695 0.26773164 0.098844595 -0.23178479 -0.09638431 0.025520394 0.4888014 0.12244966 -0.076350905 -0.13209422 -0.04940586 0.04366008 -0.09604435 -0.17678513 0.16077472 0.24416968 -0.4109194 0.054211665 0.25467613 0.20915051 -0.10083969 -0.099082716 -0.041639294 0.17552267 0.11298915 -0.5140093 0.14443439 0.079766855 -0.13754667 -0.22395782 0.030768253 -0.19888158 0.072536044 -0.22838041 0.06917004 -0.23771167 0.11841838 0.06271298 0.06490734 0.09805181 -0.13960941 -0.25732034 -0.0493924 -0.1398523 -0.054650724 0.16862695 -0.116024956 0.1154798 -0.11681585 -0.30320653 0.03839329 -0.107459895 -0.015500745 0.022746379 0.37766483 -0.0032939413 -0.18252519 0.19473986 0.1731686 0.052228313 -0.062648505 0.1209557 0.073773086 0.07333435 -0.2502389 0.30996865 -0.024490671 0.17792712 -0.40516064 0.0015421205 -0.18337445 0.0060638045 0.08204642 0.13460782 -0.26155335 -0.066119924 -0.15187839 -0.0034233315 -0.25257894 -0.09345714 0.1517013 -0.21210387 0.044931218 0.05323061 0.007195799 0.17250794 -0.050445557 0.13732542 0.3200153 0.29929712
C11 -0.2591964 -0.1501095 0.0741729 -0.02379495 -0.12032179 0.004185355 -0.0048755365 -0.25894666 -0.009259246 -0.30300182 -0.4954442 0.38170868 0.25930882 0.252261 0.012714761 0.065310776 -0.24054234 0.17804717 -0.24938545 0.112321526 0.25513825 0.2648093 -0.09469085 -0.2128607 0.35003263 -0.081541866 0.21637103 -0.022710487 -0.07774521 -0.009015345 0.11295493 0.013151027 0.28799078 0.0058636456 0.16520157 -0.21550396 -0.15158334 0.08111338 -0.06348811 0.18277241 -0.08845033 -0.04007597 0.03877905 -0.057754472 0.25133735 -0.028267452 0.049667273 0.068292685 0.101198435 0.031299457 0.14491092 0.25451636 -0.021275869 0.17128384 0.20746341 0.080599345 0.01860608 0.03853282 -0.21088861 -0.2436646 -0.010353431 -0.00053092005 0.09931873 0.3037613 0.24522336 0.064901754 0.18587875 -0.16177616 -0.043167815 0.43847772 -0.03807599 -0.10077752 0.26486424 0.29403573 -0.07042743 0.18338184 0.10910731 0.027814573 -0.02316289 -0.21880183 -0.013591209 0.021535067 -0.07434583 -0.046672713 0.2293913 -0.228858 -0.17955013 -0.0935122 -0.19312117 -0.3268936 -0.035871875 0.024292555 -0.3592621 0.0949127 0.054862544 -0.21880864 -0.26859307 0.061501514 -0.2593677 0.08413911 0.03984762 0.17563917 -0.21646446 0.17889187 -0.011317573 0.07844166 -0.025649369 -0.30452767 -0.31499225 0.19140786 0.16329221 0.23866062 -0.45028773 0.29075235 -0.13649443 0.014082918 0.050083537 0.1722649 0.18077168 0.026524961 0.31018725 0.04230622 -0.21809125 -0.2706943 0.25311443 -0.2803121 0.04698656 0.097977504
C14 -0.14586431 0.15472224 0.25917235 0.11052862 0.00993356 -0.29387903 -0.045502756 0.00086894707 0.08882804 -0.17351168 -0.2935251 0.16098557 0.0716859 -0.10803386 -0.013234502 0.26890427 0.14367071 0.09539668 0.053093694 -0.069577426 0.31004384 0.06703013 -0.06031939 -0.048723105 0.14780913 -0.14814243 -0.16240841 -0.123659946 -0.14638746 0.20678414 -0.1980517 0.08034692 0.048876453 0.24168935 -0.06951402 0.17883474 0.21899116 0.17573501 0.2452219 0.046838045 -0.22987431 -0.17729604 -0.040761333 0.4687453 0.10799871 -0.021048585 0.12467898 -0.084452 0.045978792 -0.195653 0.15622412 0.19486593 0.05859385 0.11218414 -0.02091941 0.003977034 0.03894322 -0.100544564 0.097552806 -0.17831074 -0.031712305 -0.16935824 -0.038416836 0.05862937 -0.3515004 0.073639564 0.060377117 0.113805465 0.15291946 0.026693653 -0.017559124 -0.01095033 0.43171534 0.119615875 0.16314726 0.36104956 0.04723231 -0.04994338 0.04790234 -0.09993827 0.50530255 0.17109384 0.21916707 -0.089981824 -0.31617454 0.06217398 0.003763713 0.26419824 0.31078905 0.0656239 0.34098178 0.0916196 0.177024 0.16260405 -0.28147388 0.2850676 0.04911229 -0.110799104 0.0031202973 0.3871787 -0.2686811 0.2227314 -0.052837916 0.23969577 0.07034445 0.2687095 -0.15347221 0.15888335 -0.23146108 0.21329074 -0.0046500335 -0.1331074 0.124725394 0.2992355 0.026339583 -0.11481627 -0.012743565 0.22867006 0.28820089 -0.21675296 -0.0040009245 -0.110667884 -0.21652302 -0.0709717 -0.2822754 -0.19162162 0.06760275 0.25642797
C10 -0.22634512 -0.22451808 0.34742084 -0.31943193 -0.23977341 -0.0630272 -0.12382845 -0.10604192 0.24473721 -0.047296684 -0.30666572 0.115254745 0.2557699 -0.27254796 0.36332273 0.16030405 -0.17297053 -0.003803033 0.113851786 0.142012 -0.021199983 -0.21994437 0.23680042 0.2271484 0.29149458 -0.060654376 0.031992383 -0.37418556 -0.026620764 -0.07547387 0.17619641 -0.09056433 0.23777877 0.020155417 -0.060699992 -0.16671307 0.37940198 0.037651338 0.24537936 -0.14171807 -0.067453854 -0.13117374 -0.075457476 -0.23155479 0.30981818 -0.19123022 0.02294699 -0.061735626 0.35513237 -0.09363293 -0.071871325 0.028433586 -0.2007183 -0.032312788 0.14119077 0.084005214 0.04280775 0.11563171 0.1883233 0.32021475 -0.14892589 0.31207642 0.18600455 -0.006517835 -0.026649259 -0.043587588 -0.11920793 0.05328424 0.06742258 -0.14322872 -0.35351643 0.022449268 0.41627976 0.16801295 0.025897702 -0.020077873 0.16424847 0.077416524 0.218807 -0.15468346 0.18591428 0.14913292 -0.013725341 0.09416395 0.059563756 0.19744438 0.25877917 -0.067587666 0.2946035 0.1565033 -0.21216905 -0.28517732 -0.18954812 -0.2035301 0.26630053 0.22488494 -0.19314572 0.11466257 0.18041302 0.0140408855 -0.28098717 -0.0032002132 0.112203345 0.14540209 0.055276733 0.13957463 0.26346457 -0.11116933 -0.1578072 0.09486168 0.10826697 0.37330812 0.1076514 -0.242719 0.15152311 0.24335167 -0.03091181 0.11479443 0.04812671 0.020127742 -0.029892426 0.17227942 0.25043708 0.040545605 0.16817573 -0.20811698 0.09134141 0.2956887
C9 -0.1437048 0.32224512 0.21552177 -0.13046722 0.16018452 0.122117355 -0.081836045 0.1376125 -0.139315 -0.20656973 -0.4575341 0.055672213 0.32931662 0.12344996 0.22486867 -0.29565978 -0.12511832 -0.31583962 -0.0093960045 0.448374 -0.045169644 -0.00010815358 0.19387801 0.051449202 -0.0062356214 -0.006895372 -0.043877576 -0.15721393 -0.31043783 -0.11931739 0.022546092 -0.06592275 -0.021237858 0.01469223 -0.11389304 -0.019543665 -0.13960958 -0.011154671 0.06919813 -0.32022703 -0.09275837 0.03268229 0.31285602 0.21513768 0.15570611 0.06814781 0.51605517 -0.0028609133 0.022488415 -0.18373755 -0.34092665 -0.07676408 0.1241051 0.0013313666 0.12048693 -0.31915802 0.0021214557 0.244579 0.24573106 -0.097440645 -0.054558534 0.10131697 0.059634753 0.33403265 -0.06507662 0.0048483857 0.01233433 -0.29052007 -0.06862435 0.3322972 0.08784911 -0.06911959 0.06798695 0.17269275 0.035714958 -0.32823196 0.021211972 0.03898418 0.016944813 -0.056219876 0.17546825 -0.20730819 -0.089940906 0.027781084 0.18460877 0.23298962 0.18725638 0.07586534 0.3571506 0.03321103 -0.08405686 0.31585982 0.0840667 0.077460125 -0.123318166 0.06687848 0.1307316 0.12143264 -0.42040312 0.1026929 0.24981679 -0.22535399 0.18428808 0.121682405 0.09791587 0.15641673 -0.104841776 0.01171507 -0.07775274 0.25723168 0.04877431 -0.063696004 -0.05160131 -0.40024307 0.18189567 0.047004506 0.01592385 0.14125605 0.31138492 0.042239103 0.2692195 -0.13197385 -0.2184691 -0.22452895 -0.1342987 0.1032679 -0.078032136 -0.16347755
C8 -0.1906869 0.21250279 0.06741493 0.18916519 -0.059714276 -0.01567442 0.24476407 -0.13679726 -0.06182402 -0.2220582 -0.23415904 0.25732982 -0.03388486 0.093536325 -0.16951114 -0.07179695 -0.16817884 -0.29455993 0.0399253 0.010243915 0.18169941 0.1382181 -0.07910708 -0.06607546 -0.17646316 0.15641221 0.03859361 0.059201077 -0.14414158 -0.045846842 0.027094726 -0.1540559 0.08433463 -0.07677149 -0.02096917 -0.06637822 -0.1518603 -0.094559096 0.20026596 0.13592833 -0.34424227 0.0683099 -0.0028055653 -0.16161124 0.54296565 -0.030763412 0.16313474 0.09105871 -0.052278116 0.047486335 0.036356516 -0.22151545 -0.06757721 -0.08765792 -0.06502973 -0.14165668 -0.12820287 -0.11440947 0.13412908 -0.3875435 0.22650126 -0.24347275 -0.15616381 0.09141496 0.2533566 0.115580276 0.32771507 0.08044179 0.31079304 -0.071024135 -0.09031116 -0.15348695 0.51283175 0.25658435 0.15150322 -0.008155294 -0.22801308 -0.054708388 0.16796416 0.01653852 -0.2945818 -0.08193423 0.1920753 0.22304665 -0.030146655 0.37072378 -0.037293732 -0.1536158 0.4091487 -0.11881094 0.06276391 -0.25292683 -0.0066972887 -0.00591088 0.17738958 0.23840721 0.13135141 0.18362743 0.18796578 0.11316997 0.07761378 -0.2966682 0.092668205 -0.15347306 0.20320782 -0.25365275 0.18501233 0.19979861 -0.12509684 -0.13903767 0.1520492 0.12493014 0.040942445 -0.15552635 -0.25209588 0.081718676 -0.14921394 -0.14947285 0.16059491 0.011339536 -0.06423921 -0.14725633 0.0874781 -0.22618107 -0.23724832 -0.37493354 0.35127974 0.3402763
C5 -0.18136339 0.24707386 -0.07293424 -0.023804221 0.30110353 0.2473631 0.052297655 0.030044364 0.006505706 -0.15931365 -0.11788141 0.25747588 0.13073325 0.2282287 0.072644114 -0.17687242 -0.060300834 -0.17994204 0.10596879 -0.014063244 0.1550826 -0.20390354 0.13520487 0.14625712 0.038212337 0.13001268 0.0871158 0.04748399 -0.17198478 0.0074459757 0.023483636 -0.038087994 0.08164542 0.19153325 -0.2082413 -0.14183974 0.16782537 0.272563 0.16413032 0.06169164 -0.2936201 -0.0344729 0.03615927 0.24550892 0.12026951 -0.20210621 0.10267504 -0.19583116 0.32750893 0.31334624 0.076437294 0.084467426 0.16410673 0.17786403 0.32789624 -0.027185323 0.1262094 -0.079611056 0.12706922 -0.18806022 0.067980714 -0.10783092 -0.17537315 -0.044993877 -0.04912592 0.33876038 -0.24599941 0.10557748 0.20140263 0.25001037 -0.13582529 0.09945284 0.5433286 -0.26482263 0.2368515 -0.00951439 0.20538841 -0.027124755 0.012058244 -0.23636298 -0.1677579 -0.2125513 -0.08764551 -0.2453311 -0.15796478 0.12247908 -0.008013396 0.15532218 -0.45967808 -0.10884488 -0.19283962 0.027954996 -0.08176383 -0.24118887 0.49367666 -0.046676382 0.54067075 -0.028961735 0.014578461 -0.06983512 -0.11243925 0.054890845 -0.06031075 0.059511874 0.062075052 0.15332721 -0.06481824 -0.017997898 -0.008222514 0.0651394 -0.2423849 0.19759676 0.07612226 -0.011243941 0.38089335 -0.27303597 -0.1723464 0.046334486 -0.059675384 -0.05133573 0.2020794 -0.20900176 0.26821655 -0.29399037 0.2560611 -0.055560075 -0.11897869 0.0846601
C3 0.24912733 -0.29855052 -0.014706393 0.13481663 -0.22133717 0.02387465 0.1018354 -0.18102126 -0.17877072 -0.11499782 -0.17253329 0.120784 0.19278991 0.00096450903 -0.03000948 0.23805498 -0.01100048 -0.16408652 -0.10694891 0.41560623 0.05653623 0.15332212 0.15828031 -0.08882125 0.03271708 -0.06271964 0.01522467 -0.035894834 -0.33969015 0.31600392 -0.18144648 -0.053032845 0.14646742 0.16803418 0.047633167 -0.29529768 0.0680053 -0.11077571 0.17650107 0.08517626 -0.00031879093 -0.021137152 0.02285659 0.09791128 0.09016281 -0.27474466 -0.09141941 -0.25919223 -0.1252373 -0.07730748 0.10184347 0.038815238 -0.10995526 -0.0313088 -0.13284563 -0.05283656 0.1520973 0.045806844 -0.05483823 -0.07157361 0.068773404 -0.36802983 0.20431535 0.17032109 -0.5086477 -0.010965603 0.037318267 0.111778244 -0.023697285 -0.24433185 -0.0339341 0.043522403 0.2586584 0.268428 0.32172537 -0.17561212 0.010952933 0.057400096 0.21388468 -0.3578345 0.04195556 0.01899597 0.07085031 -0.102338694 -0.10348039 -0.041020572 0.03819135 0.14642687 -0.14731741 0.14356297 0.27916133 0.28266907 -0.27798322 -0.28220785 -0.050934378 -0.28959247 0.26372153 -0.0074593346 0.12802413 0.06675294 0.19838186 -0.16592447 0.09514574 -0.03559023 -0.034420058 0.34805503 0.06515366 -0.20065475 0.22859511 -0.002163436 -0.18490037 0.20646739 -0.06573532 -0.6026007 -0.33946759 0.020229984 -0.26770195 0.04183562 0.30548066 0.23045191 0.3267004 0.2689231 0.18019208 -0.19433817 0.01242361 -0.034357827 -0.035591643 0.21036011
C6 -0.12918581 0.35357726 -0.11432661 -0.03376618 0.16282317 0.05857789 0.14089976 -0.025542477 -0.08960483 0.12836179 -0.1714347 0.29032597 -0.0395458 0.07978957 -0.12501086 0.19913884 0.34878302 -0.07032667 -0.03825223 0.4016363 0.011904525 -0.02460019 -0.026918938 0.13615765 -0.046704207 0.18021074 0.052644193 -0.05782157 0.11933081 0.03198746 0.34700963 0.29013178 0.102236874 0.06391408 -0.30609834 -0.40560257 0.28765503 0.075207904 0.3138745 0.031466544 -0.089870565 -0.20172268 0.093508616 0.01992054 0.26755807 -0.33787066 0.10202774 -0.15403365 -0.23968658 0.19414024 0.20542382 0.17802987 0.24177836 0.21797301 0.10065991 -0.083765976 -0.10285014 -0.05075376 -0.08755556 -0.12672012 -0.100347325 -0.16359253 0.16424717 0.0074077165 -0.10514363 -0.054232754 0.124193646 -0.01510196 0.32959378 -0.18387471 0.18750456 0.15989807 0.19647837 0.08002172 -0.21321362 0.04806711 0.29581478 0.27542278 0.022528268 -0.28826538 0.14296447 0.017632779 -0.26592582 -0.030494718 -0.022425061 -0.4383735 0.07210501 0.07509297 0.2452633 0.028250206 -0.022427289 -0.16843438 -0.2643783 0.029892381 0.12727486 0.33424205 -0.07466001 0.19240473 0.24405052 0.33237642 0.17727487 -0.3902271 0.08654458 0.15385312 0.08467923 -0.20009713 -0.15498528 -0.16576321 -0.16297223 -0.02157746 0.07611758 0.23489009 -0.17966796 -0.060400546 -0.21579237 0.121198304 -0.09795948 0.19435444 0.209405 0.043166608 -0.093121625 -0.088609405 -0.091252714 0.038625117 0.0389524 0.1030741 -0.13030565 -0.49337393
C4 -0.2714113 0.18212144 0.10911862 0.04609965 -0.07772784 -0.19171908 -0.22745919 -0.025076902 -0.22077179 0.029716298 -0.12503001 0.12404021 0.096464284 -0.08934494 -0.027192067 -0.15356256 -0.03358409 -0.044816185 0.2648045 0.14492977 -0.23841105 0.12994617 0.26611227 -0.039409474 0.28535378 0.08003056 0.06197962 -0.062322836 -0.3658654 0.16760188 0.014097958 -0.0744995 0.13935415 0.18938293 0.16572326 -0.028102264 -0.1566172 -0.19193752 0.02993869 0.06712699 -0.12440464 -0.040486686 -0.10778123 0.04259545 -0.04631072 -0.24353692 0.08925174 -0.26470023 -0.1813083 0.1011522 0.28479338 0.053652283 -0.14102158 -0.30806297 0.10264305 0.12029167 -0.12973452 -0.16150963 -0.06599286 -0.0049754647 -0.06255532 0.09292403 0.2180183 -0.26159894 -0.2606317 0.013068904 0.22267808 -0.058227148 0.27151403 0.15187696 -0.20504719 0.24097481 0.04937681 0.15644962 0.084151424 -0.4016945 0.027262095 -0.121932 0.088011175 -0.23170257 -0.25833306 -0.025491351 0.28692698 0.16370584 0.075001724 0.20764387 0.07170769 -0.10791455 -0.110661015 0.10092619 -0.01683205 -0.051214207 0.22890024 -0.17308375 0.010410898 -0.12154561 0.029806014 -0.010160913 -0.012479832 0.4459412 -0.13833308 -0.36703536 0.044503655 0.22242996 -0.08457166 0.113677084 -0.12700172 0.19487412 -0.42667925 0.48559976 0.045960847 0.16957672 -0.2955466 0.18938822 -0.06496128 -0.015440862 -0.4393484 -0.0013106094 -0.15555692 0.12320752 -0.15949208 -0.52008146 -0.17694691 0.015398498 0.37399492 -0.0072735804 -0.07240143 0.05121526
C7 0.14678232 0.18471429 0.115355715 0.22653413 -0.15208557 0.093083575 0.13226297 0.071792625 0.061392576 -0.09140186 -0.16585292 0.13317324 0.22292787 0.30850458 -0.5034645 -0.057349768 -0.23872708 0.076279506 0.13165762 0.01729175 -0.18097444 0.028267618 0.07270484 -0.04460588 0.23135628 -0.042277135 -0.0053501516 0.0805412 -0.24893522 0.13930546 0.16562471 -0.06759155 0.5715362 -0.12648374 -0.11824396 -0.030596318 0.08509564 0.2896924 0.08533618 0.08837658 0.110637896 -0.20936441 -0.00081424427 0.035790626 0.1741197 0.07955443 0.19036216 -0.4421449 -0.29571342 0.058356527 -0.003314187 0.021419592 0.13181466 0.085321076 -0.12058124 0.050979186 0.3184594 0.017436499 -0.10472681 0.2736542 -0.003893922 0.08299122 -0.014268876 0.17793016 -0.26377717 -0.008982382 -0.17947361 -0.36349484 0.37193257 -0.17957145 0.0723459 -0.09355067 0.20712712 0.25253725 -0.04656876 -0.41554886 -0.12972228 0.121989995 -0.013145849 -0.024985045 -0.045558073 0.10890702 -0.06193849 -0.19352491 0.08738614 0.22468972 0.15532397 0.035746455 -0.12176922 0.2536718 0.06655143 -0.3541501 0.0697917 -0.13593416 0.21315715 -0.011125105 -0.03348924 0.05854678 0.05530509 -0.1858657 -0.11725989 -0.007518212 0.024873879 0.051711522 0.012679649 -0.032758866 -0.14776115 -0.15535937 -0.25216976 -0.30193537 -0.01821151 -0.038004592 -0.20285879 0.29580432 0.26370317 0.15141582 0.10070388 0.23403323 0.43140298 0.020382604 0.11783831 -0.07003861 -0.078821965 -0.10594078 -0.24708122 0.20367247 -0.24291615 0.45826024
S11 -0.23935771 -0.08664112 0.10508013 -0.13436146 -0.32586846 0.07063744 0.23650537 0.04923458 -0.17867117 -0.009940749 -0.15233928 0.047245923 -0.20945472 -0.32101968 -0.09845603 0.15342475 0.03308035 -0.10100452 -0.075173244 0.051119916 0.30254018 -0.1277604 0.12514865 0.29018408 0.20101957 -0.20724452 0.21752691 0.41791347 -0.114420705 0.23670983 0.13620727 -0.060529277 0.12430459 0.06585686 -0.30666932 -0.13880256 0.01090663 -0.07553806 0.25305432 -0.16511005 -0.3129688 0.12155146 -0.541874 0.2955018 0.18407755 -0.17193668 0.037884604 -0.3395996 -0.071162485 -0.041924592 0.15456073 -0.12787655 0.027353588 -0.08675176 0.23268513 0.16444032 0.047800343 0.19538614 -0.061150648 -0.2283893 -0.27874565 0.3120142 -0.040051516 0.12420202 -0.024233071 0.054271463 -0.02434465 -0.19456002 0.2709789 0.09828674 -0.11867557 -0.10518539 0.2084924 -0.026057532 0.15709168 0.28740275 0.06362565 -0.44073445 0.090519086 0.08517053 0.009666502 -0.045519717 0.085627206 -0.18434191 -0.09163048 0.0687192 -0.14518742 -0.11603855 0.120070435 -0.017853308 -0.10328388 0.12247445 -0.050424732 -0.18762736 0.40708447 0.0023996662 0.024426755 0.05099116 -0.21951447 0.039472796 0.02317426 -0.13932209 0.20853268 0.11892803 0.087965816 0.04631539 -0.2004053 -0.21235208 -0.2794969 0.055425577 0.17807716 -0.14577837 -0.1593218 -0.27969572 -0.22509907 0.0088750655 0.06467638 0.0025584295 0.5383756 0.25868922 0.20341156 -0.1444011 -0.093807235 -0.030964427 0.013871161 0.4238661 0.05736147 0.17971846
S10 0.37012556 0.3034156 -0.30611753 -0.057280622 -0.07999137 0.11675128 0.0821068 -0.15311304 0.15631327 -0.070696756 -0.57424736 0.17910668 0.14927617 0.037285116 -0.19501477 -0.075958036 -0.15433294 -0.5246608 0.107119 -0.05575802 0.07636737 -0.038553454 -0.25612944 -0.23070092 0.3188296 -0.021254309 0.19617641 0.14457963 0.1911515 0.16169463 0.099965416 0.034852915 -0.21383668 -0.011723525 -0.036351718 -0.031347062 0.110408686 0.12533747 0.027866742 -0.24724264 -0.196877 -0.20269156 0.17614838 0.12214113 0.3240648 -0.08464588 -0.18285894 0.029846124 -0.029513495 0.039589226 0.1166088 0.0357997 -0.022588113 0.22575057 0.11950306 0.09742159 0.033389874 0.123348735 0.03949793 0.18815131 0.010171837 -0.0015479873 -0.009056129 -0.21654667 -0.27022177 -0.11779167 -0.27881908 -0.25316474 0.2649405 0.15271072 -0.15281418 0.04827319 0.1871597 0.36448172 0.26830566 0.056950755 0.044962544 -0.018541541 0.19339001 -0.29827988 -0.08113382 -0.1015127 0.42338848 -0.14401051 -0.22264804 -0.076112635 0.056622542 -0.0958216 0.009488678 -0.024069149 0.10646772 0.13492039 -0.10919237 -0.2540743 -0.3251669 -0.04874077 0.033069342 0.32407212 0.04335948 0.27414125 0.024080804 -0.035913996 0.06344637 0.18053019 0.016676584 -0.07666701 0.28594372 0.16237909 -0.118980445 0.27087468 0.23526868 0.4605671 -0.050161056 -0.11238791 0.29575774 -0.07848233 0.19351518 0.26580107 -0.03016889 0.2970179 0.034581333 -0.04342857 -0.15344657 -0.10555099 -0.096188515 0.15614893 0.27327505 0.084041744
S13 0.04255199 -0.021544665 0.31477088 -0.37971646 -0.2850426 -0.4844791 0.06931519 -0.062423684 0.015625872 -0.20792219 -0.19009656 0.09574088 0.2357282 0.04121776 -0.07330687 0.21754119 -0.15718728 -0.17271644 0.09023098 0.22453727 -0.13457415 -0.06686683 -0.029264828 -0.08445316 -0.16726081 -0.06902576 0.2220388 0.05690826 -0.22256596 -0.2173413 0.024912708 -0.0023891947 0.30001393 -0.007148099 0.07677468 -0.12994926 0.34033206 -0.030338995 -0.10144139 -0.07574197 0.1186425 -0.07383199 -0.13356332 0.19539382 0.13577636 -0.15579754 0.22356513 -0.08018062 -0.08179264 0.23818977 0.07071711 -0.09257867 0.43606463 0.051879257 0.3655873 0.016572312 0.12605515 -0.25160325 0.28148246 -0.04757452 -0.0391622 -0.049546495 -0.12019448 0.12970482 -0.4096163 0.33640167 -0.041500576 0.079835236 0.0941887 0.29056972 -0.18039419 0.03931229 0.07664997 -0.035946146 -0.039597612 -0.043221246 0.38154766 0.051312137 0.0860728 -0.2998 -0.24504848 -0.2551464 0.100427255 -0.049478024 -0.1347488 0.1522293 0.04045679 0.10825122 0.25219887 -0.16166115 0.011190165 -0.19015436 0.29651237 0.042898957 -0.03304995 -0.18099317 0.20598783 -0.19426326 0.1276562 0.124301344 0.5642421 0.045787312 0.16726486 0.2649461 -0.033312395 -0.13507865 -0.053374853 -0.18032318 -0.07638576 0.0120794345 -0.0070948442 0.29926407 -6.901787e-05 0.22424997 -0.13213104 0.2436676 -0.097821206 -0.099105366 0.16387779 0.1371846 -0.16548066 0.36929804 -0.2810292 -0.03775466 -0.08296399 -0.20390028 0.018636145 0.21714276
S9 -0.094998054 -0.09082443 -0.23458526 -0.06341575 0.25825098 0.33994377 0.18924896 0.08635851 -0.12056579 -0.17728677 -0.13852425 0.15577249 0.20896412 0.23638296 0.10935913 -0.22311182 -0.07775221 -0.08294316 -0.2774432 0.28365526 0.027162962 0.10225102 0.19690867 0.023584746 -0.020604094 -0.009905207 0.085195646 -0.124284394 -0.11817383 -0.09641804 0.31930873 0.073545404 0.25629908 0.02280641 -0.29217017 -0.3596674 0.1789067 0.1390725 0.08441867 0.06016894 0.13055271 -0.3804612 -0.17667304 0.084430166 0.3357873 0.06982014 0.24454692 -0.14221367 0.20881112 0.33859828 0.30153906 0.12832518 0.023036117 0.016872566 -0.027641192 0.09918895 -0.08049909 -0.24459106 -0.041407637 0.27479148 -0.06555537 0.13909662 -0.039221108 0.09809761 -0.5544743 0.32065392 0.08652386 0.0066790055 0.04692033 0.0152698485 -0.049921945 -0.14899556 0.015169583 -0.120246425 -0.010370712 4.53159e-05 -0.43543234 0.060990203 0.21299611 -0.118599094 -0.006508819 0.059413403 0.11817158 -1.112364e-05 -0.123379335 0.032511134 -0.21522358 -0.0206055 0.2760568 0.13574663 -0.17329042 0.15379672 -0.009039507 0.05108279 -0.09385763 0.032497056 -0.055913158 0.10767885 0.020715304 0.44159684 -0.079671875 0.038978145 -0.20750095 0.16627738 -0.0805088 0.068218835 0.43172923 0.2874875 -0.18037894 0.15786509 -0.02991078 -0.5119434 -0.2916942 -0.06642875 -0.19466645 -0.05562505 -0.1332074 0.03604314 0.17902644 0.19139498 0.06749215 0.026881084 0.12493099 -0.043594785 0.13431086 -0.3144077 -0.097112045 0.33795562
D12 0.18953885 0.32927278 0.18023999 -0.25367635 -0.46799484 -0.20925236 -0.14607684 0.054920632 -0.29262754 0.07166044 -0.32703125 0.32358888 0.03736731 0.09913242 0.04462444 -0.38625026 0.09170319 -0.04088532 -0.01225071 0.0926453 0.15738986 0.10815772 0.20821524 -0.10381275 0.084922455 -0.07057596 -0.12943596 -0.0437807 -0.13351138 0.14109518 0.17509568 0.20485221 0.3591287 0.07017371 -0.027724793 -0.1840112 0.23058896 0.12944324 0.17198011 0.17331646 0.038310844 -0.15034214 -0.16312309 0.08897983 0.093932986 -0.15154798 0.057102505 0.052140474 -0.17147534 0.106176466 0.17843296 -0.10237927 0.050466757 0.052390907 -0.079499155 0.12452521 -0.102929235 0.08252156 -0.038689088 -0.15787855 -0.15531863 0.16694781 0.16201974 0.056485098 -0.184722 0.21151823 -0.24423411 -0.18001889 -0.21218999 0.12127892 0.056566074 0.17916685 0.31147835 0.16265862 0.08804915 0.4034763 0.11231648 0.07988251 0.3092531 -0.30336496 -0.03834895 0.3202736 -0.0015003112 0.15734573 -0.028101232 0.12138155 0.36849052 -0.3537 0.07054481 -0.025531068 0.07880449 -0.08905515 -0.09204056 -0.24356456 0.2190507 -0.12539284 0.16008875 0.29350448 -0.24803497 -0.086045705 -0.016949562 -0.15247506 0.10169075 0.06709967 0.08977814 0.15959123 -0.11976233 0.30710033 0.045854438 -0.18426698 -0.33575124 -0.1358902 0.10128829 0.06668718 -0.101132676 0.014487066 0.19974889 0.021518184 -0.029225014 0.36379898 -0.06027579 -0.23003855 -0.019233933 -0.52012324 -0.14250167 -0.38831818 0.052841216 -0.1903489
S8 -0.04510174 0.3226391 0.103873625 -0.48529777 -0.030347819 0.076832466 -0.12135121 -0.06406949 0.21707182 0.10896908 0.021185542 0.27743232 0.0041617113 0.026653022 -0.18355206 0.20606692 0.017820623 -0.069064 0.028951053 -0.008610571 0.16331355 -0.008415562 0.1647245 -0.1378407 0.48112267 -0.10618311 -0.076976426 0.10998842 -0.31888223 0.03236587 0.57944274 -0.23676544 -0.03839543 0.14886671 0.054523442 -0.05342722 -0.06181774 0.07276959 0.22961658 0.18803497 -0.246619 -0.359311 0.1686456 -0.22047545 0.031521562 0.0016999493 0.109246545 -0.12146218 0.011497049 0.05918091 0.22797011 -0.15018117 -0.029057814 0.017811459 0.20557217 0.23992252 0.055849448 -0.035782687 -0.046652097 -0.3351962 0.09023334 -0.12379619 -0.12545995 -0.2280669 -0.11370077 -0.09090307 0.27922222 0.04631182 -0.14073268 0.022327455 -0.0029776073 -0.031164186 0.012795544 0.18311557 -0.11581226 -0.16449198 0.044508383 0.0020899558 0.17943588 -0.0216427 -0.12788354 0.17957124 0.085836604 -0.2746179 -0.0491425 0.23938268 0.2303588 0.018787736 0.49242425 0.17755982 0.062061094 0.19457465 0.07784066 -0.27356905 -0.0077555543 -0.02533003 0.12648386 0.11688397 -0.23554231 0.30254182 0.11989104 0.15235814 0.1975211 -0.11880713 -0.052998077 0.033336688 -0.14374651 -0.034636624 0.11631991 -0.10222602 -0.20505832 0.24451 -0.24217817 0.076490305 0.16032726 -0.028624687 -0.2889227 0.10544612 0.40974128 -0.38285124 0.35788244 0.13941999 0.272281 0.03745896 0.09724844 -0.28136203 -0.11316721 -0.14862503
D11 0.09246418 0.24632402 -0.2331956 -0.08936233 0.07965726 -0.33441493 0.32340637 0.092982136 -0.01010328 -0.2575281 -0.36006773 0.39897972 -0.068167835 -0.1848237 0.40114468 -0.022442766 0.104500346 0.058397196 -0.22110918 -0.028944753 0.18544854 -0.02277521 0.31991252 -0.09176199 0.26079997 -0.07318522 0.04211265 -0.060886722 -0.10681953 -0.045591246 0.24351914 -0.085695565 0.39636144 0.05237785 -0.17128348 0.078758374 -0.17552838 0.021466335 -0.13420163 -0.050402075 -0.121078625 -0.038671285 0.1287642 -0.013260535 0.2095124 -0.0956372 0.22679764 -0.16375028 -0.17678341 -0.3492452 0.21915315 -0.034459997 -0.25510532 -0.13804013 0.060233217 0.17895533 0.027862273 -0.16748282 0.24042803 0.069936484 0.2267708 0.26620656 -0.2501368 0.027275613 -0.25417736 0.075945996 0.08327919 -0.23989563 0.3108941 0.090284 -0.20736651 -0.18775529 0.5021022 -0.021879096 -0.11359685 -0.19907238 -0.03205334 0.392208 0.16903332 -0.03794515 0.056104362 -0.019061763 -0.063744 -0.064120695 -0.159205 -0.24477826 0.18413165 0.0603296 -0.0055928235 -0.19269888 -0.03280057 -0.27467403 -0.03488754 -0.30189756 -0.088819616 0.08059142 0.36161348 -0.20846523 0.1253253 0.0019576752 0.1447982 -0.30525228 -0.16469228 0.057176974 0.03105667 0.15332231 -0.1482334 -0.045771625 0.1550631 0.36158752 0.09796068 0.08403509 -0.16865389 0.08978391 -0.27394116 -0.15767565 -0.05544741 -0.08582082 -0.0677262 -0.040365256 0.35951152 0.15681265 -0.020917958 0.0979072 -0.2637834 0.14558817 -0.0080963 0.08331994
S14 0.21177259 0.41178393 -0.19867466 0.061380163 -0.15028633 -0.16899724 0.048193954 0.14350748 -0.2696813 -0.08299877 -0.20958434 -0.2493989 0.13222493 0.2993082 0.125737 0.058049608 -0.13836081 -0.026513131 -0.047120873 0.12233745 0.316491 -0.09733837 0.15006171 0.3017733 0.004641555 -0.09846885 -0.21298668 -0.3053324 -0.041680392 -0.1735072 -0.007460871 -0.02571429 0.10788759 0.023904877 0.099052556 -0.21501717 -0.097702675 -0.030934302 0.20191681 0.3239408 -0.12898922 -0.19348535 0.1701852 -0.21607734 0.16965625 0.08901299 0.1871814 0.15522145 0.10506569 -0.08473157 0.2871683 0.14774914 0.14818051 -0.0069410685 -0.026303925 0.07650707 0.123764515 0.24510317 -0.098764725 0.40029863 -0.16209678 0.17103547 0.07632354 0.091359645 0.11830523 0.07446733 0.21837153 -0.01181011 0.18937851 -0.32437876 -0.06418524 -0.13671204 0.46659356 0.18307012 0.26070246 0.063605145 0.057137642 -0.041109905 0.21559405 -0.3096726 0.0046204147 -0.21443506 -0.01097624 -0.16834325 -0.08197734 -0.08956581 -0.02194931 0.461038 -0.102480695 -0.20866664 0.19807515 -0.025601769 0.31406632 -0.10509347 0.11607358 -0.18167391 -0.062131852 0.15206672 -0.26568112 0.01624305 -0.0058839354 -0.16607253 0.4649148 0.58307534 0.029763024 0.09771392 -0.13483016 0.013606759 -0.23381269 -0.035167284 0.042038567 0.21157445 -0.14251618 -0.039356478 -0.08268435 -0.22134863 -0.057972927 -0.23093624 0.30742806 -0.165848 -0.08268357 -0.12764029 0.0548402 0.005432329 0.059430555 -0.21272637 -0.011890024 0.074935205
S7 -0.14363664 -0.0077987784 -0.10961086 -0.06696024 0.004242998 -0.230975 -0.21022582 0.14004844 -0.013296225 -0.112236455 -0.33325166 0.39831936 -0.23948146 0.20175335 -0.14071986 0.3092406 -0.11297764 0.24985468 -0.041351806 0.33737457 0.026803564 0.070009395 0.23624612 0.12550536 0.02158624 0.061638795 0.013589594 -0.07167157 0.038791344 0.029653164 0.012481056 0.104204156 0.27075765 -0.022708472 0.12365311 0.12737109 0.26366457 -0.17640756 -0.029553141 -0.07829664 0.03928427 -0.33102167 0.05434653 0.07431895 -0.058106914 -0.08221764 0.13729453 -0.1136245 0.019803202 -0.17977998 0.13102129 -0.10489703 -0.13852793 0.1436224 -0.0065448466 0.034332015 -0.019248655 0.16791889 -0.18481268 -0.16242914 -0.14811277 0.2189027 -0.015599901 0.10432388 -0.08672075 -0.11196201 -0.13855487 0.27641928 -0.02274983 0.33831224 0.25631523 0.081707835 0.47758085 0.2945116 -0.14127754 0.14472878 -0.12226832 0.023516126 -0.28146055 -0.2006457 -0.14483939 -0.35445783 -0.19766685 0.12971118 0.101866335 -0.060922816 -0.19957139 0.05966432 0.03426383 0.20291114 -0.16920461 -0.2001976 0.15430863 -0.32715848 -0.10527683 -0.1516625 0.45326525 0.15201609 0.11453877 0.051241994 0.2631057 -0.18620454 0.05832889 -0.23874204 0.022637146 0.2786132 0.10339556 0.17622268 -0.23498382 -0.07028738 0.05544616 0.044915188 -0.08588986 -0.3164562 0.114884235 -0.13127926 -0.096321985 0.5648634 0.22880456 -0.19101185 -0.14768466 -0.344615 0.08323052 0.06648617 -0.0043178103 -0.13604489 0.08848887 0.39541417
D13 -0.31584406 -0.21094957 0.21534209 -0.10709285 -0.10144533 0.06283564 -0.05004994 -0.2685326 -0.29493266 -0.34533983 -0.28264472 0.15468313 0.04714404 0.06677943 -0.12277469 0.009945443 -0.16252697 -0.17520319 0.020439021 0.4542882 0.17549843 -0.13036026 -0.17513669 0.006449946 -0.14769162 -0.010195659 0.010932004 -0.007286531 -0.18679649 -0.09509144 -0.11070891 0.014697453 -0.054822512 -0.20740831 0.26305178 -0.18769543 0.12634902 -0.14676002 -0.18048999 -0.17818381 0.02743571 -0.38724092 0.14502281 -0.032042183 0.40790465 0.027693996 -0.063735686 -0.020896008 -0.11378667 0.06820852 0.2554329 -0.12737855 0.046420354 0.0527235 0.15520853 0.11009297 0.19657528 0.022433018 0.35016248 -0.074837334 -0.12799117 -0.058302097 -0.10582438 -0.30723026 -0.25701913 0.07358028 -0.17823346 0.09847139 0.33669356 -0.050112538 -0.21631786 0.047463816 0.08665361 0.28911972 0.017849112 -0.11154101 0.0079024155 0.19848421 0.22549637 -0.1112208 0.14651553 0.03290694 0.17274521 -0.39874014 0.16292134 -0.15842734 0.18295693 0.009723687 -0.041262746 -0.1642564 0.06752978 -0.20782793 0.18430522 -0.107323535 0.1716034 0.2088035 0.20938255 -0.07857562 -0.31837058 0.050897114 -0.36840037 -0.024804814 0.07300573 -0.20790505 -0.09629796 -0.0025461009 -0.1836825 0.25924096 -0.39764434 -0.24781041 0.10784363 -0.08897914 -0.013061275 -0.1725755 -0.32010266 -0.21251719 0.09670029 0.2820654 0.26553714 -0.0749626 0.4101336 -0.16116147 -0.07997938 0.14294142 0.2583461 -0.118966855 -0.25320968 -0.08649142
S6 0.012296613 -0.050820023 -0.060520984 -0.0354169 -0.17211016 -0.060561035 0.2820367 0.052177716 0.09422314 -0.1006729 -0.074573226 0.18893246 0.109154455 0.21014298 -0.049164325 0.130474 -0.059714563 -0.15980761 -0.17641075 0.19301492 0.020828905 -0.07715335 -0.1864792 -0.0116539765 -0.006348281 0.11155544 0.13644701 -0.00041748816 -0.3240808 0.07015407 0.022279 0.0954807 0.04286813 0.02023353 0.13282953 0.079179235 0.19262105 0.28217548 -0.24336126 -0.23604828 -0.3589135 -0.05863094 -0.09397837 0.1662769 0.24798603 -0.007635381 -0.09326542 0.13191952 0.19656278 -0.15208422 -0.2365433 -0.06353919 -0.028027387 -0.113337465 -0.087173365 -0.011632632 -0.05077225 0.10469496 0.021161333 -0.07335157 -0.059737105 0.000729035 -0.013507196 -0.18700948 -0.11155927 0.20511867 0.015475179 -0.0004440637 -0.10383001 -0.21009873 0.027970469 -0.15914683 -0.028737515 0.16116108 -0.06015711 -0.1669332 0.047133785 0.26168072 -0.061621964 -0.42379376 0.18756141 0.04974025 -0.21925378 0.01129969 -0.32668504 0.18598564 0.31866458 -0.16087471 -0.047758907 0.15833169 0.00077540835 0.10999248 -0.08362021 -0.34930572 0.34571752 -0.03841082 0.13472506 0.06869393 0.19896784 -0.058577705 0.1262736 -0.11707127 -0.07997192 0.36634767 0.08774787 0.06754428 0.06425611 -0.14528951 -0.15915848 0.42984593 0.15963897 0.122278206 0.14991365 0.41927564 -0.47857803 0.16132034 -0.16370653 0.14026643 0.48124364 -0.18007495 0.24940695 -0.72963816 0.14100936 -0.21019734 0.014966105 -0.21037868 -0.13710712 -0.043207888
D10 -0.02755557 0.20228538 0.09771738 -0.05928374 -0.14146326 -0.06602104 0.16042687 0.015255992 -0.10959554 -0.0071070753 -0.3443724 0.40527138 0.20240416 0.3237373 0.012964158 0.22433285 -0.27901933 0.0046888553 0.38344833 0.19950339 -0.028485997 -0.13565491 0.12997068 0.28833795 0.23195674 0.078514226 0.07058627 -0.2706129 -0.2511171 0.11602251 -0.24700299 0.028481597 0.2554003 0.13404879 0.007501959 -0.027121335 0.18181486 -0.08431147 0.13341013 -0.03380641 -0.02738359 0.100323565 0.1478811 0.124026276 0.060108546 -0.26315457 -0.021406848 -0.08351537 0.10932711 -0.16509113 0.35389897 -0.21374175 -0.15975673 -0.015121235 0.15709627 -0.36300474 -0.21256131 -0.031130029 -0.1248009 -0.19990046 -0.0566003 0.018034121 -0.122653805 -0.23119186 -0.1658523 0.18650468 0.050325517 -0.059224203 0.41280165 -0.107269034 0.0557957 0.02487365 -0.18163171 0.3001657 0.1364341 -0.1250479 0.056348626 0.09333332 -0.08289579 0.033913765 -0.31564292 0.04128924 0.0008505036 -0.027032066 -0.09336152 -0.45655614 0.15247959 0.2397872 0.31186733 0.06285712 0.08021289 0.26561287 -0.053107217 -0.21737081 0.19770601 -0.018862791 -0.015819937 0.12776728 -0.25770032 0.0128276395 -0.012542886 0.3000223 -0.3452568 0.2663098 0.23264118 -0.17158325 -0.14499462 -0.10216638 -0.16746062 0.12857457 0.40099204 -0.26166764 0.054021675 0.004214364 0.16960394 -0.005339691 -0.2770897 -0.04990759 0.26142195 0.13427787 -0.14592469 0.16913712 0.37342513 -0.2872196 -0.031971965 -0.074072324 0.1486844 0.075991966
D14 -0.043562405 -0.06106899 -0.034217443 0.21687733 -0.27841905 -0.19796014 0.15251157 -0.10647521 0.24290822 -0.25767788 -0.1558374 0.3216515 0.061265822 0.11654392 0.00038126163 0.2562208 -0.1338541 0.0041958718 -0.015063218 0.11028492 0.06442238 0.040431153 -0.054405488 0.1257622 -0.366988 0.039965015 0.1538117 -0.024554046 -0.085222274 0.10016126 -0.38431484 0.12325212 0.09185854 0.18406191 -0.3223 0.006391327 0.12002712 0.036377635 0.071022615 -0.29054996 -0.2955095 -0.20003685 0.09607018 0.1856281 0.3917409 -0.19812416 0.270172 0.07923746 0.042262632 -0.17881653 0.22652133 -0.034404106 -0.04485912 -0.18688901 0.15790656 0.07544427 -0.10075657 0.065577395 -0.06900305 0.077450484 -0.03629922 -0.1276839 0.11226893 -0.3807058 -0.047296166 0.08751007 0.15318218 -0.39207932 -0.15709269 0.23533557 0.10264997 -0.19128951 0.24180576 0.020523958 -0.11966688 -0.19775374 0.07588749 -0.21440889 0.058145516 -0.27584878 -0.21715944 0.16246611 -0.10342304 -0.13909426 0.1662796 0.24646074 -0.15079959 0.052115764 0.120400846 0.1873324 -0.05234858 -0.0889889 -0.014092116 -0.108033024 0.19287394 0.06789669 -0.060908094 0.30702776 0.11735951 0.32113928 0.06275255 -0.10452195 0.091512404 0.5011197 -0.020008583 0.46435127 0.06483942 0.12105825 -0.09144668 -0.40264255 -0.33494812 -0.004004283 -0.48893917 0.048580278 0.2969945 -0.012208602 -0.008832739 -0.08462768 -0.061823282 0.02128681 0.33861426 0.06768684 -0.021963736 0.11011262 0.0040835897 0.0027751077 0.14456956 -0.07124917
S5 0.028083479 -0.076199815 0.3767795 -0.1600788 -0.23573722 -0.11863704 -0.054134876 0.19135216 -0.06633503 0.079990305 -0.26560497 0.05805039 -0.118811525 -0.04730405 0.23685692 0.2443859 -0.05179166 0.34461156 0.09292724 0.16694906 0.042943224 0.039691415 -0.15850815 -0.18656458 0.1734714 -0.10852859 -0.15632582 0.3393165 0.2251667 0.10615749 -0.014931393 0.12816665 -0.03608579 -0.0071157855 -0.1430627 -0.2490134 0.18174101 0.026353026 0.2475255 0.13979058 -0.028812634 -0.039906394 0.27553007 -0.11266894 0.11082 -0.014342079 0.19125776 -0.12125367 0.26456332 -0.14824425 0.07535537 0.23332873 0.06644669 0.17739657 0.020819584 -0.116083056 0.26769128 -0.24387853 0.25644577 -0.18043025 0.35569248 -0.31481275 0.36369845 -0.09421517 0.05513629 0.28745237 -0.044847578 -0.09967471 0.26205736 0.20098293 0.0066474434 -0.09448929 0.32344547 -0.094997756 0.17090212 -0.465247 -0.09840447 0.34237543 0.38637215 -0.2451555 -0.45236158 0.09187495 -0.15872522 0.0022468888 0.086746074 0.08497442 -0.09236028 0.07010468 0.16440469 -0.01911912 -0.040024906 0.050934248 -0.25027922 -0.41442704 -0.15510474 0.16493702 0.21238555 -0.045716148 -0.21563396 -0.026522273 -0.21037102 0.08440629 0.06343582 0.21195303 -0.14645246 0.103373505 0.1526075 0.083294004 -0.33357683 0.023376621 0.09577879 -0.10075528 -0.08144064 -0.05729617 -0.013255574 0.051300034 -0.24766485 -0.021903057 0.21152453 0.17236708 -0.07851796 -0.29196283 -0.10716465 -0.14178199 -0.21192822 0.20845266 -0.1409954 -0.033961702
S4 -0.21489552 0.2106396 0.2681596 -0.057540596 -0.14004004 0.06377113 -0.09885146 -0.035697922 -0.016519796 -0.19954458 -0.02101318 0.13702294 0.19694857 -0.10338123 0.045693055 -0.051622316 0.05865297 -0.11711273 -0.21978588 0.18689403 -0.13178183 -0.19768402 0.00079664856 0.033318017 -0.16820756 -0.020299086 -0.076782785 0.0070687174 -0.0984335 0.16657309 0.20810917 0.036737643 -0.2059001 -0.07391246 0.4061066 -0.08592588 0.0003871404 0.2326311 -0.06309569 0.14031716 -0.19881162 0.0424081 0.2370356 -0.11888581 0.21052746 -0.23791696 0.084960915 -0.04341492 0.14305094 0.12475098 0.09045102 0.001978027 0.049204063 -0.2517788 0.06769941 0.21192983 0.041190024 0.08147951 0.079317234 -0.0050746687 -0.061101582 0.17551918 -0.13283856 0.2344993 -0.0076355315 0.032091055 -0.0730292 -0.1113159 0.112351716 -0.031663127 -0.13372833 0.30310422 0.23771748 0.20717143 0.15191397 0.14890634 -0.12634623 0.10070819 -0.09411661 -0.007851184 -0.19070752 -0.03441562 -0.1342023 -0.17830531 -0.022782968 -0.099731706 0.15442166 0.26012632 0.1708996 0.11719331 0.10447106 -0.42073235 -0.10179595 0.027816966 -0.27537352 0.26963708 -0.0933855 0.146946 0.3107491 0.21386129 0.164751 0.1252344 -0.38869733 0.2796176 -0.096723706 0.40816042 -0.40976575 0.06285459 -0.1943057 -0.093714684 -0.22100267 -0.028950468 -0.20989354 -0.07757543 -0.038625877 -0.024675937 -0.4461248 0.018552374 0.14533302 0.401626 0.39980322 -0.19137836 0.20314847 -0.5901768 -0.03767684 0.27296713 0.28166506 0.24141039
D9 -0.020300126 -0.040322542 0.21456985 -0.055535425 -0.10139895 -0.115602635 -0.013111323 -0.1239513 -0.008423211 0.038559143 -0.28384694 -0.11986554 0.023679124 -0.037219696 0.09968756 0.3644541 -0.28368765 -0.34677336 -0.14168313 0.35543773 0.3050226 -0.13855466 0.09333115 -0.09800146 0.28442013 -0.0370429 0.001136288 -0.09223973 -0.21519248 -0.023238622 -0.20140179 -0.13387637 0.07012141 0.25570047 -0.099047594 -0.10165484 0.18192363 0.14306295 0.31083435 0.09156161 -0.21909025 -0.24297082 -0.008376629 -0.0040015075 0.26309896 -0.14626351 0.105961375 -0.07552452 -0.22189432 0.31063235 -0.05849673 0.048711903 0.067696996 0.21398148 0.12243249 -0.21942155 0.09698494 -0.2015258 -0.12569064 -0.033165917 -0.30139852 0.44176957 0.16164339 0.37941077 0.18191448 0.03456612 -0.046150215 -0.13397545 0.19450822 0.081891544 -0.20177968 0.067730345 -0.11726515 0.059607156 0.10966543 -0.31159702 -0.050999638 0.06490659 0.021541987 0.007999441 -0.25070402 0.05771597 -0.27664044 -0.24824132 -0.20544843 0.07835412 -0.37337252 -0.091169156 -0.13687806 0.21536963 0.08991003 -0.08566548 -0.08191927 -0.38067645 -0.28455082 -0.08531861 -0.10268338 0.10683648 0.2956919 0.4830169 -0.030705735 -0.19797212 -0.029623535 -0.09727455 0.31089556 -0.017533692 -0.1188233 0.14497417 0.081909776 0.035130214 -0.06746528 0.07673044 0.21147262 0.06977055 -0.101979874 -0.2915055 -0.062320203 -0.20778213 0.13953006 -0.37854597 0.11990219 -0.17444178 -0.2733502 -0.31857562 -0.03699859 -0.14566888 -0.07267663 0.10216018
D8 -0.30152002 0.010622911 -0.14311843 -0.039895367 0.032520115 -0.2959696 -0.03531804 0.18333201 -0.059800435 -0.103122614 0.061293215 0.011610168 -0.011742715 -0.008519703 0.13669482 -0.2109507 -0.073649906 -0.29816404 -0.11498737 -0.03165917 -0.36835435 0.2738698 0.07043517 -0.23471428 0.15279327 0.2859371 0.33888635 -0.04121452 0.029210784 0.028391855 -0.28235868 -0.105385885 0.081732534 0.19626305 -0.32395607 -0.11824224 -0.0851715 0.10195847 0.2365161 0.014598418 -0.16645116 -0.2878721 -0.1714617 -0.18988805 0.08792849 -0.20802686 -0.18067212 0.16481926 0.14192832 0.12739807 0.38189802 0.13644688 0.2732226 0.061768044 -0.044138625 0.38554546 0.18841495 0.23762807 0.2256187 -0.05520961 -0.1859209 -0.1158433 -0.109498106 -0.12215095 -0.19006193 -0.006130346 -0.038995232 -0.20730583 0.0153781 0.018634671 0.0023362318 -0.14172815 0.4375721 0.14047651 0.044472348 -0.2049432 0.18200737 0.28239068 0.058655947 -0.103831775 -0.18547502 0.094183154 -0.240984 0.23601426 0.059095364 -0.081812784 0.00868217 0.1623969 0.09309062 0.041125037 0.20365159 -0.025499772 0.09852054 0.00858407 0.0012770119 0.030402523 -0.17011186 -0.16181433 0.00085407536 0.001919892 0.08336387 0.006478798 0.14955762 -0.20602424 0.16464114 0.24434164 -0.16414477 -0.032487717 -0.071422406 0.17164947 0.08666042 0.055673927 0.0809427 -0.061172538 0.20207271 -0.024120845 -0.2671592 0.23131971 0.8631129 0.18908988 -0.06679496 -0.06808217 -0.112294465 -0.19816309 0.19415705 -0.11488335 0.23908965 0.14222959
D7 0.053090077 0.16542517 -0.30138093 -0.096208595 -0.013137804 0.08240928 0.08042446 -0.005790237 -0.06487172 -0.07046966 0.05757639 0.42409113 0.11346703 0.064131305 -0.03307514 0.004147242 -0.23336679 -0.09193562 -0.00666964 -0.066374585 -0.0029357402 -0.006200983 -0.28387147 0.022703398 0.05466203 0.062329862 -0.053649366 0.053596623 0.18858522 -0.066052735 0.013084971 0.06274656 0.12019803 0.16690212 -0.017693684 -0.06977611 0.1492467 -0.06427343 0.23515841 0.09882061 0.10257421 -0.09103231 -0.18365405 -0.12622795 0.16291739 -0.077839755 0.1730943 -0.15086062 -0.21791643 -0.0042021885 0.05105355 0.27707237 -0.051302206 0.15288587 0.13627152 -0.059052773 -0.15927336 0.10230495 -0.33698538 -0.40809858 0.068669565 0.01684954 0.00071218394 0.15201278 -0.37858188 -0.07688264 -0.22096579 -0.03671513 -0.06472688 0.13659078 -0.011228608 0.11828669 0.25324866 0.17861089 0.13532704 -0.11099202 0.15442508 -0.15867183 0.17907861 -0.09692196 -0.104469664 -0.3819127 -0.37853453 -0.21226676 0.20889957 0.36613587 0.11448974 -0.04617271 0.51052123 0.069599524 0.23797713 -0.052431334 0.086454 0.003726427 -0.18738428 0.1322714 -0.07337439 -0.24912354 -0.025221705 -0.1652377 -0.2943971 -0.05556551 -0.17720708 0.55371886 -0.06079784 0.09254983 -0.19763722 0.0768547 -0.32360187 0.33545136 -0.14325705 0.33522263 0.21182466 -0.22255257 -0.22905041 0.051641285 -0.036343027 -0.20852306 0.055392407 0.02800702 0.3351473 -0.13060269 0.1348326 0.097531065 0.22748573 -0.039642822 -0.28688562 0.36631083
S3 -0.05471843 0.16854851 -0.0012054382 -0.04960712 0.11840349 0.17800756 -0.023579644 0.023732593 0.04891091 -0.012347123 0.06290552 0.34044045 0.1798675 -0.21411797 -0.01628326 -0.1038761 -0.40073884 0.21895628 0.34745428 0.40643635 0.168418 0.108508945 -0.068973705 0.09366047 -0.31292078 0.09194465 0.17177843 0.14729713 -0.5622901 0.1507915 0.024514219 0.043279514 0.062649675 0.20090102 -0.12546803 -0.30488655 0.0041720313 0.050670244 0.27717856 0.17603834 -0.19594215 -0.017909085 -0.021026384 0.0033411267 0.5017897 -0.1887957 0.24920408 0.020959508 -0.08427729 0.093420066 0.17846929 0.027311437 0.0090398155 0.13617328 0.1250202 -0.083719425 0.038983013 -0.07922877 0.016927514 -0.03527397 -0.0878775 0.14791432 0.075786285 0.0942758 0.006251441 0.17814073 -0.1089104 -0.023858337 -0.0690738 0.047926385 -0.21787941 -0.28212345 -0.028530201 0.012917875 -0.19059934 0.11429616 0.23364718 0.42802355 0.16180593 -0.1683554 0.06596387 0.12591037 0.00867989 -0.08046822 0.27162027 -0.06904117 0.20793846 0.04332877 0.16382486 0.11686809 0.38569894 -0.011110427 -0.031826552 -0.20056799 -0.11258467 -0.45084527 0.00087636145 -0.003973919 0.0006384027 -0.12277344 -0.2849912 -0.341756 0.03908523 -0.03471887 -0.20753624 0.15476798 -0.21943241 -0.161414 -0.08974669 0.2647718 0.03623317 0.008000956 0.014971071 0.005448903 0.052715823 -0.21657833 -0.09687975 0.2546588 -0.037081223 -0.10901333 0.00053868385 -0.23649724 0.00592098 0.22914442 -0.34315202 0.060473904 0.5736534 0.21162346
D5 0.1436509 -0.091033846 -0.0033480017 0.4866367 -0.11729439 0.014181778 -0.26250187 0.033090524 -0.1496908 0.09085494 -0.66564566 -0.11565074 0.120972976 0.022356177 0.15911964 0.099934734 -0.24277039 -0.35059503 0.038221266 0.18986624 0.25976261 0.1252929 0.040792502 0.041447263 -0.037780244 -0.011781695 0.14798015 0.09159618 -0.18983404 0.13767417 0.20286846 0.20430441 0.024858113 0.010179616 -0.15430741 -0.0199761 -0.06797325 0.04415964 0.25386262 0.056697726 -0.09847736 0.015355897 0.21208148 0.037894145 0.21289246 -0.09252051 0.43327802 -0.19283451 0.27111217 0.19300908 0.15447517 0.017668331 -0.14489026 -0.054773487 0.0065959785 0.18487686 0.02494861 -0.1508481 -0.11088847 0.07588755 0.19360201 0.1859914 -0.077708125 -0.19448112 0.1302831 0.17924932 0.16411644 0.045247346 -0.1812663 -0.051857643 -0.02429512 0.012884478 0.19461119 -0.009576634 0.1381203 0.24618451 0.013180285 0.11210411 -0.13951157 -0.25301722 0.0933372 -0.110200316 0.21382888 -0.028213052 0.0044856565 0.14207603 0.024464736 0.074296474 0.52673566 -0.050013877 0.223994 -0.03755664 0.039657053 -0.36096928 0.2446564 -0.13074751 0.1491208 -0.13128056 0.32261074 -0.09160329 0.05525021 0.082928464 -0.34270242 -0.023215516 -0.38124138 -0.06177256 -0.27133852 0.028893337 -0.04526862 0.086630315 -0.06142306 0.23842731 -0.095019236 0.0010605446 0.076554745 0.18628904 -0.14870776 0.23009163 0.41864246 -0.010903846 -0.18375163 -0.011659511 -0.28419894 -0.11535604 0.31008175 0.2333792 -0.36092237 0.017023832
D6 0.16611433 0.10302957 -0.24098298 0.069150664 0.10409045 0.37271816 -0.173729 0.09097809 0.17802514 0.01007795 -0.48023522 0.099312484 0.06670012 -0.039134838 -0.16212872 -0.08087767 -0.12871087 -0.048409283 -0.30378228 0.4091353 -0.13343534 -0.26145425 0.3241366 0.16346526 0.40157333 -0.08920342 0.03650367 -0.286051 -0.20932809 -0.17287554 -0.123242304 -0.16217117 0.122273386 -0.19987367 0.22676499 -0.33675143 0.067981794 -0.19314359 0.03097489 -0.0118241105 -0.053889472 -0.0052899066 -0.20661238 0.14972301 0.0741755 0.096570075 0.33329496 0.15193805 0.01660524 -0.10383645 0.034394264 0.2643489 -0.098911926 -0.033336952 0.433903 0.2577616 0.37539786 -0.2544298 0.15354267 -0.45391124 0.089548685 -0.31265002 0.30376345 -0.24671721 -0.14228657 -0.010472358 -0.027744215 -0.00924791 0.01329116 -0.09059519 0.027993647 -0.09026488 0.18213943 -0.16461167 0.06467735 0.07159157 0.13963483 -0.22912006 0.022829121 -0.25830352 -0.07452054 0.10466359 -0.14273252 -0.32682657 0.057470553 0.15482387 -0.0025185249 0.18019904 0.07132819 0.07333317 -0.0017499856 -0.023205034 -0.019993836 -0.13379529 -0.015807876 0.26896104 -0.0579356 0.014047033 0.13749069 0.08321775 -0.01702266 -0.11757774 0.21758465 0.045522347 0.018954424 0.014596748 -0.17221978 -0.1770236 -0.06748671 0.044832878 -0.05487406 -0.013101788 -0.06264085 0.23401563 -0.27746165 0.0775315 -0.014946726 0.21817784 0.027391888 0.060367502 -0.25722647 -0.17620121 0.049630217 -0.23820275 -0.1874621 0.072562866 0.4413851 0.26364902
S2 -0.49376142 -0.059124272 -0.19405948 0.060294177 -0.19309999 -0.008450529 -0.0317637 0.4173766 -0.11725473 -0.08064514 -0.29469377 0.25928706 0.295069 0.0041215615 0.027293716 -0.061127473 -0.5231289 0.03537577 -0.14241156 0.2583032 0.016589139 -0.2695159 -0.11949497 0.14627367 0.07510018 0.007544804 0.15956405 0.01338424 -0.0037166981 0.15613781 0.12157902 -0.06746434 0.33151168 0.21929309 -0.11014169 0.1028192 0.047628716 -0.079805225 0.20754606 0.05473962 0.11386359 -0.01569783 -0.089018665 -0.11355168 -0.09303932 0.013605347 0.15108605 0.19032964 -0.027025804 0.04596187 0.0978614 -0.13986008 0.1451814 0.17808662 -0.042625364 -0.2284496 -0.14844947 -0.10272751 -0.31528848 0.1530101 0.101919904 -0.26159853 -0.05477807 -0.42154154 -0.20571789 0.13479516 0.09235143 -0.11459046 -0.0561093 -0.0049343803 -0.31238902 -0.06605344 0.41982287 0.25774646 -0.17747359 -0.12126594 -0.030859595 -0.07105334 0.14081769 -0.20304306 -0.06123447 0.21208568 0.14533868 -0.290896 -0.20917307 -0.105383165 0.008817212 -0.14479966 -0.035796985 -0.044798326 -0.13126469 -0.14208564 -0.006057386 0.09354879 -0.09423755 0.19056782 0.2323619 0.49174792 -0.06403601 0.09478335 -0.13645017 -0.113324314 0.048738483 -0.095135264 0.01499935 0.039027188 -0.34388232 -0.12474804 -0.031086411 0.21207373 -0.24966894 0.12803464 0.2455508 -0.15226795 -0.10558343 0.19951694 -0.3860648 0.028990071 0.09244863 -0.21680067 0.23186398 0.093789615 -0.41475108 -0.39410067 -0.13067462 0.15693974 0.005374161 0.09559991
D4 -0.17526996 -0.06891812 0.16762954 -0.12683201 0.12209492 -0.21884741 0.18918331 0.19363871 0.08572338 -0.24179982 -0.24184066 -0.11309274 0.13510075 0.06913259 -0.040914424 0.108644836 0.02464804 0.04750662 0.013754178 0.0992953 0.32420373 0.015150262 0.10339414 0.23469864 0.2124792 0.04492447 0.14167857 -0.39434543 0.11131128 -0.10163881 0.30546474 -0.013420018 0.014018587 0.32937798 -0.15236187 -0.13230291 0.09942007 0.19858122 -0.10106376 0.10328107 -0.21136028 -0.42887 0.36459884 -0.035110775 0.175818 -0.19726664 -0.069115944 -0.3502173 -0.1507364 0.032087415 -0.041343756 0.2870538 0.07431151 0.26790896 -0.072932445 -0.25053746 -0.20946358 0.08673547 0.08590646 -0.079246424 0.013162037 -0.024905393 0.039836098 -0.07852997 -0.17800884 0.0696131 0.0354322 -0.03186946 -0.05639848 0.17479427 -0.1570239 -0.090020455 -0.1127876 0.24304698 0.014713421 -0.24173172 -0.08478913 -0.12595685 -0.03272156 -0.39145607 0.13277085 -0.032067586 0.27525368 -0.074649714 0.008506456 0.2548106 -0.063944615 -0.30388683 0.15066431 0.048201665 -0.10610083 0.066933006 -0.05950074 0.20624354 0.064473554 -0.06899474 0.36535573 -0.07399516 0.043229237 -0.21708082 -0.1856317 -0.15415868 0.0561704 0.16793 -0.15485209 -0.011610693 -0.31436557 -0.1326539 -0.056867294 -0.290839 -0.02790658 0.26179123 -0.12164393 0.09634513 -0.31847748 -0.3201375 -0.37425444 0.12678541 0.2683941 0.3927699 -0.15013726 -0.18273024 0.122323714 -0.24730413 -0.09541335 0.19080368 0.4479587 0.32570046
D3 -0.057861708 -0.04878266 0.009596352 -0.43195608 0.09876551 -0.16332044 0.30378446 0.021303665 -0.15299255 -0.04343544 -0.095701896 -0.14192949 0.028892731 0.27977523 0.03733938 -0.02036741 -0.23483478 0.02948061 0.045836594 0.1625235 0.13206327 -0.23512934 0.087227486 0.15591955 0.06626227 -0.072792776 0.08714274 -0.066561356 -0.1446318 -0.004318882 -0.114472054 -0.057929553 0.15394935 -0.07077778 -0.04632582 -0.18268973 0.1843825 0.50810564 0.17199211 0.14228317 -0.030064577 0.39883557 0.011374643 -0.05285661 0.23075522 0.12849662 -0.0004989235 0.016204787 -0.006510364 0.19759601 -0.012784428 0.297544 0.29968843 -0.12825637 0.12821506 -0.084773734 0.02351948 0.02832324 -0.2592529 -0.3661 0.12043073 -0.15281112 0.016604284 0.15007064 -0.2875894 -0.06258541 0.20153369 -0.14139754 0.1701499 -0.15901248 -0.12573582 -0.008490395 0.31923488 0.12395496 -0.023118788 -0.057902113 -0.04534927 -0.018332852 0.21066928 0.14679323 -0.08460874 -0.21231066 0.29677942 0.0682938 0.026698833 -0.05079464 0.27452007 -0.3200302 0.20374171 0.026947694 0.08303496 -0.17831294 0.075785615 -0.18164542 0.083553396 -0.10751735 0.197298 0.33276552 0.23954749 0.337965 -0.0017239695 0.24643554 -0.0410435 -0.044172525 -0.1743898 0.79319555 -0.018408073 -0.05022856 -0.054005645 0.21145853 0.21412335 0.16792187 -0.36152545 -0.18587844 -0.025889233 0.03956046 0.17846978 0.30804956 0.16342108 -0.19060299 -0.21840066 -0.22764513 0.0042003314 -0.044161953 -0.053929567 0.11751495 -0.06428651 -0.058562852
D2 -0.31141686 -0.2904008 -0.012027751 0.0076931715 0.0693525 0.29667863 0.12600492 0.02677275 -0.05068178 -0.16718727 -0.20006469 0.07647912 -0.067149214 -0.031501915 0.14640646 0.019162139 0.16823924 -0.22183256 0.35510224 0.36608467 0.06918375 -0.0663179 0.077455305 -0.0707621 0.43065152 0.32937625 0.09359238 0.06753978 -0.20392188 0.2594989 0.30853897 -0.19605124 0.29228204 0.062755704 -0.017155752 0.013001853 -0.16287494 0.034032878 -0.11701462 0.21396156 -0.044375163 0.14739312 -0.03679219 -0.11186123 0.15095429 -0.024454098 -0.09619968 -0.027932499 -0.13036183 -0.021978695 0.24492612 0.13709351 0.30335966 0.2934204 0.13893342 -0.1750109 0.050158087 -0.17836417 0.090902396 0.13366137 0.024596468 -0.09228577 0.005383119 0.1838321 -0.058583923 0.036435228 0.005977453 0.120817624 0.022758316 0.029286217 -0.07477793 -0.17957503 0.2246329 0.13403761 0.032177676 -0.065621175 -0.029331287 -0.079427235 -0.060088858 -0.002113769 -0.13706532 0.20944844 0.010419298 0.07300188 -0.33830905 0.020441836 0.15667954 0.30177224 0.3236968 0.043110345 0.07589511 -0.02524697 -0.10658065 -0.29541907 0.054191448 -0.050427504 0.010425097 0.2502444 -0.1524216 0.043949176 0.55704975 -0.040545493 -0.048279457 0.58726215 -0.055011652 0.19607732 -0.050693247 0.15724112 -0.45474043 -0.14277895 -0.4046599 0.22961931 0.3901848 0.046791885 0.04655185 -0.053993825 0.08656281 0.21616095 0.10567696 0.06681394 0.09627145 -0.31537995 -0.1271869 0.28881648 0.0072779157 -0.06380947 0.11072232 0.25439152
S12 -0.025595296 -0.12897591 -0.30874732 0.21886796 -0.14149654 0.022089295 0.21344577 -0.06827173 -0.3148151 -0.13455924 -0.2856023 0.28705624 -0.1137608 -0.27918613 0.2338083 -0.2110905 0.3429745 -0.15678595 0.35469252 0.28542557 0.21431784 -0.1332671 -0.027700733 0.0040553827 0.1499704 -0.2682369 -0.06634714 -0.0943029 -0.057985716 0.028366938 0.051433664 -0.13733928 0.14262694 -0.06159127 -0.0036593578 0.027114604 0.13457397 0.045248475 -0.0037292216 0.022505496 0.037185878 -0.34817234 0.21967725 0.093703 0.27991167 -0.1667689 -0.09070152 -0.17659728 -0.046774756 0.0402647 -0.0033202996 -0.007736594 0.1936857 -0.17550512 0.28330475 -0.10952111 -0.16495496 -0.05617339 -0.016837612 -0.33024806 -0.21099262 -0.16699818 0.17088087 0.14752549 -0.15228914 0.13980167 0.19538827 -0.28873938 -0.07513173 -0.09519073 0.12731375 -0.08962579 0.019160306 -0.054230973 0.22537024 -0.24894436 0.12214718 0.013704692 0.17588045 -0.20077641 -0.053221986 0.09965511 -0.21967277 0.21140864 0.34442088 0.011179882 -0.13531275 0.023596633 0.10727141 0.0036006656 -0.15982698 -0.2160454 0.21611081 -0.16373858 0.23200977 0.025939666 0.0012705337 0.3281508 0.16958572 -0.030806426 -0.2555163 0.32838994 -0.035367142 0.026333919 0.30650097 0.03311573 -0.4679974 0.37029037 0.19517587 0.24247359 0.041620694 0.3349 -0.13889316 0.087784834 0.10499911 -0.0026412501 -0.17274393 0.4270152 0.1844071 0.03711144 0.098825514 0.13122964 -0.1809634 -0.040400542 -0.057891306 -0.16693905 -0.05853502 0.40470612
H6 0.0441425 0.028801166 0.01032166 -0.11687144 -0.050281778 0.03190906 0.1729398 -0.056107618 0.2127847 -0.34642324 0.123343624 0.11328816 0.3539511 0.15122733 -0.002529777 0.15645844 0.27652872 -0.3419348 -0.43341303 0.13319233 0.29853657 -0.09929336 -0.08939198 -0.012791013 -0.3270159 -0.03661905 -0.3578688 -0.13129383 0.12449071 0.0677966 -0.121722765 0.13822564 0.34582415 0.13520826 0.11036255 -0.11128755 0.0115861865 -0.061928224 0.16145052 0.29852086 0.16484384 -0.27677515 -0.04186597 -0.26460275 -0.23491737 0.030839907 0.008864442 0.0428314 0.17589246 -0.026616773 0.120877214 -0.21183197 -0.2432063 0.10369383 0.45795435 -0.22961721 0.034055945 -0.13994107 -0.027578598 0.02228675 -0.061498385 0.031331167 -0.27568045 -0.16354664 -0.08291212 0.2705548 0.24574082 0.080400266 -0.25095463 0.12763199 0.015082927 0.35141546 -0.04778049 0.17265573 0.60379523 -0.032828692 -0.037675545 0.080974475 0.08734067 -0.056541905 -0.37079844 0.07334954 -0.008401323 0.109594874 -0.38722277 0.09338175 0.037034474 -0.09034064 0.21233259 0.049259342 -0.17460337 -0.27110684 -0.113200374 -0.036760136 -0.045022517 0.018272111 -0.3740818 0.021822592 -0.43435887 -0.17964336 0.0077031674 -0.28389964 -0.009906001 -0.38148665 0.10950736 0.30596793 -0.07691393 -0.07675111 0.39462247 0.2331834 0.1880926 -0.015412293 0.003256972 0.3326477 0.17671032 0.087543726 0.31668276 0.10388663 0.22469799 0.10039184 -0.11692124 -0.43693215 -0.054959703 0.47878808 0.027318891 0.67537695 0.0840402 0.0890508
H7 -0.032087028 -0.27404594 -0.21676323 -0.093995325 -0.37216145 -0.051918235 0.0022594812 0.042696025 -0.12903629 -0.095994875 0.22234417 0.15338625 -0.20931947 0.23707388 0.094158605 -0.123656295 0.06384835 0.01778602 -0.13140701 0.048325144 0.1324963 0.043640472 0.29998702 -0.08645321 0.127888 -0.41856098 -0.05865578 -0.24689429 -0.23452148 0.0076043895 -0.3422867 -0.2709734 -0.12844431 -0.07755629 -0.011198937 0.42478365 -0.12056719 0.20451029 -0.26312387 -0.14651322 -0.18861365 -0.17909595 0.046392884 -0.06868635 0.26905462 0.048128746 -0.08118019 -0.54362774 0.13829075 0.23717304 0.24189523 0.10278949 0.08844414 0.14892533 0.30655837 -0.033144988 -0.057624497 -0.08305278 -0.35638124 0.07534829 0.37041816 0.032286458 -0.28286576 -0.08924845 0.12558445 0.06414011 -0.029365003 -0.10531361 -0.074968055 0.089034915 -0.18343762 -0.005149983 0.10983382 0.05293175 0.36122712 0.07760817 0.13603914 0.3443987 0.040152602 -0.36276206 -0.04618129 0.17760216 -0.25845048 -0.29908973 0.024515191 0.24897824 -0.18198335 -0.09549939 0.37639576 0.04991591 0.054684438 -0.16061902 -0.11065656 0.22526795 -0.47456038 0.046123125 0.034438923 0.54047245 0.016055882 -0.039333045 0.26564977 -0.3521091 0.26577574 -0.21592996 -0.37540078 -0.10657045 -0.2606891 -0.35547438 -0.06219247 0.13304006 0.40340787 -0.36802134 0.40212357 0.031999227 0.21083722 0.05642906 0.18721727 -0.060887117 -0.06291394 0.35458225 -0.23785408 -0.1619636 0.38480365 0.18600415 0.16107647 -0.008752548 -0.1690505 -0.121488534
H2 -0.18878037 -0.22380246 0.07410348 0.22559917 0.2851205 0.18710354 -0.3693445 -0.08629912 0.106266804 0.3190366 -0.24322739 -0.1036041 0.017665775 0.21231484 -0.13149507 0.024590645 0.096053794 0.0992249 -0.007138934 -0.14354868 0.20287183 -0.23144713 0.23211099 0.26251253 -0.20400655 0.18028778 0.2170578 -0.0014570367 -0.025696114 0.02088317 -0.041844316 -0.056127228 -0.18720017 -0.104164936 -0.014596204 0.22376768 -0.16216885 -0.19877698 -0.32791218 0.550125 0.0060326084 -0.17381577 0.09301195 -0.06561096 -0.15617695 -0.2981618 -0.29660827 -0.13356116 -0.12350586 0.16391508 0.37243998 0.047328368 -0.15263389 -0.0060386737 -0.14057766 -0.0009021721 -0.09911722 0.06345644 0.04518751 0.06722133 -0.34007913 -0.09166299 -0.06597706 0.08921974 -0.15075569 0.15654206 -0.06654033 -0.17567226 -0.07201741 0.161046 0.01708344 -0.12838279 -0.044614706 -0.11925516 0.17680646 -0.0370721 0.08938801 -0.10172929 0.47620133 -0.42184365 -0.22322 -0.2026213 -0.047904123 -0.2719862 -0.068471745 0.46935695 0.044715147 -0.0133155985 0.2828448 -0.03567287 -0.20844275 -0.6005427 -0.13163818 -0.18580996 -0.28643152 -0.009047367 0.19729446 0.12969646 -0.14338772 -0.13727711 0.0465889 0.018061696 -0.2178069 0.13100886 0.1562488 0.2942017 0.095548 -0.20732522 0.18300663 0.3634207 0.47417796 -0.20366347 0.10039119 -0.00030226118 0.0022500767 0.27816042 0.31574863 -0.12669642 0.36753514 -0.06421224 0.14376776 0.040301964 -0.012439242 0.09567499 -0.30019617 -0.039556894 0.14313972 -0.41504365
H3 0.1813613 -0.14261459 -0.26167822 -0.21479005 0.1622442 0.037026446 0.049753774 -0.41012385 0.065721914 -0.022125248 -0.027075266 0.16069219 -0.114947654 0.14834297 0.09496664 0.16888212 -0.13328567 0.2147968 -0.17871319 0.061190706 0.14087814 0.21425408 -0.29109633 0.12581252 -0.00079744734 0.08602764 0.12108691 -0.0052592778 -0.15742436 0.098244205 -0.017822737 0.04856306 -0.014198892 0.16292736 0.12705319 -0.076096915 -0.043043986 -0.14103562 -0.13991112 0.02517095 0.05691928 0.06620352 -0.27495584 0.1975951 -0.0035219125 -0.13205105 -0.106223024 -0.35821024 -0.12265078 -0.10965328 0.32141507 -0.055603754 -0.22415277 0.28582707 0.30101132 0.224546 0.02397619 -0.24875718 0.16646847 -0.12318255 -0.11720841 0.19640222 -0.09074944 -0.029464424 0.283794 0.3083633 0.4913061 -0.10238735 -0.117368855 -0.33659098 0.2677156 -0.061810154 -0.28008914 -0.044178903 -0.02332713 -0.20071942 -0.18421307 0.46964008 0.102627374 0.0037134942 0.24440351 -0.19169189 0.036721747 -0.36690545 -0.3006894 0.1337939 0.16060662 -0.11402848 0.07815843 0.17862739 -0.31556442 -0.3620619 0.11932322 0.23504922 -0.26327232 0.26969385 0.046907775 0.14158435 -0.28489906 -0.28121525 0.14017138 0.07865052 0.23974846 -0.028653769 -0.11609202 0.31376472 -0.1542988 0.17567676 0.0103713535 0.17930083 0.049688783 0.27940342 0.1312435 -0.3990243 0.54879487 0.09327647 0.17560756 -0.29917622 0.10599032 0.34245571 -0.31474677 -0.27374887 -0.11886241 -0.5086314 0.06291296 -0.052575547 -0.0008475292 0.113642335
H5 0.089019254 -0.23221563 0.058164142 -0.18508644 0.06876431 0.21168935 0.047834016 -0.10161294 0.10054945 -0.16839007 0.1572775 0.077880196 -0.41537297 0.28317612 0.22242768 0.15625602 -0.084151745 -0.16286808 -0.003789493 -0.32714555 0.25670794 0.08684524 0.22504753 0.025811473 -0.2379826 0.068640016 -0.16242789 -0.05184392 -0.02510191 0.030422835 -0.0033539836 0.14945166 0.15050772 0.33529133 0.5397908 0.385431 -0.13090917 -0.049612623 -0.10533139 0.2722419 -0.14027075 -0.16268967 0.28368354 -0.11361611 0.0014679501 0.025628591 -0.04250543 0.19129094 0.16525398 0.13943633 0.09950545 -0.104206994 0.13089226 0.060356367 0.42533 0.203073 0.00039476564 -0.37892494 -0.34426188 0.18171553 0.0584229 0.033046674 -0.21252763 -0.2714407 -0.10563682 0.06051241 0.07233233 -0.017440787 0.052718583 -0.11229539 -0.13415971 -0.18183008 -0.05368787 -0.055948485 -0.14738682 -0.016070988 0.2512338 0.13350834 -0.11881478 -0.030525604 -0.20979726 0.111795865 -0.33403292 0.100924656 -0.12857603 0.36273852 0.1625672 0.09446629 0.1310198 0.47504517 -0.06429309 -0.16195309 -0.102057055 0.077479295 -0.055706717 -0.25961393 0.2387119 -0.034963563 -0.1305901 0.27176946 -0.35128814 -0.21686564 0.09100535 0.2306753 0.3006976 -0.25060946 -0.09603713 -0.103244975 -0.058683667 0.25842875 0.011369924 -0.13014874 -0.14541146 -0.5845295 -0.19953433 0.027501792 0.62842935 0.33647174 0.24197651 0.46801296 -0.18085973 0.10162626 -0.24552718 -0.38831624 -0.14839119 0.3262756 -0.10533599 0.009183461
H8 -0.022408003 -0.27502707 0.14230224 -0.2774219 0.451552 0.010961431 0.09288118 -0.077272296 0.19308168 -0.5527013 -0.27819398 0.10606922 0.011713426 0.23624142 0.18755938 0.18888706 0.26581368 -0.27363518 -0.04057023 -0.040620036 0.072424054 0.24943651 -0.14532925 -0.19798958 -0.020358829 0.06481339 0.18172558 0.2821216 0.17106326 0.0032919224 -0.050840814 -0.14027682 0.13855553 -0.43671694 -0.31677076 0.034986153 -0.0056919735 0.34255847 -0.25880876 -0.04882532 0.3050791 -0.02436697 0.04147191 0.06536516 -0.40792114 -0.1709947 0.11125947 -0.090005 0.047144692 0.23623651 0.70827603 -0.035320107 -0.11472869 -0.37664828 0.15470323 0.032562148 -0.10039172 -0.136306 -0.14549077 0.039598893 -0.2698977 0.2665233 -0.2760878 -0.109557055 0.25564203 -0.04092241 0.029771168 -0.07110824 -0.41036978 -0.2873327 0.12290673 -0.0008444085 -0.011460487 0.33096996 0.2936892 0.0821596 0.13087612 0.21584417 0.07877281 -0.21088243 -0.25488523 -0.08168726 -0.13992853 -0.3106987 0.15744199 0.388488 0.24088307 0.08551735 0.1678165 0.013158945 0.093026154 -0.070693456 -0.044444207 -0.090177394 -0.14813879 -0.08574006 -0.11629479 0.22774813 -0.18875127 0.050956033 -0.2729227 -0.047736857 0.4586041 -0.010513734 0.28407988 -0.01159496 -0.10264059 -0.34884998 -0.0887895 0.03507305 0.08189047 -0.16726056 0.18160959 -0.21129057 -0.22423655 -0.06585209 -0.22634852 0.06455146 -0.37240466 -0.21223098 -0.30089098 -0.1182954 0.08555905 -0.2377002 -0.3661169 0.26971295 -0.16906291 0.07991452
H4 -0.41437408 -0.13257264 -0.056091554 0.009038849 -0.4057406 0.093402155 -0.21021982 -0.023464728 -0.2347624 -0.2327322 -0.40960002 0.13369778 -0.22146124 0.32635015 -0.019576933 -0.0601983 -0.07104032 -0.4183025 0.28384998 -0.3467583 0.0667129 -0.12017457 0.014894193 0.15134434 0.16177095 0.3664971 0.07651133 0.28288037 0.13001588 0.0027557632 -0.25096187 -0.13045041 0.21316785 -0.044625446 0.17984378 -0.09539064 0.029929196 0.1586287 -0.019525394 0.2947001 0.11410877 -0.10451435 0.07533018 -0.11865892 -0.07475008 -0.04743014 0.16167699 -0.27027205 0.18081681 -0.20519842 -0.0029465947 0.023080751 -0.103030495 -0.11999148 0.4374308 0.10444393 -0.27838057 0.11492239 0.104100384 -0.050564032 0.084652305 0.17681834 -0.48627406 0.21293606 -0.12312922 0.19141476 0.44441608 -0.21399097 -0.011581442 0.1531657 0.008182561 0.014718458 -0.32214922 -0.14581135 -0.1925499 -0.041269675 0.035243955 -0.004412768 0.32877448 -0.2622034 -0.021573542 0.042276744 -0.3959198 -0.29761186 -0.5602954 -0.08401463 -0.097514294 0.0778972 -0.033475608 0.2103217 0.08949168 -0.045016617 0.13362862 0.2084729 -0.37829486 -0.13029888 -0.34312922 -0.06972531 0.16113876 -0.24250956 -0.22165456 -0.06790815 0.3863766 -0.07422347 -0.4096612 0.12484556 0.1400186 0.017819319 0.29513568 -0.042472392 0.0068369824 -0.014576662 -0.041168638 -0.26512957 -0.1843129 0.26144662 0.008175103 0.31138664 -0.04078632 -0.0068066483 -0.23285986 -0.27773425 0.32421806 -0.015682233 -0.30995315 0.12360561 0.004535365 -0.27006304
H9 -0.1411973 0.034230005 -0.115653865 -0.07476462 0.23561963 -0.076004185 0.12905616 -0.24546129 -0.18324625 -0.25658768 -0.12303292 0.49710518 0.13201454 -0.034581408 0.3939651 -0.03688459 -0.27793935 -0.11802492 0.16288395 0.06668938 0.03600783 -0.2726678 0.15559411 -0.24624294 -0.028294262 -0.26532665 0.006976046 -0.06670686 0.25561374 -0.18438894 -0.04847326 -0.31255883 -0.06483516 -0.073722504 0.14677034 0.2530703 -0.19810858 -0.08453687 0.18174116 -0.09973215 0.25479218 -0.1419794 0.17520559 0.088977665 -0.03104371 -0.2153816 -0.056506686 -0.088362694 0.11948255 0.30997437 0.3856339 -0.07924648 -0.033455793 -0.057668537 0.05112856 0.03786332 -0.026743561 -0.107414134 -0.5504372 -0.23974447 0.13866343 0.029609526 -0.22059509 0.05845666 -0.12354118 0.1591988 0.092206895 0.11082841 -0.16240375 -0.1658938 0.002433775 0.25951886 -0.32945263 -0.28819358 -0.19548254 0.19285639 0.11974551 0.09493186 0.0408732 0.10604031 0.117529064 0.50590813 0.14923052 -0.011225069 -0.11202057 0.33880466 -0.10724818 0.086974986 -0.07203272 0.14070861 0.014075475 -0.37869048 0.06307907 -0.31049964 -0.48245722 0.07455784 0.06821019 0.011479103 0.023793263 -0.60536677 0.0457868 -0.10609514 0.32697567 0.26623023 0.22907932 0.13407592 0.52286077 -0.25470337 0.017299097 -0.30285174 0.31772587 0.037631027 -0.14822519 -0.015566857 0.05240023 -0.031854674 0.07571969 -0.17947358 0.5827083 0.08780565 -0.049419437 -0.4268549 -0.066481106 -0.120400056 0.012072888 0.38137943 0.060921703 -0.2598056
H10 -0.087139666 -0.2817808 -0.37390897 -0.109875984 -0.008953237 0.21459311 -0.084737726 -0.44114348 0.24988863 -0.3244455 0.3458806 0.48498756 -0.011527327 -0.01727318 -0.015322315 -0.0044442853 -0.09492329 -0.1336703 0.065907456 0.06360512 0.061078914 0.083501205 0.2480172 -0.058441926 0.10322691 0.2880749 -0.28592035 -0.0042135557 -0.03831997 0.004977887 -0.2468115 -0.10908019 0.15788381 0.117370635 0.13598499 0.03056282 0.11659565 0.14077675 0.012718832 0.23430562 0.20032741 0.073077396 0.08155354 -0.3315318 -0.062016573 0.08072842 0.060803823 0.026529804 0.22736354 -0.25306103 0.22026144 -0.14687808 -0.304384 -0.06741757 0.21462701 0.15484698 -0.4079398 0.1850282 0.04909729 0.062869206 -0.21132678 0.22398409 -0.19770376 0.3826269 -0.026855279 -0.20579058 -0.11765062 0.12613472 -0.107134804 -0.028762406 0.018831879 -0.18302219 0.00031145176 -0.16516644 0.23952906 -0.08909374 0.057202514 0.20232734 0.28751126 -0.24341485 -0.091390684 -0.20216288 0.029554497 -0.43130445 0.099281676 0.068112485 -0.067815974 0.16847245 0.3450282 0.084857605 -0.17876548 0.14072046 0.16399238 0.09406338 -0.0652304 -0.07276199 0.5289841 0.5110975 0.17971714 0.101772405 -0.20194049 0.14093585 0.14700639 -0.18888849 -0.05598916 0.007838595 0.13422644 -0.04598082 -0.0923359 -0.12744673 0.15517709 0.0019263028 0.15707701 0.4926969 -0.20029531 0.025030235 0.066331044 -0.31984013 0.42113206 0.3706159 -0.33744395 -0.1569147 -0.56110644 -0.17963405 -0.11825556 0.48234484 -0.05859985 -0.40986478
H11 -0.092716224 -0.4415486 -0.22881173 0.14283782 0.037949443 0.07276674 -0.09641354 -0.26975113 0.1983157 0.0562911 -0.53765035 0.24302791 -0.33135775 0.3771709 -0.02140357 0.035792846 -0.08991865 -0.20967865 -0.07199987 -0.28823015 0.13560292 -0.1594635 0.042918872 0.122140065 -0.13206986 0.11477997 0.17594889 -0.4006337 0.05813247 -0.18213572 0.4516069 -0.08552001 -0.04159889 0.2680713 -0.030660428 0.24573468 0.32260346 0.059126265 0.10251866 -0.20464972 -0.05491039 -0.15730889 -0.22251163 -0.08040188 0.29944506 -0.14914547 0.04226366 -0.08432759 0.17298032 -0.19611508 0.1310662 -0.12083846 0.14630592 -0.10942601 -0.020603048 0.15331359 0.056998182 -0.117826514 0.22649524 -0.32469547 0.18203188 0.07462716 -0.26696214 0.21845707 0.16853948 -0.028548192 -0.21756586 0.15528977 -0.1136701 -0.32770294 0.0669895 0.38137951 -0.092969604 -0.026995346 0.16927485 -0.1382489 -0.09898062 0.24014334 0.0009357008 0.11107028 -0.29777074 0.048949677 -0.044339973 0.049292892 -0.060823217 0.11147758 0.043543354 0.053583305 -0.112300314 0.10346265 0.4035127 -0.36912352 -0.07374748 0.19512713 -0.3698079 -0.5256818 0.09525109 0.3856538 -0.62402505 -0.0058919964 -0.16801749 0.033246294 0.41693413 0.04058764 0.13579844 0.22973308 -0.11044619 -0.08372289 0.07062691 0.27460295 -0.09750749 -0.2125722 -0.07435606 0.17233709 -0.14219764 0.31459618 -0.19255278 -0.22274503 0.08712308 0.2772605 -0.18842407 -0.08092292 -0.063924976 0.27618286 -0.03437116 0.34966266 -0.09150655 -0.17548403
H12 -0.040880643 -0.30220932 0.096173085 -0.41025716 -0.019591805 -0.0015802255 -0.23371343 -0.39603296 0.23291384 -0.10269364 0.12486657 -0.07716347 -0.027156085 -0.1477508 -0.06736333 -0.45840386 -0.05286617 -0.09871987 0.41941273 -0.06375451 0.026124395 0.05745153 0.15115146 -0.18791129 -0.18580016 -0.22622986 -0.0052409326 -0.19521144 0.083968006 -0.18427435 0.06370054 0.040613845 -0.19096966 -0.06864153 -0.18057412 -0.04344362 -0.15620786 0.20642473 0.10852786 -0.19377479 -0.08169932 -0.31346858 0.033818576 -0.27088913 0.31134045 0.033548143 0.22863531 -0.3025639 -0.13420023 -0.1646173 0.32127315 0.16099425 -0.50678897 -0.14655676 -0.03787143 0.090973735 -0.27052182 -0.18187472 -0.015305681 -0.040041335 0.057686254 0.054748807 -0.12133407 -0.11538739 -0.13206917 0.2179504 0.28732556 0.1523091 -0.11711448 0.06723463 0.16738337 -0.08677776 -0.034326285 -0.11319128 0.14704049 -0.06413385 0.15180342 -0.12767853 -0.4527942 -0.42289445 -0.5534537 0.12537172 -0.09828419 -0.39139116 -0.38613892 -0.37133375 0.047886297 0.008910279 -0.06900412 -0.11662884 0.031888906 -0.22460452 0.00788291 0.21740079 -0.25119022 -0.06295424 0.09668509 0.36891782 -0.15257607 -0.2512674 0.025149303 0.0012242174 -0.1467864 0.12347634 0.35669988 0.14546143 -0.042213373 -0.16358678 0.08368305 0.08314053 -0.038770348 -0.011552696 0.1022543 -0.28392237 -0.17250419 0.17614335 0.4109311 -0.04472927 0.346756 -0.2048512 -0.31988418 -0.32102773 -0.046663318 -0.09567361 -0.27645975 0.20827869 -0.32804564 0.20731333
H13 -0.017631954 0.10598799 -0.028538283 -0.27037624 0.17077042 -0.19087213 0.14272508 0.042787477 -0.3760251 -0.10213775 0.10617192 0.021240696 -0.042228743 0.26083982 -0.1469719 -0.007717312 0.028138502 -0.2905884 -0.09697217 0.06634345 -0.020077009 -0.10029061 0.16357891 0.10024395 0.028741008 0.026821813 0.09814691 -0.18889542 -0.16067152 -0.0714002 0.28534347 0.09608675 0.20803253 0.17244504 0.27314222 0.005097728 0.33627817 0.3655636 -0.2364957 0.01480703 0.10608801 -0.4601296 -0.24022211 0.21201587 0.014337183 0.12532544 -0.20982988 -0.14542265 0.15600067 -0.08957873 0.21350808 -0.08779449 -0.47539887 -0.41075027 0.27840418 0.07755057 -0.11072409 -0.08583386 0.09945512 -0.1791276 -0.086463235 -0.14616022 -0.19627522 -0.12173764 0.10659449 0.15102483 0.32305443 -0.0014109524 -0.1671571 0.11582406 -0.02619759 -0.35682786 0.2926283 -0.012493896 0.18777679 -0.11345662 -0.1555012 0.15740675 -0.004370488 0.06412637 0.051140163 0.062651515 -0.06434675 -0.0691651 0.21084133 0.2529558 -0.42231554 0.075182214 -0.038787656 -0.15626211 0.13441959 -0.16384704 -0.14736493 -0.242537 -0.52415806 -0.36271426 -0.24968918 0.09609823 0.10820145 -0.133226 -0.25982162 0.17193215 -0.20296061 0.10492425 0.08405125 -0.23131272 -0.060222205 -0.2103678 -0.161648 -0.17900653 -0.18019344 0.07891022 0.4382294 -0.39592835 0.19200483 0.25974014 0.2492852 -0.15417127 0.15498123 0.13067485 -0.15021242 -0.25474373 -0.1976177 0.13014106 -0.14730501 0.3979098 0.13454325 -0.5152704
H14 -0.19445324 -0.24759912 -0.22907555 0.054850783 -0.12707755 0.36762065 0.06492871 -0.14506027 -0.20880252 -0.15985136 0.04825296 0.071187705 -0.2586133 0.16885288 -0.08708119 0.0835453 -0.11548527 -0.024568236 0.04918804 0.11442341 0.20754863 -0.30154866 -0.084802195 -0.12505236 -0.36938784 -0.27938566 -0.42639622 -0.23453362 -0.17555794 0.02152066 -0.038135692 0.022560606 -0.06852337 0.056814604 0.18084756 0.116070434 0.14354977 0.26591355 -0.030592432 0.047263164 0.14539236 -0.16125314 0.0997824 0.0033960459 -0.030568419 0.055400494 -0.01586055 -0.39248705 -0.1767343 -0.22243163 0.74001354 -0.047883328 0.09892698 -0.14555767 0.104740985 0.2809364 0.17029138 0.031441037 0.14351885 -0.0025407982 -0.0931563 0.19661762 -0.3644554 0.16618009 0.14985706 0.18674618 -0.16705228 -0.08363089 -0.18494308 0.06529433 0.16407992 0.05556385 0.17893128 -0.036998317 -0.021012127 -0.19494611 -0.13559157 -0.1574524 -0.2753427 0.04846653 -0.43642983 0.08694706 -0.07826785 0.15318848 -0.15781191 0.17178036 0.20888634 -0.27774936 0.17279056 -0.21373561 -0.13710222 0.3738859 -0.047237325 -0.067835845 -0.2642167 0.28858832 -0.12129684 -0.097317256 -0.028430723 -0.20553297 -0.27269003 -0.4510837 0.12214661 0.19110328 -0.026083332 0.17271699 0.24951662 -0.31682196 0.08893684 0.31332138 0.057903353 0.2999472 0.13832153 0.14537024 0.048516564 -0.08846592 -0.07692268 0.17840375 0.15944055 -0.088850066 -0.44136506 0.27954185 -0.16895878 -0.31194803 -0.013908915 0.040468164 0.13234237 -0.34964168
